<?xml version="1.0"?>
<opencv_storage>
<cascade>
  <stageType>BOOST</stageType>
  <featureType>HAAR</featureType>
  <height>24</height>
  <width>24</width>
  <stageParams>
    <boostType>GAB</boostType>
    <minHitRate>9.9500000476837158e-01</minHitRate>
    <maxFalseAlarm>5.0000000000000000e-01</maxFalseAlarm>
    <weightTrimRate>9.4999999999999996e-01</weightTrimRate>
    <maxDepth>1</maxDepth>
    <maxWeakCount>100</maxWeakCount></stageParams>
  <featureParams>
    <maxCatCount>0</maxCatCount>
    <featSize>1</featSize>
    <mode>BASIC</mode></featureParams>
  <stageNum>6</stageNum>
  <stages>
    <!-- stage 0 -->
    <_>
      <maxWeakCount>2</maxWeakCount>
      <stageThreshold>-4.9932226538658142e-02</stageThreshold>
      <weakClassifiers>
        <_>
          <internalNodes>
            0 -1 10 5.0943516194820404e-02</internalNodes>
          <leafValues>
            -9.9799197912216187e-01 9.4186043739318848e-01</leafValues></_>
        <_>
          <internalNodes>
            0 -1 0 6.7254081368446350e-02</internalNodes>
          <leafValues>
            -9.9179267883300781e-01 9.6717196702957153e-01</leafValues></_></weakClassifiers></_>
    <!-- stage 1 -->
    <_>
      <maxWeakCount>2</maxWeakCount>
      <stageThreshold>-2.7858224511146545e-01</stageThreshold>
      <weakClassifiers>
        <_>
          <internalNodes>
            0 -1 8 -2.9953975230455399e-02</internalNodes>
          <leafValues>
            9.5061731338500977e-01 -9.8011928796768188e-01</leafValues></_>
        <_>
          <internalNodes>
            0 -1 13 7.1507198736071587e-03</internalNodes>
          <leafValues>
            -1. 7.0153707265853882e-01</leafValues></_></weakClassifiers></_>
    <!-- stage 2 -->
    <_>
      <maxWeakCount>3</maxWeakCount>
      <stageThreshold>-1.1432715654373169e+00</stageThreshold>
      <weakClassifiers>
        <_>
          <internalNodes>
            0 -1 14 -2.2008588537573814e-02</internalNodes>
          <leafValues>
            7.5956284999847412e-01 -9.8578679561614990e-01</leafValues></_>
        <_>
          <internalNodes>
            0 -1 5 -1.2267738580703735e-02</internalNodes>
          <leafValues>
            7.9639035463333130e-01 -9.4313520193099976e-01</leafValues></_>
        <_>
          <internalNodes>
            0 -1 4 -6.5144032239913940e-02</internalNodes>
          <leafValues>
            7.8565043210983276e-01 -9.3286800384521484e-01</leafValues></_></weakClassifiers></_>
    <!-- stage 3 -->
    <_>
      <maxWeakCount>3</maxWeakCount>
      <stageThreshold>-1.3370836973190308e+00</stageThreshold>
      <weakClassifiers>
        <_>
          <internalNodes>
            0 -1 9 1.9662402570247650e-02</internalNodes>
          <leafValues>
            -9.6196198463439941e-01 7.6331359148025513e-01</leafValues></_>
        <_>
          <internalNodes>
            0 -1 11 -2.7675431221723557e-02</internalNodes>
          <leafValues>
            6.6920387744903564e-01 -9.0052074193954468e-01</leafValues></_>
        <_>
          <internalNodes>
            0 -1 6 -1.5724871307611465e-02</internalNodes>
          <leafValues>
            5.2539902925491333e-01 -9.9434214830398560e-01</leafValues></_></weakClassifiers></_>
    <!-- stage 4 -->
    <_>
      <maxWeakCount>2</maxWeakCount>
      <stageThreshold>-3.2978287339210510e-01</stageThreshold>
      <weakClassifiers>
        <_>
          <internalNodes>
            0 -1 3 5.2902467548847198e-02</internalNodes>
          <leafValues>
            -9.4679802656173706e-01 8.4313726425170898e-01</leafValues></_>
        <_>
          <internalNodes>
            0 -1 12 -1.8545365892350674e-03</internalNodes>
          <leafValues>
            6.1701518297195435e-01 -9.9548679590225220e-01</leafValues></_></weakClassifiers></_>
    <!-- stage 5 -->
    <_>
      <maxWeakCount>3</maxWeakCount>
      <stageThreshold>-1.2298129796981812e+00</stageThreshold>
      <weakClassifiers>
        <_>
          <internalNodes>
            0 -1 7 -4.0293231606483459e-02</internalNodes>
          <leafValues>
            5.7541900873184204e-01 -9.4539940357208252e-01</leafValues></_>
        <_>
          <internalNodes>
            0 -1 1 3.3104417379945517e-03</internalNodes>
          <leafValues>
            -9.7545975446701050e-01 4.6174746751785278e-01</leafValues></_>
        <_>
          <internalNodes>
            0 -1 2 8.8186915963888168e-03</internalNodes>
          <leafValues>
            -7.4616104364395142e-01 9.1336852312088013e-01</leafValues></_></weakClassifiers></_></stages>
  <features>
    <_>
      <rects>
        <_>
          0 0 4 20 -1.</_>
        <_>
          2 0 2 20 2.</_></rects>
      <tilted>0</tilted></_>
    <_>
      <rects>
        <_>
          0 2 2 2 -1.</_>
        <_>
          1 2 1 2 2.</_></rects>
      <tilted>0</tilted></_>
    <_>
      <rects>
        <_>
          1 0 6 2 -1.</_>
        <_>
          1 1 6 1 2.</_></rects>
      <tilted>0</tilted></_>
    <_>
      <rects>
        <_>
          1 10 4 10 -1.</_>
        <_>
          1 10 2 5 2.</_>
        <_>
          3 15 2 5 2.</_></rects>
      <tilted>0</tilted></_>
    <_>
      <rects>
        <_>
          2 2 6 10 -1.</_>
        <_>
          5 2 3 10 2.</_></rects>
      <tilted>0</tilted></_>
    <_>
      <rects>
        <_>
          2 9 1 8 -1.</_>
        <_>
          2 13 1 4 2.</_></rects>
      <tilted>0</tilted></_>
    <_>
      <rects>
        <_>
          3 3 2 8 -1.</_>
        <_>
          4 3 1 8 2.</_></rects>
      <tilted>0</tilted></_>
    <_>
      <rects>
        <_>
          3 18 3 6 -1.</_>
        <_>
          3 21 3 3 2.</_></rects>
      <tilted>0</tilted></_>
    <_>
      <rects>
        <_>
          3 18 8 2 -1.</_>
        <_>
          7 18 4 2 2.</_></rects>
      <tilted>0</tilted></_>
    <_>
      <rects>
        <_>
          4 12 1 8 -1.</_>
        <_>
          4 16 1 4 2.</_></rects>
      <tilted>0</tilted></_>
    <_>
      <rects>
        <_>
          18 1 4 10 -1.</_>
        <_>
          20 1 2 10 2.</_></rects>
      <tilted>0</tilted></_>
    <_>
      <rects>
        <_>
          19 10 4 6 -1.</_>
        <_>
          19 13 4 3 2.</_></rects>
      <tilted>0</tilted></_>
    <_>
      <rects>
        <_>
          21 5 2 1 -1.</_>
        <_>
          22 5 1 1 2.</_></rects>
      <tilted>0</tilted></_>
    <_>
      <rects>
        <_>
          21 16 2 5 -1.</_>
        <_>
          22 16 1 5 2.</_></rects>
      <tilted>0</tilted></_>
    <_>
      <rects>
        <_>
          22 2 2 12 -1.</_>
        <_>
          23 2 1 12 2.</_></rects>
      <tilted>0</tilted></_></features></cascade>
</opencv_storage>
