<?xml version="1.0"?>
<opencv_storage>
<cascade>
  <stageType>BOOST</stageType>
  <featureType>HAAR</featureType>
  <height>24</height>
  <width>24</width>
  <stageParams>
    <boostType>GAB</boostType>
    <minHitRate>9.9500000476837158e-01</minHitRate>
    <maxFalseAlarm>5.0000000000000000e-01</maxFalseAlarm>
    <weightTrimRate>9.4999999999999996e-01</weightTrimRate>
    <maxDepth>1</maxDepth>
    <maxWeakCount>100</maxWeakCount></stageParams>
  <featureParams>
    <maxCatCount>0</maxCatCount>
    <featSize>1</featSize>
    <mode>BASIC</mode></featureParams>
  <stageNum>20</stageNum>
  <stages>
    <!-- stage 0 -->
    <_>
      <maxWeakCount>2</maxWeakCount>
      <stageThreshold>-6.9106839597225189e-02</stageThreshold>
      <weakClassifiers>
        <_>
          <internalNodes>
            0 -1 41 3.0822286382317543e-02</internalNodes>
          <leafValues>
            -8.2978725433349609e-01 8.8844621181488037e-01</leafValues></_>
        <_>
          <internalNodes>
            0 -1 71 -3.2620005309581757e-02</internalNodes>
          <leafValues>
            7.7337372303009033e-01 -9.5755302906036377e-01</leafValues></_></weakClassifiers></_>
    <!-- stage 1 -->
    <_>
      <maxWeakCount>3</maxWeakCount>
      <stageThreshold>2.1078203618526459e-01</stageThreshold>
      <weakClassifiers>
        <_>
          <internalNodes>
            0 -1 36 -1.3511535711586475e-02</internalNodes>
          <leafValues>
            -9.3939393758773804e-01 7.4193549156188965e-01</leafValues></_>
        <_>
          <internalNodes>
            0 -1 25 2.4682851508259773e-02</internalNodes>
          <leafValues>
            -7.6305800676345825e-01 6.5925025939941406e-01</leafValues></_>
        <_>
          <internalNodes>
            0 -1 70 -3.5066828131675720e-02</internalNodes>
          <leafValues>
            4.9092569947242737e-01 -8.8705885410308838e-01</leafValues></_></weakClassifiers></_>
    <!-- stage 2 -->
    <_>
      <maxWeakCount>6</maxWeakCount>
      <stageThreshold>-1.2474764883518219e-01</stageThreshold>
      <weakClassifiers>
        <_>
          <internalNodes>
            0 -1 50 4.2774170637130737e-02</internalNodes>
          <leafValues>
            -7.2307693958282471e-01 6.8458783626556396e-01</leafValues></_>
        <_>
          <internalNodes>
            0 -1 91 -4.1759803891181946e-02</internalNodes>
          <leafValues>
            7.9495501518249512e-01 -5.0232309103012085e-01</leafValues></_>
        <_>
          <internalNodes>
            0 -1 132 2.1493613894563168e-04</internalNodes>
          <leafValues>
            3.9165118336677551e-01 -7.8060412406921387e-01</leafValues></_>
        <_>
          <internalNodes>
            0 -1 88 -4.3358907103538513e-02</internalNodes>
          <leafValues>
            9.1944563388824463e-01 -3.3424815535545349e-01</leafValues></_>
        <_>
          <internalNodes>
            0 -1 133 6.1650164425373077e-03</internalNodes>
          <leafValues>
            3.4143140912055969e-01 -9.7412508726119995e-01</leafValues></_>
        <_>
          <internalNodes>
            0 -1 55 -7.9269334673881531e-03</internalNodes>
          <leafValues>
            7.0181792974472046e-01 -5.3067767620086670e-01</leafValues></_></weakClassifiers></_>
    <!-- stage 3 -->
    <_>
      <maxWeakCount>6</maxWeakCount>
      <stageThreshold>-3.3470815420150757e-01</stageThreshold>
      <weakClassifiers>
        <_>
          <internalNodes>
            0 -1 79 3.9696179330348969e-02</internalNodes>
          <leafValues>
            -1.1249999701976776e-01 8.8043481111526489e-01</leafValues></_>
        <_>
          <internalNodes>
            0 -1 76 -4.9197740852832794e-02</internalNodes>
          <leafValues>
            3.9220619201660156e-01 -8.4056091308593750e-01</leafValues></_>
        <_>
          <internalNodes>
            0 -1 39 4.8027560114860535e-02</internalNodes>
          <leafValues>
            -3.3655929565429688e-01 8.8902348279953003e-01</leafValues></_>
        <_>
          <internalNodes>
            0 -1 56 -5.0099171698093414e-02</internalNodes>
          <leafValues>
            7.2237032651901245e-01 -3.6857527494430542e-01</leafValues></_>
        <_>
          <internalNodes>
            0 -1 42 5.4703012108802795e-02</internalNodes>
          <leafValues>
            -2.6785045862197876e-01 9.8964118957519531e-01</leafValues></_>
        <_>
          <internalNodes>
            0 -1 129 -6.7144667264074087e-04</internalNodes>
          <leafValues>
            -9.1721600294113159e-01 3.5857069492340088e-01</leafValues></_></weakClassifiers></_>
    <!-- stage 4 -->
    <_>
      <maxWeakCount>4</maxWeakCount>
      <stageThreshold>-1.3977819122374058e-02</stageThreshold>
      <weakClassifiers>
        <_>
          <internalNodes>
            0 -1 11 -2.1896809339523315e-02</internalNodes>
          <leafValues>
            -9.5744681358337402e-01 6.3636362552642822e-01</leafValues></_>
        <_>
          <internalNodes>
            0 -1 45 -5.2001588046550751e-02</internalNodes>
          <leafValues>
            8.1941217184066772e-01 -5.1352989673614502e-01</leafValues></_>
        <_>
          <internalNodes>
            0 -1 134 1.3406474608927965e-03</internalNodes>
          <leafValues>
            4.7949016094207764e-01 -8.7464374303817749e-01</leafValues></_>
        <_>
          <internalNodes>
            0 -1 66 -1.0158890858292580e-02</internalNodes>
          <leafValues>
            7.3783218860626221e-01 -4.1409477591514587e-01</leafValues></_></weakClassifiers></_>
    <!-- stage 5 -->
    <_>
      <maxWeakCount>7</maxWeakCount>
      <stageThreshold>-2.0570948719978333e-01</stageThreshold>
      <weakClassifiers>
        <_>
          <internalNodes>
            0 -1 47 7.8057497739791870e-02</internalNodes>
          <leafValues>
            -1.5217390656471252e-01 8.9147287607192993e-01</leafValues></_>
        <_>
          <internalNodes>
            0 -1 127 7.4545927345752716e-02</internalNodes>
          <leafValues>
            3.5769596695899963e-01 -9.8051077127456665e-01</leafValues></_>
        <_>
          <internalNodes>
            0 -1 62 3.2987259328365326e-02</internalNodes>
          <leafValues>
            -4.2449787259101868e-01 6.8900871276855469e-01</leafValues></_>
        <_>
          <internalNodes>
            0 -1 48 8.4521155804395676e-03</internalNodes>
          <leafValues>
            -2.6075074076652527e-01 8.9073771238327026e-01</leafValues></_>
        <_>
          <internalNodes>
            0 -1 90 -3.2740466296672821e-02</internalNodes>
          <leafValues>
            8.4536433219909668e-01 -2.7302926778793335e-01</leafValues></_>
        <_>
          <internalNodes>
            0 -1 109 8.4821470081806183e-03</internalNodes>
          <leafValues>
            -3.1295669078826904e-01 7.8165024518966675e-01</leafValues></_>
        <_>
          <internalNodes>
            0 -1 31 1.0432952642440796e-01</internalNodes>
          <leafValues>
            -1.8364375829696655e-01 9.2428481578826904e-01</leafValues></_></weakClassifiers></_>
    <!-- stage 6 -->
    <_>
      <maxWeakCount>6</maxWeakCount>
      <stageThreshold>-7.3356521129608154e-01</stageThreshold>
      <weakClassifiers>
        <_>
          <internalNodes>
            0 -1 4 -3.4858442842960358e-02</internalNodes>
          <leafValues>
            -8.4313726425170898e-01 4.9618321657180786e-01</leafValues></_>
        <_>
          <internalNodes>
            0 -1 82 3.2416462898254395e-02</internalNodes>
          <leafValues>
            -3.5495901107788086e-01 7.8434467315673828e-01</leafValues></_>
        <_>
          <internalNodes>
            0 -1 124 -3.3796867355704308e-03</internalNodes>
          <leafValues>
            5.0510334968566895e-01 -4.7222346067428589e-01</leafValues></_>
        <_>
          <internalNodes>
            0 -1 126 2.1434840746223927e-03</internalNodes>
          <leafValues>
            3.1584236025810242e-01 -7.8893041610717773e-01</leafValues></_>
        <_>
          <internalNodes>
            0 -1 86 9.3780405819416046e-02</internalNodes>
          <leafValues>
            -2.7409878373146057e-01 9.3648135662078857e-01</leafValues></_>
        <_>
          <internalNodes>
            0 -1 99 -2.7761962264776230e-02</internalNodes>
          <leafValues>
            5.8265632390975952e-01 -4.4430956244468689e-01</leafValues></_></weakClassifiers></_>
    <!-- stage 7 -->
    <_>
      <maxWeakCount>8</maxWeakCount>
      <stageThreshold>-6.0532587766647339e-01</stageThreshold>
      <weakClassifiers>
        <_>
          <internalNodes>
            0 -1 6 6.4815588295459747e-02</internalNodes>
          <leafValues>
            4.8461538553237915e-01 -7.3584908246994019e-01</leafValues></_>
        <_>
          <internalNodes>
            0 -1 94 8.0926448106765747e-02</internalNodes>
          <leafValues>
            -2.9086816310882568e-01 9.0775728225708008e-01</leafValues></_>
        <_>
          <internalNodes>
            0 -1 57 -3.2690924126654863e-03</internalNodes>
          <leafValues>
            8.3306765556335449e-01 -1.7512629926204681e-01</leafValues></_>
        <_>
          <internalNodes>
            0 -1 98 5.1582254469394684e-02</internalNodes>
          <leafValues>
            -1.7326794564723969e-01 9.4532036781311035e-01</leafValues></_>
        <_>
          <internalNodes>
            0 -1 54 1.5584361553192139e-01</internalNodes>
          <leafValues>
            -1.6208247840404510e-01 9.8326069116592407e-01</leafValues></_>
        <_>
          <internalNodes>
            0 -1 96 6.5974413882941008e-04</internalNodes>
          <leafValues>
            -3.3314585685729980e-01 5.1235079765319824e-01</leafValues></_>
        <_>
          <internalNodes>
            0 -1 72 -5.2366675809025764e-03</internalNodes>
          <leafValues>
            6.4820718765258789e-01 -2.7363395690917969e-01</leafValues></_>
        <_>
          <internalNodes>
            0 -1 73 -3.4723775461316109e-03</internalNodes>
          <leafValues>
            7.7817022800445557e-01 -2.2868989408016205e-01</leafValues></_></weakClassifiers></_>
    <!-- stage 8 -->
    <_>
      <maxWeakCount>8</maxWeakCount>
      <stageThreshold>-4.9063700437545776e-01</stageThreshold>
      <weakClassifiers>
        <_>
          <internalNodes>
            0 -1 15 9.5597393810749054e-03</internalNodes>
          <leafValues>
            4.6816480159759521e-01 -8.2608693838119507e-01</leafValues></_>
        <_>
          <internalNodes>
            0 -1 84 8.1603497266769409e-02</internalNodes>
          <leafValues>
            -2.7945998311042786e-01 9.1961234807968140e-01</leafValues></_>
        <_>
          <internalNodes>
            0 -1 32 1.0653856396675110e-01</internalNodes>
          <leafValues>
            -2.1826203167438507e-01 9.5210033655166626e-01</leafValues></_>
        <_>
          <internalNodes>
            0 -1 97 -1.1032903566956520e-03</internalNodes>
          <leafValues>
            7.3048049211502075e-01 -2.2594167292118073e-01</leafValues></_>
        <_>
          <internalNodes>
            0 -1 131 3.8081351667642593e-03</internalNodes>
          <leafValues>
            2.7588117122650146e-01 -7.5987368822097778e-01</leafValues></_>
        <_>
          <internalNodes>
            0 -1 0 -8.6376524996012449e-04</internalNodes>
          <leafValues>
            -8.4383648633956909e-01 2.1725392341613770e-01</leafValues></_>
        <_>
          <internalNodes>
            0 -1 9 -7.6989084482192993e-03</internalNodes>
          <leafValues>
            6.6959285736083984e-01 -3.0026626586914062e-01</leafValues></_>
        <_>
          <internalNodes>
            0 -1 118 -9.2037450522184372e-03</internalNodes>
          <leafValues>
            7.0292735099792480e-01 -2.4071098864078522e-01</leafValues></_></weakClassifiers></_>
    <!-- stage 9 -->
    <_>
      <maxWeakCount>8</maxWeakCount>
      <stageThreshold>-6.7299199104309082e-01</stageThreshold>
      <weakClassifiers>
        <_>
          <internalNodes>
            0 -1 83 -7.0165947545319796e-04</internalNodes>
          <leafValues>
            7.5886523723602295e-01 -1.1627907305955887e-01</leafValues></_>
        <_>
          <internalNodes>
            0 -1 125 4.2598624713718891e-03</internalNodes>
          <leafValues>
            3.0255734920501709e-01 -8.1743544340133667e-01</leafValues></_>
        <_>
          <internalNodes>
            0 -1 22 4.2917327955365181e-03</internalNodes>
          <leafValues>
            2.0085555315017700e-01 -8.0402785539627075e-01</leafValues></_>
        <_>
          <internalNodes>
            0 -1 28 -2.2070126142352819e-03</internalNodes>
          <leafValues>
            -7.2677087783813477e-01 2.5650730729103088e-01</leafValues></_>
        <_>
          <internalNodes>
            0 -1 37 -1.8693815218284726e-03</internalNodes>
          <leafValues>
            7.4512785673141479e-01 -3.0277788639068604e-01</leafValues></_>
        <_>
          <internalNodes>
            0 -1 26 -1.1960124596953392e-02</internalNodes>
          <leafValues>
            2.6508960127830505e-01 -7.6628643274307251e-01</leafValues></_>
        <_>
          <internalNodes>
            0 -1 81 1.0893457569181919e-02</internalNodes>
          <leafValues>
            -2.9873937368392944e-01 7.4554020166397095e-01</leafValues></_>
        <_>
          <internalNodes>
            0 -1 119 4.1210258495993912e-04</internalNodes>
          <leafValues>
            2.6914265751838684e-01 -8.1288808584213257e-01</leafValues></_></weakClassifiers></_>
    <!-- stage 10 -->
    <_>
      <maxWeakCount>7</maxWeakCount>
      <stageThreshold>-5.0944381952285767e-01</stageThreshold>
      <weakClassifiers>
        <_>
          <internalNodes>
            0 -1 16 -1.1193544603884220e-02</internalNodes>
          <leafValues>
            -6.8000000715255737e-01 4.6007603406906128e-01</leafValues></_>
        <_>
          <internalNodes>
            0 -1 23 1.0656242072582245e-01</internalNodes>
          <leafValues>
            -2.2761961817741394e-01 8.1644254922866821e-01</leafValues></_>
        <_>
          <internalNodes>
            0 -1 113 -2.7282058726996183e-04</internalNodes>
          <leafValues>
            7.1337580680847168e-01 -2.2490349411964417e-01</leafValues></_>
        <_>
          <internalNodes>
            0 -1 106 -1.0467453394085169e-03</internalNodes>
          <leafValues>
            7.4794679880142212e-01 -2.2813363373279572e-01</leafValues></_>
        <_>
          <internalNodes>
            0 -1 89 -2.6856869459152222e-02</internalNodes>
          <leafValues>
            7.7836489677429199e-01 -2.6720759272575378e-01</leafValues></_>
        <_>
          <internalNodes>
            0 -1 3 -2.0183227024972439e-03</internalNodes>
          <leafValues>
            -5.6641274690628052e-01 3.9500465989112854e-01</leafValues></_>
        <_>
          <internalNodes>
            0 -1 112 4.0153916925191879e-03</internalNodes>
          <leafValues>
            -2.5266459584236145e-01 8.3029830455780029e-01</leafValues></_></weakClassifiers></_>
    <!-- stage 11 -->
    <_>
      <maxWeakCount>9</maxWeakCount>
      <stageThreshold>-1.6364365816116333e-01</stageThreshold>
      <weakClassifiers>
        <_>
          <internalNodes>
            0 -1 68 -1.0310353245586157e-03</internalNodes>
          <leafValues>
            8.5826772451400757e-01 -1.1827956885099411e-01</leafValues></_>
        <_>
          <internalNodes>
            0 -1 135 -1.3695981353521347e-02</internalNodes>
          <leafValues>
            -7.9684829711914062e-01 3.0997282266616821e-01</leafValues></_>
        <_>
          <internalNodes>
            0 -1 95 4.2799487709999084e-02</internalNodes>
          <leafValues>
            -2.2279801964759827e-01 8.6964637041091919e-01</leafValues></_>
        <_>
          <internalNodes>
            0 -1 130 -1.7296909354627132e-03</internalNodes>
          <leafValues>
            -7.7602106332778931e-01 2.6169064640998840e-01</leafValues></_>
        <_>
          <internalNodes>
            0 -1 100 -1.2478420976549387e-03</internalNodes>
          <leafValues>
            8.1757324934005737e-01 -2.3988057672977448e-01</leafValues></_>
        <_>
          <internalNodes>
            0 -1 103 1.0206911247223616e-03</internalNodes>
          <leafValues>
            2.9663941264152527e-01 -6.8005675077438354e-01</leafValues></_>
        <_>
          <internalNodes>
            0 -1 80 -1.0103406384587288e-03</internalNodes>
          <leafValues>
            6.8530654907226562e-01 -3.0241540074348450e-01</leafValues></_>
        <_>
          <internalNodes>
            0 -1 8 4.8861093819141388e-02</internalNodes>
          <leafValues>
            -6.9109266996383667e-01 2.7293911576271057e-01</leafValues></_>
        <_>
          <internalNodes>
            0 -1 114 1.1495860526338220e-03</internalNodes>
          <leafValues>
            -3.2604339718818665e-01 6.8530905246734619e-01</leafValues></_></weakClassifiers></_>
    <!-- stage 12 -->
    <_>
      <maxWeakCount>9</maxWeakCount>
      <stageThreshold>-5.1141524314880371e-01</stageThreshold>
      <weakClassifiers>
        <_>
          <internalNodes>
            0 -1 24 1.8350546015426517e-03</internalNodes>
          <leafValues>
            4.7244095802307129e-01 -5.5932205915451050e-01</leafValues></_>
        <_>
          <internalNodes>
            0 -1 87 -1.0273531079292297e-01</internalNodes>
          <leafValues>
            9.1585707664489746e-01 -1.8872550129890442e-01</leafValues></_>
        <_>
          <internalNodes>
            0 -1 128 -1.4442440588027239e-03</internalNodes>
          <leafValues>
            4.0056520700454712e-01 -4.2235988378524780e-01</leafValues></_>
        <_>
          <internalNodes>
            0 -1 18 2.9278574511408806e-02</internalNodes>
          <leafValues>
            -3.0767178535461426e-01 6.7501354217529297e-01</leafValues></_>
        <_>
          <internalNodes>
            0 -1 77 1.8325058044865727e-03</internalNodes>
          <leafValues>
            -3.8867667317390442e-01 4.0666323900222778e-01</leafValues></_>
        <_>
          <internalNodes>
            0 -1 64 -3.9420705288648605e-03</internalNodes>
          <leafValues>
            8.0446982383728027e-01 -2.0022623240947723e-01</leafValues></_>
        <_>
          <internalNodes>
            0 -1 115 1.1475184001028538e-03</internalNodes>
          <leafValues>
            -2.3299880325794220e-01 6.0154247283935547e-01</leafValues></_>
        <_>
          <internalNodes>
            0 -1 1 -3.1085725640878081e-04</internalNodes>
          <leafValues>
            -4.9767246842384338e-01 3.3349111676216125e-01</leafValues></_>
        <_>
          <internalNodes>
            0 -1 104 -1.9807569333352149e-04</internalNodes>
          <leafValues>
            4.8062777519226074e-01 -3.1186297535896301e-01</leafValues></_></weakClassifiers></_>
    <!-- stage 13 -->
    <_>
      <maxWeakCount>7</maxWeakCount>
      <stageThreshold>-5.3107470273971558e-01</stageThreshold>
      <weakClassifiers>
        <_>
          <internalNodes>
            0 -1 92 8.3614117465913296e-04</internalNodes>
          <leafValues>
            5.4098361730575562e-01 -6.5217393636703491e-01</leafValues></_>
        <_>
          <internalNodes>
            0 -1 17 8.3232328295707703e-02</internalNodes>
          <leafValues>
            -2.7034321427345276e-01 7.3990643024444580e-01</leafValues></_>
        <_>
          <internalNodes>
            0 -1 33 -2.2237536904867738e-04</internalNodes>
          <leafValues>
            4.9999344348907471e-01 -4.0368843078613281e-01</leafValues></_>
        <_>
          <internalNodes>
            0 -1 5 5.8726489078253508e-04</internalNodes>
          <leafValues>
            -4.0492877364158630e-01 5.6486588716506958e-01</leafValues></_>
        <_>
          <internalNodes>
            0 -1 63 -1.5643814112991095e-03</internalNodes>
          <leafValues>
            8.1461542844772339e-01 -1.9894580543041229e-01</leafValues></_>
        <_>
          <internalNodes>
            0 -1 49 -1.0996431112289429e-02</internalNodes>
          <leafValues>
            7.3294466733932495e-01 -2.4147942662239075e-01</leafValues></_>
        <_>
          <internalNodes>
            0 -1 51 2.7168309316039085e-03</internalNodes>
          <leafValues>
            -2.3762105405330658e-01 8.3639001846313477e-01</leafValues></_></weakClassifiers></_>
    <!-- stage 14 -->
    <_>
      <maxWeakCount>5</maxWeakCount>
      <stageThreshold>-7.1301120519638062e-01</stageThreshold>
      <weakClassifiers>
        <_>
          <internalNodes>
            0 -1 53 -9.1592455282807350e-04</internalNodes>
          <leafValues>
            -6.7647057771682739e-01 5.4285717010498047e-01</leafValues></_>
        <_>
          <internalNodes>
            0 -1 121 3.3994673285633326e-03</internalNodes>
          <leafValues>
            2.6375475525856018e-01 -7.8287845849990845e-01</leafValues></_>
        <_>
          <internalNodes>
            0 -1 38 -1.3598721474409103e-02</internalNodes>
          <leafValues>
            8.2706975936889648e-01 -2.6070126891136169e-01</leafValues></_>
        <_>
          <internalNodes>
            0 -1 93 1.6799824312329292e-02</internalNodes>
          <leafValues>
            -4.2389935255050659e-01 4.7139760851860046e-01</leafValues></_>
        <_>
          <internalNodes>
            0 -1 122 1.8403891590423882e-04</internalNodes>
          <leafValues>
            2.6329880952835083e-01 -6.8368625640869141e-01</leafValues></_></weakClassifiers></_>
    <!-- stage 15 -->
    <_>
      <maxWeakCount>6</maxWeakCount>
      <stageThreshold>-1.5108351409435272e-01</stageThreshold>
      <weakClassifiers>
        <_>
          <internalNodes>
            0 -1 10 -5.3717987611889839e-04</internalNodes>
          <leafValues>
            5.8293837308883667e-01 -3.5294118523597717e-01</leafValues></_>
        <_>
          <internalNodes>
            0 -1 34 1.1863783001899719e-03</internalNodes>
          <leafValues>
            3.3284258842468262e-01 -6.7377674579620361e-01</leafValues></_>
        <_>
          <internalNodes>
            0 -1 102 -3.7819687277078629e-03</internalNodes>
          <leafValues>
            6.8706506490707397e-01 -2.4597276747226715e-01</leafValues></_>
        <_>
          <internalNodes>
            0 -1 58 -8.0339536070823669e-03</internalNodes>
          <leafValues>
            5.9079712629318237e-01 -3.5832780599594116e-01</leafValues></_>
        <_>
          <internalNodes>
            0 -1 85 -1.9686229526996613e-02</internalNodes>
          <leafValues>
            1. -1.6464596986770630e-01</leafValues></_>
        <_>
          <internalNodes>
            0 -1 43 -2.5176731869578362e-03</internalNodes>
          <leafValues>
            7.6009398698806763e-01 -2.2433641552925110e-01</leafValues></_></weakClassifiers></_>
    <!-- stage 16 -->
    <_>
      <maxWeakCount>8</maxWeakCount>
      <stageThreshold>-6.8169057369232178e-01</stageThreshold>
      <weakClassifiers>
        <_>
          <internalNodes>
            0 -1 59 -7.4487417936325073e-02</internalNodes>
          <leafValues>
            5.6521737575531006e-01 -5.1807230710983276e-01</leafValues></_>
        <_>
          <internalNodes>
            0 -1 105 1.2361046671867371e-01</internalNodes>
          <leafValues>
            -1.2119422852993011e-01 9.6908664703369141e-01</leafValues></_>
        <_>
          <internalNodes>
            0 -1 44 6.0716405510902405e-02</internalNodes>
          <leafValues>
            -1.8431322276592255e-01 1.</leafValues></_>
        <_>
          <internalNodes>
            0 -1 2 -5.1512313075363636e-04</internalNodes>
          <leafValues>
            -6.1807900667190552e-01 3.0194070935249329e-01</leafValues></_>
        <_>
          <internalNodes>
            0 -1 27 -3.2504554837942123e-04</internalNodes>
          <leafValues>
            3.2379409670829773e-01 -4.9999356269836426e-01</leafValues></_>
        <_>
          <internalNodes>
            0 -1 52 -1.4285458019003272e-03</internalNodes>
          <leafValues>
            2.9410022497177124e-01 -6.0262328386306763e-01</leafValues></_>
        <_>
          <internalNodes>
            0 -1 35 8.3624526858329773e-02</internalNodes>
          <leafValues>
            1.9317235052585602e-01 -9.5404571294784546e-01</leafValues></_>
        <_>
          <internalNodes>
            0 -1 30 -2.3158714175224304e-03</internalNodes>
          <leafValues>
            7.5228261947631836e-01 -3.1060051918029785e-01</leafValues></_></weakClassifiers></_>
    <!-- stage 17 -->
    <_>
      <maxWeakCount>12</maxWeakCount>
      <stageThreshold>-5.9152549505233765e-01</stageThreshold>
      <weakClassifiers>
        <_>
          <internalNodes>
            0 -1 13 3.6367839202284813e-03</internalNodes>
          <leafValues>
            4.9218750000000000e-01 -6.8421053886413574e-01</leafValues></_>
        <_>
          <internalNodes>
            0 -1 117 1.8128615338355303e-03</internalNodes>
          <leafValues>
            -2.7505645155906677e-01 5.5108648538589478e-01</leafValues></_>
        <_>
          <internalNodes>
            0 -1 65 -1.0394211858510971e-02</internalNodes>
          <leafValues>
            6.8585342168807983e-01 -2.3257938027381897e-01</leafValues></_>
        <_>
          <internalNodes>
            0 -1 21 -1.1053204070776701e-03</internalNodes>
          <leafValues>
            -5.8787894248962402e-01 2.5223404169082642e-01</leafValues></_>
        <_>
          <internalNodes>
            0 -1 107 1.6277246177196503e-03</internalNodes>
          <leafValues>
            -3.2836070656776428e-01 5.6132656335830688e-01</leafValues></_>
        <_>
          <internalNodes>
            0 -1 74 1.1636733543127775e-03</internalNodes>
          <leafValues>
            2.3885488510131836e-01 -6.9380813837051392e-01</leafValues></_>
        <_>
          <internalNodes>
            0 -1 101 -1.3437153538689017e-03</internalNodes>
          <leafValues>
            8.7448549270629883e-01 -1.8037122488021851e-01</leafValues></_>
        <_>
          <internalNodes>
            0 -1 78 -6.0081703122705221e-04</internalNodes>
          <leafValues>
            5.6590211391448975e-01 -2.7942162752151489e-01</leafValues></_>
        <_>
          <internalNodes>
            0 -1 67 2.0497750490903854e-02</internalNodes>
          <leafValues>
            -2.1875734627246857e-01 7.6741158962249756e-01</leafValues></_>
        <_>
          <internalNodes>
            0 -1 14 5.6394486455246806e-04</internalNodes>
          <leafValues>
            4.0149134397506714e-01 -5.1032114028930664e-01</leafValues></_>
        <_>
          <internalNodes>
            0 -1 12 -1.4155718963593245e-04</internalNodes>
          <leafValues>
            -7.6413697004318237e-01 2.4601608514785767e-01</leafValues></_>
        <_>
          <internalNodes>
            0 -1 69 1.2541285250335932e-03</internalNodes>
          <leafValues>
            -3.7584236264228821e-01 5.3512412309646606e-01</leafValues></_></weakClassifiers></_>
    <!-- stage 18 -->
    <_>
      <maxWeakCount>4</maxWeakCount>
      <stageThreshold>-6.2608933448791504e-01</stageThreshold>
      <weakClassifiers>
        <_>
          <internalNodes>
            0 -1 136 4.8793302848935127e-03</internalNodes>
          <leafValues>
            5.8677685260772705e-01 -7.7464789152145386e-01</leafValues></_>
        <_>
          <internalNodes>
            0 -1 60 9.8691985011100769e-02</internalNodes>
          <leafValues>
            -4.5495194196701050e-01 5.0474423170089722e-01</leafValues></_>
        <_>
          <internalNodes>
            0 -1 120 -4.0366424946114421e-04</internalNodes>
          <leafValues>
            8.1006848812103271e-01 -2.6723963022232056e-01</leafValues></_>
        <_>
          <internalNodes>
            0 -1 46 -8.0124253872781992e-04</internalNodes>
          <leafValues>
            4.0935578942298889e-01 -4.9067461490631104e-01</leafValues></_></weakClassifiers></_>
    <!-- stage 19 -->
    <_>
      <maxWeakCount>12</maxWeakCount>
      <stageThreshold>-9.7810828685760498e-01</stageThreshold>
      <weakClassifiers>
        <_>
          <internalNodes>
            0 -1 75 4.5540910214185715e-03</internalNodes>
          <leafValues>
            -3.5532996058464050e-02 8.1034481525421143e-01</leafValues></_>
        <_>
          <internalNodes>
            0 -1 110 1.3258086983114481e-03</internalNodes>
          <leafValues>
            -1.8670968711376190e-01 6.7080760002136230e-01</leafValues></_>
        <_>
          <internalNodes>
            0 -1 40 -7.5198221020400524e-03</internalNodes>
          <leafValues>
            -8.9330619573593140e-01 1.9323225319385529e-01</leafValues></_>
        <_>
          <internalNodes>
            0 -1 61 -1.1513144709169865e-03</internalNodes>
          <leafValues>
            6.2574100494384766e-01 -2.2486855089664459e-01</leafValues></_>
        <_>
          <internalNodes>
            0 -1 20 3.9534098468720913e-03</internalNodes>
          <leafValues>
            2.5582444667816162e-01 -5.9806251525878906e-01</leafValues></_>
        <_>
          <internalNodes>
            0 -1 29 -8.4761576727032661e-04</internalNodes>
          <leafValues>
            5.5445700883865356e-01 -2.7429866790771484e-01</leafValues></_>
        <_>
          <internalNodes>
            0 -1 111 -7.6585006900131702e-04</internalNodes>
          <leafValues>
            7.2434997558593750e-01 -1.9455613195896149e-01</leafValues></_>
        <_>
          <internalNodes>
            0 -1 108 -6.8586721317842603e-04</internalNodes>
          <leafValues>
            5.1261180639266968e-01 -3.0185431241989136e-01</leafValues></_>
        <_>
          <internalNodes>
            0 -1 7 -4.6475743874907494e-04</internalNodes>
          <leafValues>
            -6.9753623008728027e-01 2.3418733477592468e-01</leafValues></_>
        <_>
          <internalNodes>
            0 -1 116 1.3128689024597406e-03</internalNodes>
          <leafValues>
            -3.1574928760528564e-01 5.3839397430419922e-01</leafValues></_>
        <_>
          <internalNodes>
            0 -1 19 6.0706967487931252e-03</internalNodes>
          <leafValues>
            2.8290981054306030e-01 -6.9195389747619629e-01</leafValues></_>
        <_>
          <internalNodes>
            0 -1 123 -2.2589933359995484e-04</internalNodes>
          <leafValues>
            4.1190716624259949e-01 -3.7127169966697693e-01</leafValues></_></weakClassifiers></_></stages>
  <features>
    <_>
      <rects>
        <_>
          0 0 2 6 -1.</_>
        <_>
          1 0 1 6 2.</_></rects>
      <tilted>0</tilted></_>
    <_>
      <rects>
        <_>
          0 0 2 12 -1.</_>
        <_>
          0 0 1 6 2.</_>
        <_>
          1 6 1 6 2.</_></rects>
      <tilted>0</tilted></_>
    <_>
      <rects>
        <_>
          0 0 4 2 -1.</_>
        <_>
          2 0 2 2 2.</_></rects>
      <tilted>0</tilted></_>
    <_>
      <rects>
        <_>
          0 0 10 2 -1.</_>
        <_>
          5 0 5 2 2.</_></rects>
      <tilted>0</tilted></_>
    <_>
      <rects>
        <_>
          0 0 6 18 -1.</_>
        <_>
          0 9 6 9 2.</_></rects>
      <tilted>0</tilted></_>
    <_>
      <rects>
        <_>
          0 1 2 22 -1.</_>
        <_>
          1 1 1 22 2.</_></rects>
      <tilted>0</tilted></_>
    <_>
      <rects>
        <_>
          0 3 9 12 -1.</_>
        <_>
          0 9 9 6 2.</_></rects>
      <tilted>0</tilted></_>
    <_>
      <rects>
        <_>
          0 4 2 5 -1.</_>
        <_>
          1 4 1 5 2.</_></rects>
      <tilted>0</tilted></_>
    <_>
      <rects>
        <_>
          0 13 18 10 -1.</_>
        <_>
          9 13 9 10 2.</_></rects>
      <tilted>0</tilted></_>
    <_>
      <rects>
        <_>
          0 13 19 2 -1.</_>
        <_>
          0 14 19 1 2.</_></rects>
      <tilted>0</tilted></_>
    <_>
      <rects>
        <_>
          0 16 3 8 -1.</_>
        <_>
          0 20 3 4 2.</_></rects>
      <tilted>0</tilted></_>
    <_>
      <rects>
        <_>
          0 22 3 1 -1.</_>
        <_>
          1 22 1 1 2.</_></rects>
      <tilted>0</tilted></_>
    <_>
      <rects>
        <_>
          1 0 2 1 -1.</_>
        <_>
          2 0 1 1 2.</_></rects>
      <tilted>0</tilted></_>
    <_>
      <rects>
        <_>
          1 0 2 6 -1.</_>
        <_>
          1 3 2 3 2.</_></rects>
      <tilted>0</tilted></_>
    <_>
      <rects>
        <_>
          1 1 2 6 -1.</_>
        <_>
          1 4 2 3 2.</_></rects>
      <tilted>0</tilted></_>
    <_>
      <rects>
        <_>
          1 4 1 20 -1.</_>
        <_>
          1 14 1 10 2.</_></rects>
      <tilted>0</tilted></_>
    <_>
      <rects>
        <_>
          1 6 1 16 -1.</_>
        <_>
          1 14 1 8 2.</_></rects>
      <tilted>0</tilted></_>
    <_>
      <rects>
        <_>
          1 8 14 8 -1.</_>
        <_>
          1 8 7 4 2.</_>
        <_>
          8 12 7 4 2.</_></rects>
      <tilted>0</tilted></_>
    <_>
      <rects>
        <_>
          1 13 14 1 -1.</_>
        <_>
          8 13 7 1 2.</_></rects>
      <tilted>0</tilted></_>
    <_>
      <rects>
        <_>
          1 15 19 4 -1.</_>
        <_>
          1 17 19 2 2.</_></rects>
      <tilted>0</tilted></_>
    <_>
      <rects>
        <_>
          2 0 10 3 -1.</_>
        <_>
          7 0 5 3 2.</_></rects>
      <tilted>0</tilted></_>
    <_>
      <rects>
        <_>
          2 0 12 1 -1.</_>
        <_>
          8 0 6 1 2.</_></rects>
      <tilted>0</tilted></_>
    <_>
      <rects>
        <_>
          2 0 20 1 -1.</_>
        <_>
          12 0 10 1 2.</_></rects>
      <tilted>0</tilted></_>
    <_>
      <rects>
        <_>
          2 9 14 8 -1.</_>
        <_>
          2 9 7 4 2.</_>
        <_>
          9 13 7 4 2.</_></rects>
      <tilted>0</tilted></_>
    <_>
      <rects>
        <_>
          2 10 1 14 -1.</_>
        <_>
          2 17 1 7 2.</_></rects>
      <tilted>0</tilted></_>
    <_>
      <rects>
        <_>
          2 13 14 9 -1.</_>
        <_>
          9 13 7 9 2.</_></rects>
      <tilted>0</tilted></_>
    <_>
      <rects>
        <_>
          2 17 19 6 -1.</_>
        <_>
          2 20 19 3 2.</_></rects>
      <tilted>0</tilted></_>
    <_>
      <rects>
        <_>
          2 20 6 4 -1.</_>
        <_>
          2 22 6 2 2.</_></rects>
      <tilted>0</tilted></_>
    <_>
      <rects>
        <_>
          3 0 12 1 -1.</_>
        <_>
          9 0 6 1 2.</_></rects>
      <tilted>0</tilted></_>
    <_>
      <rects>
        <_>
          3 8 2 10 -1.</_>
        <_>
          4 8 1 10 2.</_></rects>
      <tilted>0</tilted></_>
    <_>
      <rects>
        <_>
          3 11 12 4 -1.</_>
        <_>
          3 11 6 2 2.</_>
        <_>
          9 13 6 2 2.</_></rects>
      <tilted>0</tilted></_>
    <_>
      <rects>
        <_>
          3 11 12 6 -1.</_>
        <_>
          9 11 6 6 2.</_></rects>
      <tilted>0</tilted></_>
    <_>
      <rects>
        <_>
          3 12 12 5 -1.</_>
        <_>
          9 12 6 5 2.</_></rects>
      <tilted>0</tilted></_>
    <_>
      <rects>
        <_>
          3 22 8 2 -1.</_>
        <_>
          3 23 8 1 2.</_></rects>
      <tilted>0</tilted></_>
    <_>
      <rects>
        <_>
          4 0 12 1 -1.</_>
        <_>
          10 0 6 1 2.</_></rects>
      <tilted>0</tilted></_>
    <_>
      <rects>
        <_>
          4 2 20 10 -1.</_>
        <_>
          4 2 10 5 2.</_>
        <_>
          14 7 10 5 2.</_></rects>
      <tilted>0</tilted></_>
    <_>
      <rects>
        <_>
          4 3 17 16 -1.</_>
        <_>
          4 11 17 8 2.</_></rects>
      <tilted>0</tilted></_>
    <_>
      <rects>
        <_>
          4 9 4 10 -1.</_>
        <_>
          6 9 2 10 2.</_></rects>
      <tilted>0</tilted></_>
    <_>
      <rects>
        <_>
          4 10 10 2 -1.</_>
        <_>
          9 10 5 2 2.</_></rects>
      <tilted>0</tilted></_>
    <_>
      <rects>
        <_>
          4 10 10 8 -1.</_>
        <_>
          4 10 5 4 2.</_>
        <_>
          9 14 5 4 2.</_></rects>
      <tilted>0</tilted></_>
    <_>
      <rects>
        <_>
          4 17 4 7 -1.</_>
        <_>
          6 17 2 7 2.</_></rects>
      <tilted>0</tilted></_>
    <_>
      <rects>
        <_>
          5 0 11 22 -1.</_>
        <_>
          5 11 11 11 2.</_></rects>
      <tilted>0</tilted></_>
    <_>
      <rects>
        <_>
          5 11 10 8 -1.</_>
        <_>
          5 11 5 4 2.</_>
        <_>
          10 15 5 4 2.</_></rects>
      <tilted>0</tilted></_>
    <_>
      <rects>
        <_>
          5 12 6 1 -1.</_>
        <_>
          8 12 3 1 2.</_></rects>
      <tilted>0</tilted></_>
    <_>
      <rects>
        <_>
          5 13 8 3 -1.</_>
        <_>
          9 13 4 3 2.</_></rects>
      <tilted>0</tilted></_>
    <_>
      <rects>
        <_>
          5 16 12 8 -1.</_>
        <_>
          5 20 12 4 2.</_></rects>
      <tilted>0</tilted></_>
    <_>
      <rects>
        <_>
          5 20 5 4 -1.</_>
        <_>
          5 22 5 2 2.</_></rects>
      <tilted>0</tilted></_>
    <_>
      <rects>
        <_>
          6 0 8 24 -1.</_>
        <_>
          6 0 4 12 2.</_>
        <_>
          10 12 4 12 2.</_></rects>
      <tilted>0</tilted></_>
    <_>
      <rects>
        <_>
          6 14 12 2 -1.</_>
        <_>
          6 14 6 1 2.</_>
        <_>
          12 15 6 1 2.</_></rects>
      <tilted>0</tilted></_>
    <_>
      <rects>
        <_>
          6 16 10 2 -1.</_>
        <_>
          6 17 10 1 2.</_></rects>
      <tilted>0</tilted></_>
    <_>
      <rects>
        <_>
          7 0 9 22 -1.</_>
        <_>
          7 11 9 11 2.</_></rects>
      <tilted>0</tilted></_>
    <_>
      <rects>
        <_>
          7 16 6 2 -1.</_>
        <_>
          7 16 3 1 2.</_>
        <_>
          10 17 3 1 2.</_></rects>
      <tilted>0</tilted></_>
    <_>
      <rects>
        <_>
          7 18 9 4 -1.</_>
        <_>
          7 20 9 2 2.</_></rects>
      <tilted>0</tilted></_>
    <_>
      <rects>
        <_>
          8 0 6 1 -1.</_>
        <_>
          11 0 3 1 2.</_></rects>
      <tilted>0</tilted></_>
    <_>
      <rects>
        <_>
          8 0 5 18 -1.</_>
        <_>
          8 9 5 9 2.</_></rects>
      <tilted>0</tilted></_>
    <_>
      <rects>
        <_>
          8 7 6 5 -1.</_>
        <_>
          11 7 3 5 2.</_></rects>
      <tilted>0</tilted></_>
    <_>
      <rects>
        <_>
          8 12 10 10 -1.</_>
        <_>
          8 17 10 5 2.</_></rects>
      <tilted>0</tilted></_>
    <_>
      <rects>
        <_>
          8 13 7 2 -1.</_>
        <_>
          8 14 7 1 2.</_></rects>
      <tilted>0</tilted></_>
    <_>
      <rects>
        <_>
          8 18 9 2 -1.</_>
        <_>
          8 19 9 1 2.</_></rects>
      <tilted>0</tilted></_>
    <_>
      <rects>
        <_>
          9 6 3 11 -1.</_>
        <_>
          10 6 1 11 2.</_></rects>
      <tilted>0</tilted></_>
    <_>
      <rects>
        <_>
          9 6 15 14 -1.</_>
        <_>
          9 13 15 7 2.</_></rects>
      <tilted>0</tilted></_>
    <_>
      <rects>
        <_>
          9 9 2 2 -1.</_>
        <_>
          9 10 2 1 2.</_></rects>
      <tilted>0</tilted></_>
    <_>
      <rects>
        <_>
          9 10 6 6 -1.</_>
        <_>
          9 13 6 3 2.</_></rects>
      <tilted>0</tilted></_>
    <_>
      <rects>
        <_>
          9 11 6 2 -1.</_>
        <_>
          9 12 6 1 2.</_></rects>
      <tilted>0</tilted></_>
    <_>
      <rects>
        <_>
          9 11 14 2 -1.</_>
        <_>
          9 12 14 1 2.</_></rects>
      <tilted>0</tilted></_>
    <_>
      <rects>
        <_>
          9 13 8 1 -1.</_>
        <_>
          13 13 4 1 2.</_></rects>
      <tilted>0</tilted></_>
    <_>
      <rects>
        <_>
          9 14 6 4 -1.</_>
        <_>
          9 16 6 2 2.</_></rects>
      <tilted>0</tilted></_>
    <_>
      <rects>
        <_>
          10 0 8 8 -1.</_>
        <_>
          10 4 8 4 2.</_></rects>
      <tilted>0</tilted></_>
    <_>
      <rects>
        <_>
          10 9 5 2 -1.</_>
        <_>
          10 10 5 1 2.</_></rects>
      <tilted>0</tilted></_>
    <_>
      <rects>
        <_>
          10 9 12 2 -1.</_>
        <_>
          10 9 6 1 2.</_>
        <_>
          16 10 6 1 2.</_></rects>
      <tilted>0</tilted></_>
    <_>
      <rects>
        <_>
          10 11 3 5 -1.</_>
        <_>
          11 11 1 5 2.</_></rects>
      <tilted>0</tilted></_>
    <_>
      <rects>
        <_>
          10 12 3 5 -1.</_>
        <_>
          11 12 1 5 2.</_></rects>
      <tilted>0</tilted></_>
    <_>
      <rects>
        <_>
          10 14 6 2 -1.</_>
        <_>
          10 15 6 1 2.</_></rects>
      <tilted>0</tilted></_>
    <_>
      <rects>
        <_>
          10 21 5 2 -1.</_>
        <_>
          10 22 5 1 2.</_></rects>
      <tilted>0</tilted></_>
    <_>
      <rects>
        <_>
          10 23 8 1 -1.</_>
        <_>
          14 23 4 1 2.</_></rects>
      <tilted>0</tilted></_>
    <_>
      <rects>
        <_>
          11 3 8 5 -1.</_>
        <_>
          15 3 4 5 2.</_></rects>
      <tilted>0</tilted></_>
    <_>
      <rects>
        <_>
          11 4 3 10 -1.</_>
        <_>
          12 4 1 10 2.</_></rects>
      <tilted>0</tilted></_>
    <_>
      <rects>
        <_>
          11 5 10 6 -1.</_>
        <_>
          11 5 5 3 2.</_>
        <_>
          16 8 5 3 2.</_></rects>
      <tilted>0</tilted></_>
    <_>
      <rects>
        <_>
          11 6 5 2 -1.</_>
        <_>
          11 7 5 1 2.</_></rects>
      <tilted>0</tilted></_>
    <_>
      <rects>
        <_>
          11 7 3 10 -1.</_>
        <_>
          11 12 3 5 2.</_></rects>
      <tilted>0</tilted></_>
    <_>
      <rects>
        <_>
          11 8 3 2 -1.</_>
        <_>
          11 9 3 1 2.</_></rects>
      <tilted>0</tilted></_>
    <_>
      <rects>
        <_>
          11 8 6 4 -1.</_>
        <_>
          14 8 3 4 2.</_></rects>
      <tilted>0</tilted></_>
    <_>
      <rects>
        <_>
          11 9 2 8 -1.</_>
        <_>
          11 13 2 4 2.</_></rects>
      <tilted>0</tilted></_>
    <_>
      <rects>
        <_>
          11 9 4 2 -1.</_>
        <_>
          11 10 4 1 2.</_></rects>
      <tilted>0</tilted></_>
    <_>
      <rects>
        <_>
          11 9 4 10 -1.</_>
        <_>
          11 14 4 5 2.</_></rects>
      <tilted>0</tilted></_>
    <_>
      <rects>
        <_>
          11 10 4 4 -1.</_>
        <_>
          13 10 2 4 2.</_></rects>
      <tilted>0</tilted></_>
    <_>
      <rects>
        <_>
          11 10 5 10 -1.</_>
        <_>
          11 15 5 5 2.</_></rects>
      <tilted>0</tilted></_>
    <_>
      <rects>
        <_>
          11 10 12 8 -1.</_>
        <_>
          11 10 6 4 2.</_>
        <_>
          17 14 6 4 2.</_></rects>
      <tilted>0</tilted></_>
    <_>
      <rects>
        <_>
          11 11 8 9 -1.</_>
        <_>
          15 11 4 9 2.</_></rects>
      <tilted>0</tilted></_>
    <_>
      <rects>
        <_>
          11 12 1 12 -1.</_>
        <_>
          11 18 1 6 2.</_></rects>
      <tilted>0</tilted></_>
    <_>
      <rects>
        <_>
          11 12 6 7 -1.</_>
        <_>
          14 12 3 7 2.</_></rects>
      <tilted>0</tilted></_>
    <_>
      <rects>
        <_>
          11 13 10 11 -1.</_>
        <_>
          16 13 5 11 2.</_></rects>
      <tilted>0</tilted></_>
    <_>
      <rects>
        <_>
          12 0 6 1 -1.</_>
        <_>
          15 0 3 1 2.</_></rects>
      <tilted>0</tilted></_>
    <_>
      <rects>
        <_>
          12 3 2 12 -1.</_>
        <_>
          12 9 2 6 2.</_></rects>
      <tilted>0</tilted></_>
    <_>
      <rects>
        <_>
          12 5 3 14 -1.</_>
        <_>
          12 12 3 7 2.</_></rects>
      <tilted>0</tilted></_>
    <_>
      <rects>
        <_>
          12 9 2 8 -1.</_>
        <_>
          12 13 2 4 2.</_></rects>
      <tilted>0</tilted></_>
    <_>
      <rects>
        <_>
          12 9 6 1 -1.</_>
        <_>
          15 9 3 1 2.</_></rects>
      <tilted>0</tilted></_>
    <_>
      <rects>
        <_>
          12 9 3 2 -1.</_>
        <_>
          12 10 3 1 2.</_></rects>
      <tilted>0</tilted></_>
    <_>
      <rects>
        <_>
          12 10 2 10 -1.</_>
        <_>
          12 15 2 5 2.</_></rects>
      <tilted>0</tilted></_>
    <_>
      <rects>
        <_>
          12 10 2 14 -1.</_>
        <_>
          12 17 2 7 2.</_></rects>
      <tilted>0</tilted></_>
    <_>
      <rects>
        <_>
          12 11 2 2 -1.</_>
        <_>
          12 12 2 1 2.</_></rects>
      <tilted>0</tilted></_>
    <_>
      <rects>
        <_>
          12 12 2 2 -1.</_>
        <_>
          12 12 1 1 2.</_>
        <_>
          13 13 1 1 2.</_></rects>
      <tilted>0</tilted></_>
    <_>
      <rects>
        <_>
          12 16 4 2 -1.</_>
        <_>
          12 17 4 1 2.</_></rects>
      <tilted>0</tilted></_>
    <_>
      <rects>
        <_>
          12 22 4 2 -1.</_>
        <_>
          14 22 2 2 2.</_></rects>
      <tilted>0</tilted></_>
    <_>
      <rects>
        <_>
          13 3 4 2 -1.</_>
        <_>
          13 4 4 1 2.</_></rects>
      <tilted>0</tilted></_>
    <_>
      <rects>
        <_>
          13 5 4 16 -1.</_>
        <_>
          13 13 4 8 2.</_></rects>
      <tilted>0</tilted></_>
    <_>
      <rects>
        <_>
          13 9 1 4 -1.</_>
        <_>
          13 11 1 2 2.</_></rects>
      <tilted>0</tilted></_>
    <_>
      <rects>
        <_>
          13 9 2 5 -1.</_>
        <_>
          14 9 1 5 2.</_></rects>
      <tilted>0</tilted></_>
    <_>
      <rects>
        <_>
          13 9 3 2 -1.</_>
        <_>
          13 10 3 1 2.</_></rects>
      <tilted>0</tilted></_>
    <_>
      <rects>
        <_>
          13 10 4 5 -1.</_>
        <_>
          15 10 2 5 2.</_></rects>
      <tilted>0</tilted></_>
    <_>
      <rects>
        <_>
          13 10 8 2 -1.</_>
        <_>
          13 10 4 1 2.</_>
        <_>
          17 11 4 1 2.</_></rects>
      <tilted>0</tilted></_>
    <_>
      <rects>
        <_>
          13 11 1 2 -1.</_>
        <_>
          13 12 1 1 2.</_></rects>
      <tilted>0</tilted></_>
    <_>
      <rects>
        <_>
          13 11 2 7 -1.</_>
        <_>
          14 11 1 7 2.</_></rects>
      <tilted>0</tilted></_>
    <_>
      <rects>
        <_>
          13 12 1 2 -1.</_>
        <_>
          13 13 1 1 2.</_></rects>
      <tilted>0</tilted></_>
    <_>
      <rects>
        <_>
          13 12 4 2 -1.</_>
        <_>
          13 12 2 1 2.</_>
        <_>
          15 13 2 1 2.</_></rects>
      <tilted>0</tilted></_>
    <_>
      <rects>
        <_>
          13 12 10 4 -1.</_>
        <_>
          13 12 5 2 2.</_>
        <_>
          18 14 5 2 2.</_></rects>
      <tilted>0</tilted></_>
    <_>
      <rects>
        <_>
          14 4 2 7 -1.</_>
        <_>
          15 4 1 7 2.</_></rects>
      <tilted>0</tilted></_>
    <_>
      <rects>
        <_>
          14 5 2 8 -1.</_>
        <_>
          15 5 1 8 2.</_></rects>
      <tilted>0</tilted></_>
    <_>
      <rects>
        <_>
          14 15 4 5 -1.</_>
        <_>
          16 15 2 5 2.</_></rects>
      <tilted>0</tilted></_>
    <_>
      <rects>
        <_>
          14 22 2 2 -1.</_>
        <_>
          15 22 1 2 2.</_></rects>
      <tilted>0</tilted></_>
    <_>
      <rects>
        <_>
          15 10 1 2 -1.</_>
        <_>
          15 11 1 1 2.</_></rects>
      <tilted>0</tilted></_>
    <_>
      <rects>
        <_>
          16 20 8 4 -1.</_>
        <_>
          20 20 4 4 2.</_></rects>
      <tilted>0</tilted></_>
    <_>
      <rects>
        <_>
          17 0 1 2 -1.</_>
        <_>
          17 1 1 1 2.</_></rects>
      <tilted>0</tilted></_>
    <_>
      <rects>
        <_>
          17 3 7 4 -1.</_>
        <_>
          17 5 7 2 2.</_></rects>
      <tilted>0</tilted></_>
    <_>
      <rects>
        <_>
          17 18 7 6 -1.</_>
        <_>
          17 21 7 3 2.</_></rects>
      <tilted>0</tilted></_>
    <_>
      <rects>
        <_>
          17 20 6 3 -1.</_>
        <_>
          20 20 3 3 2.</_></rects>
      <tilted>0</tilted></_>
    <_>
      <rects>
        <_>
          18 0 6 4 -1.</_>
        <_>
          21 0 3 4 2.</_></rects>
      <tilted>0</tilted></_>
    <_>
      <rects>
        <_>
          19 0 5 24 -1.</_>
        <_>
          19 12 5 12 2.</_></rects>
      <tilted>0</tilted></_>
    <_>
      <rects>
        <_>
          19 18 5 6 -1.</_>
        <_>
          19 21 5 3 2.</_></rects>
      <tilted>0</tilted></_>
    <_>
      <rects>
        <_>
          20 0 4 1 -1.</_>
        <_>
          22 0 2 1 2.</_></rects>
      <tilted>0</tilted></_>
    <_>
      <rects>
        <_>
          20 1 1 8 -1.</_>
        <_>
          20 5 1 4 2.</_></rects>
      <tilted>0</tilted></_>
    <_>
      <rects>
        <_>
          20 1 4 10 -1.</_>
        <_>
          20 1 2 5 2.</_>
        <_>
          22 6 2 5 2.</_></rects>
      <tilted>0</tilted></_>
    <_>
      <rects>
        <_>
          21 0 2 2 -1.</_>
        <_>
          22 0 1 2 2.</_></rects>
      <tilted>0</tilted></_>
    <_>
      <rects>
        <_>
          21 8 1 16 -1.</_>
        <_>
          21 16 1 8 2.</_></rects>
      <tilted>0</tilted></_>
    <_>
      <rects>
        <_>
          22 0 2 10 -1.</_>
        <_>
          23 0 1 10 2.</_></rects>
      <tilted>0</tilted></_>
    <_>
      <rects>
        <_>
          22 4 1 20 -1.</_>
        <_>
          22 14 1 10 2.</_></rects>
      <tilted>0</tilted></_>
    <_>
      <rects>
        <_>
          22 7 1 16 -1.</_>
        <_>
          22 15 1 8 2.</_></rects>
      <tilted>0</tilted></_></features></cascade>
</opencv_storage>
