<?xml version="1.0"?>
<opencv_storage>
<cascade>
  <stageType>BOOST</stageType>
  <featureType>HAAR</featureType>
  <height>24</height>
  <width>24</width>
  <stageParams>
    <boostType>GAB</boostType>
    <minHitRate>9.9500000476837158e-01</minHitRate>
    <maxFalseAlarm>5.0000000000000000e-01</maxFalseAlarm>
    <weightTrimRate>9.4999999999999996e-01</weightTrimRate>
    <maxDepth>1</maxDepth>
    <maxWeakCount>100</maxWeakCount></stageParams>
  <featureParams>
    <maxCatCount>0</maxCatCount>
    <featSize>1</featSize>
    <mode>BASIC</mode></featureParams>
  <stageNum>20</stageNum>
  <stages>
    <!-- stage 0 -->
    <_>
      <maxWeakCount>2</maxWeakCount>
      <stageThreshold>-9.1874867677688599e-02</stageThreshold>
      <weakClassifiers>
        <_>
          <internalNodes>
            0 -1 43 3.0822286382317543e-02</internalNodes>
          <leafValues>
            -8.2978725433349609e-01 8.6407768726348877e-01</leafValues></_>
        <_>
          <internalNodes>
            0 -1 83 -3.2620005309581757e-02</internalNodes>
          <leafValues>
            7.4089813232421875e-01 -9.5595252513885498e-01</leafValues></_></weakClassifiers></_>
    <!-- stage 1 -->
    <_>
      <maxWeakCount>3</maxWeakCount>
      <stageThreshold>-9.9253487586975098e-01</stageThreshold>
      <weakClassifiers>
        <_>
          <internalNodes>
            0 -1 41 -1.3511535711586475e-02</internalNodes>
          <leafValues>
            -9.3939393758773804e-01 6.9230771064758301e-01</leafValues></_>
        <_>
          <internalNodes>
            0 -1 32 2.4682851508259773e-02</internalNodes>
          <leafValues>
            -8.0732721090316772e-01 6.2980312108993530e-01</leafValues></_>
        <_>
          <internalNodes>
            0 -1 81 -4.1735708713531494e-02</internalNodes>
          <leafValues>
            4.5607987046241760e-01 -8.7751537561416626e-01</leafValues></_></weakClassifiers></_>
    <!-- stage 2 -->
    <_>
      <maxWeakCount>6</maxWeakCount>
      <stageThreshold>-5.4089230298995972e-01</stageThreshold>
      <weakClassifiers>
        <_>
          <internalNodes>
            0 -1 36 7.5290575623512268e-02</internalNodes>
          <leafValues>
            -3.3333334326744080e-01 8.1609195470809937e-01</leafValues></_>
        <_>
          <internalNodes>
            0 -1 85 -1.3876361772418022e-02</internalNodes>
          <leafValues>
            9.5681947469711304e-01 -1.9818685948848724e-01</leafValues></_>
        <_>
          <internalNodes>
            0 -1 123 -3.4056212753057480e-03</internalNodes>
          <leafValues>
            -8.7288427352905273e-01 4.0370365977287292e-01</leafValues></_>
        <_>
          <internalNodes>
            0 -1 62 2.4195397272706032e-02</internalNodes>
          <leafValues>
            -4.0033704042434692e-01 8.5540807247161865e-01</leafValues></_>
        <_>
          <internalNodes>
            0 -1 113 1.2949339579790831e-03</internalNodes>
          <leafValues>
            -4.1730806231498718e-01 7.2466319799423218e-01</leafValues></_>
        <_>
          <internalNodes>
            0 -1 28 6.3010398298501968e-03</internalNodes>
          <leafValues>
            4.0456932783126831e-01 -7.0358526706695557e-01</leafValues></_></weakClassifiers></_>
    <!-- stage 3 -->
    <_>
      <maxWeakCount>6</maxWeakCount>
      <stageThreshold>-4.0694990754127502e-01</stageThreshold>
      <weakClassifiers>
        <_>
          <internalNodes>
            0 -1 84 -3.6883097141981125e-02</internalNodes>
          <leafValues>
            7.3459714651107788e-01 -6.1797749996185303e-01</leafValues></_>
        <_>
          <internalNodes>
            0 -1 74 -7.4923336505889893e-02</internalNodes>
          <leafValues>
            9.8330241441726685e-01 -2.7210724353790283e-01</leafValues></_>
        <_>
          <internalNodes>
            0 -1 27 -5.7900729589164257e-03</internalNodes>
          <leafValues>
            -7.4505561590194702e-01 4.4717898964881897e-01</leafValues></_>
        <_>
          <internalNodes>
            0 -1 86 -7.2716875001788139e-03</internalNodes>
          <leafValues>
            6.5593230724334717e-01 -4.9200305342674255e-01</leafValues></_>
        <_>
          <internalNodes>
            0 -1 114 9.5051359385251999e-03</internalNodes>
          <leafValues>
            -3.5637900233268738e-01 8.6944562196731567e-01</leafValues></_>
        <_>
          <internalNodes>
            0 -1 82 -6.7590110003948212e-02</internalNodes>
          <leafValues>
            9.3322730064392090e-01 -3.4148672223091125e-01</leafValues></_></weakClassifiers></_>
    <!-- stage 4 -->
    <_>
      <maxWeakCount>6</maxWeakCount>
      <stageThreshold>-1.1928995847702026e+00</stageThreshold>
      <weakClassifiers>
        <_>
          <internalNodes>
            0 -1 42 2.6397082954645157e-02</internalNodes>
          <leafValues>
            -2.6470589637756348e-01 8.2926827669143677e-01</leafValues></_>
        <_>
          <internalNodes>
            0 -1 110 -2.4531867355108261e-02</internalNodes>
          <leafValues>
            3.6778751015663147e-01 -9.3392932415008545e-01</leafValues></_>
        <_>
          <internalNodes>
            0 -1 106 -1.0076510906219482e-01</internalNodes>
          <leafValues>
            -9.6727555990219116e-01 3.2189604640007019e-01</leafValues></_>
        <_>
          <internalNodes>
            0 -1 77 1.0834084451198578e-01</internalNodes>
          <leafValues>
            -3.7915456295013428e-01 9.4739425182342529e-01</leafValues></_>
        <_>
          <internalNodes>
            0 -1 30 6.4275652170181274e-02</internalNodes>
          <leafValues>
            -3.3229312300682068e-01 9.4845503568649292e-01</leafValues></_>
        <_>
          <internalNodes>
            0 -1 133 1.3057086616754532e-03</internalNodes>
          <leafValues>
            3.8274204730987549e-01 -9.3597751855850220e-01</leafValues></_></weakClassifiers></_>
    <!-- stage 5 -->
    <_>
      <maxWeakCount>8</maxWeakCount>
      <stageThreshold>-2.5000065565109253e-01</stageThreshold>
      <weakClassifiers>
        <_>
          <internalNodes>
            0 -1 11 -1.9004674255847931e-01</internalNodes>
          <leafValues>
            -9.2982459068298340e-01 6.2962961196899414e-01</leafValues></_>
        <_>
          <internalNodes>
            0 -1 60 -6.0093566775321960e-02</internalNodes>
          <leafValues>
            7.5397849082946777e-01 -4.5364779233932495e-01</leafValues></_>
        <_>
          <internalNodes>
            0 -1 107 -1.1123737785965204e-03</internalNodes>
          <leafValues>
            8.0216699838638306e-01 -3.2198363542556763e-01</leafValues></_>
        <_>
          <internalNodes>
            0 -1 131 -3.2528556883335114e-02</internalNodes>
          <leafValues>
            -8.4519010782241821e-01 3.0773708224296570e-01</leafValues></_>
        <_>
          <internalNodes>
            0 -1 61 -1.4463472366333008e-01</internalNodes>
          <leafValues>
            2.7140474319458008e-01 -9.0378355979919434e-01</leafValues></_>
        <_>
          <internalNodes>
            0 -1 87 -1.6129305586218834e-02</internalNodes>
          <leafValues>
            7.0812839269638062e-01 -4.6114355325698853e-01</leafValues></_>
        <_>
          <internalNodes>
            0 -1 54 1.3471258571371436e-03</internalNodes>
          <leafValues>
            3.7119668722152710e-01 -7.4299466609954834e-01</leafValues></_>
        <_>
          <internalNodes>
            0 -1 57 -2.3056872189044952e-02</internalNodes>
          <leafValues>
            9.6626037359237671e-01 -3.0215522646903992e-01</leafValues></_></weakClassifiers></_>
    <!-- stage 6 -->
    <_>
      <maxWeakCount>9</maxWeakCount>
      <stageThreshold>-1.3097054958343506e+00</stageThreshold>
      <weakClassifiers>
        <_>
          <internalNodes>
            0 -1 24 -2.3684557527303696e-02</internalNodes>
          <leafValues>
            6.1261260509490967e-01 -4.6153846383094788e-01</leafValues></_>
        <_>
          <internalNodes>
            0 -1 89 -8.5311762988567352e-02</internalNodes>
          <leafValues>
            8.5740250349044800e-01 -3.2023355364799500e-01</leafValues></_>
        <_>
          <internalNodes>
            0 -1 67 -1.3172703795135021e-02</internalNodes>
          <leafValues>
            8.3517223596572876e-01 -2.4430136382579803e-01</leafValues></_>
        <_>
          <internalNodes>
            0 -1 67 2.2085314616560936e-02</internalNodes>
          <leafValues>
            -2.8585296869277954e-01 8.9306432008743286e-01</leafValues></_>
        <_>
          <internalNodes>
            0 -1 63 -6.3266367651522160e-03</internalNodes>
          <leafValues>
            9.8281812667846680e-01 -1.7996349930763245e-01</leafValues></_>
        <_>
          <internalNodes>
            0 -1 126 3.7871202221140265e-04</internalNodes>
          <leafValues>
            3.5151165723800659e-01 -8.0858820676803589e-01</leafValues></_>
        <_>
          <internalNodes>
            0 -1 88 -6.2374703586101532e-02</internalNodes>
          <leafValues>
            9.6699732542037964e-01 -2.8315687179565430e-01</leafValues></_>
        <_>
          <internalNodes>
            0 -1 95 9.0835139155387878e-02</internalNodes>
          <leafValues>
            -2.0763260126113892e-01 9.3513125181198120e-01</leafValues></_>
        <_>
          <internalNodes>
            0 -1 1 -1.6570053994655609e-02</internalNodes>
          <leafValues>
            -8.6744797229766846e-01 3.2146221399307251e-01</leafValues></_></weakClassifiers></_>
    <!-- stage 7 -->
    <_>
      <maxWeakCount>6</maxWeakCount>
      <stageThreshold>-5.7106095552444458e-01</stageThreshold>
      <weakClassifiers>
        <_>
          <internalNodes>
            0 -1 50 4.1474148631095886e-02</internalNodes>
          <leafValues>
            -2.0000000298023224e-01 8.3225804567337036e-01</leafValues></_>
        <_>
          <internalNodes>
            0 -1 111 -9.6663367003202438e-03</internalNodes>
          <leafValues>
            4.0032681822776794e-01 -9.0825998783111572e-01</leafValues></_>
        <_>
          <internalNodes>
            0 -1 127 1.7924623098224401e-03</internalNodes>
          <leafValues>
            2.5253897905349731e-01 -7.6342141628265381e-01</leafValues></_>
        <_>
          <internalNodes>
            0 -1 4 -1.9818474352359772e-01</internalNodes>
          <leafValues>
            -9.0057873725891113e-01 2.1468576788902283e-01</leafValues></_>
        <_>
          <internalNodes>
            0 -1 52 1.6693092882633209e-02</internalNodes>
          <leafValues>
            1.8202805519104004e-01 -9.0522372722625732e-01</leafValues></_>
        <_>
          <internalNodes>
            0 -1 58 6.3468307256698608e-02</internalNodes>
          <leafValues>
            -3.0537602305412292e-01 9.3179035186767578e-01</leafValues></_></weakClassifiers></_>
    <!-- stage 8 -->
    <_>
      <maxWeakCount>6</maxWeakCount>
      <stageThreshold>-3.2751083374023438e-01</stageThreshold>
      <weakClassifiers>
        <_>
          <internalNodes>
            0 -1 17 -3.4061212092638016e-02</internalNodes>
          <leafValues>
            -8.9999997615814209e-01 5.2307695150375366e-01</leafValues></_>
        <_>
          <internalNodes>
            0 -1 91 8.4809012711048126e-02</internalNodes>
          <leafValues>
            -2.9006439447402954e-01 9.1676664352416992e-01</leafValues></_>
        <_>
          <internalNodes>
            0 -1 66 -1.0210033506155014e-01</internalNodes>
          <leafValues>
            8.3113139867782593e-01 -1.8930673599243164e-01</leafValues></_>
        <_>
          <internalNodes>
            0 -1 100 4.5170456171035767e-02</internalNodes>
          <leafValues>
            -2.1331182122230530e-01 9.3389362096786499e-01</leafValues></_>
        <_>
          <internalNodes>
            0 -1 13 -1.5328785404562950e-02</internalNodes>
          <leafValues>
            9.0142577886581421e-01 -2.3306596279144287e-01</leafValues></_>
        <_>
          <internalNodes>
            0 -1 26 1.5880230348557234e-03</internalNodes>
          <leafValues>
            3.5103261470794678e-01 -6.8712693452835083e-01</leafValues></_></weakClassifiers></_>
    <!-- stage 9 -->
    <_>
      <maxWeakCount>9</maxWeakCount>
      <stageThreshold>-5.0426810979843140e-02</stageThreshold>
      <weakClassifiers>
        <_>
          <internalNodes>
            0 -1 45 6.3799396157264709e-02</internalNodes>
          <leafValues>
            -4.5454546809196472e-02 8.7096774578094482e-01</leafValues></_>
        <_>
          <internalNodes>
            0 -1 3 -1.7519188113510609e-03</internalNodes>
          <leafValues>
            -5.2277749776840210e-01 4.1963505744934082e-01</leafValues></_>
        <_>
          <internalNodes>
            0 -1 105 2.4481495842337608e-02</internalNodes>
          <leafValues>
            -2.4228088557720184e-01 9.1191393136978149e-01</leafValues></_>
        <_>
          <internalNodes>
            0 -1 71 7.6647490262985229e-02</internalNodes>
          <leafValues>
            -2.2519546747207642e-01 9.1154557466506958e-01</leafValues></_>
        <_>
          <internalNodes>
            0 -1 120 -1.3080050703138113e-03</internalNodes>
          <leafValues>
            4.3861785531044006e-01 -5.5282533168792725e-01</leafValues></_>
        <_>
          <internalNodes>
            0 -1 65 -1.5944272745400667e-03</internalNodes>
          <leafValues>
            8.0938518047332764e-01 -2.5054070353507996e-01</leafValues></_>
        <_>
          <internalNodes>
            0 -1 10 -1.5291079180315137e-03</internalNodes>
          <leafValues>
            -8.1986021995544434e-01 2.7969443798065186e-01</leafValues></_>
        <_>
          <internalNodes>
            0 -1 48 6.0136381536722183e-02</internalNodes>
          <leafValues>
            -2.2974561154842377e-01 9.4211733341217041e-01</leafValues></_>
        <_>
          <internalNodes>
            0 -1 59 -1.2360534630715847e-02</internalNodes>
          <leafValues>
            9.5054066181182861e-01 -1.9515694677829742e-01</leafValues></_></weakClassifiers></_>
    <!-- stage 10 -->
    <_>
      <maxWeakCount>9</maxWeakCount>
      <stageThreshold>-6.4439535140991211e-01</stageThreshold>
      <weakClassifiers>
        <_>
          <internalNodes>
            0 -1 136 3.6103366874158382e-03</internalNodes>
          <leafValues>
            5.1162791252136230e-01 -7.6190477609634399e-01</leafValues></_>
        <_>
          <internalNodes>
            0 -1 14 7.1930661797523499e-02</internalNodes>
          <leafValues>
            -6.0383552312850952e-01 3.5920044779777527e-01</leafValues></_>
        <_>
          <internalNodes>
            0 -1 103 2.3416985641233623e-04</internalNodes>
          <leafValues>
            -3.2543927431106567e-01 5.8075571060180664e-01</leafValues></_>
        <_>
          <internalNodes>
            0 -1 47 3.6674266448244452e-04</internalNodes>
          <leafValues>
            -4.2984908819198608e-01 4.2985126376152039e-01</leafValues></_>
        <_>
          <internalNodes>
            0 -1 22 -5.6804395280778408e-03</internalNodes>
          <leafValues>
            8.2208693027496338e-01 -2.3978522419929504e-01</leafValues></_>
        <_>
          <internalNodes>
            0 -1 109 1.7623746767640114e-02</internalNodes>
          <leafValues>
            -2.5208467245101929e-01 8.4623748064041138e-01</leafValues></_>
        <_>
          <internalNodes>
            0 -1 12 -5.4086184501647949e-01</internalNodes>
          <leafValues>
            -8.6412656307220459e-01 2.8747105598449707e-01</leafValues></_>
        <_>
          <internalNodes>
            0 -1 132 9.2775572557002306e-04</internalNodes>
          <leafValues>
            2.1253964304924011e-01 -6.5203249454498291e-01</leafValues></_>
        <_>
          <internalNodes>
            0 -1 29 9.1867754235863686e-05</internalNodes>
          <leafValues>
            4.7452884912490845e-01 -3.9586660265922546e-01</leafValues></_></weakClassifiers></_>
    <!-- stage 11 -->
    <_>
      <maxWeakCount>10</maxWeakCount>
      <stageThreshold>-4.2258945107460022e-01</stageThreshold>
      <weakClassifiers>
        <_>
          <internalNodes>
            0 -1 124 2.1479434799402952e-03</internalNodes>
          <leafValues>
            5.1778656244277954e-01 -6.5957444906234741e-01</leafValues></_>
        <_>
          <internalNodes>
            0 -1 99 -7.2709761559963226e-02</internalNodes>
          <leafValues>
            8.7597411870956421e-01 -1.9112364947795868e-01</leafValues></_>
        <_>
          <internalNodes>
            0 -1 79 -1.1838665604591370e-01</internalNodes>
          <leafValues>
            9.6444201469421387e-01 -1.9365659356117249e-01</leafValues></_>
        <_>
          <internalNodes>
            0 -1 2 1.3575806515291333e-03</internalNodes>
          <leafValues>
            3.2406383752822876e-01 -6.2585824728012085e-01</leafValues></_>
        <_>
          <internalNodes>
            0 -1 18 -2.7232971042394638e-03</internalNodes>
          <leafValues>
            3.8059452176094055e-01 -4.4723758101463318e-01</leafValues></_>
        <_>
          <internalNodes>
            0 -1 38 4.7327406704425812e-02</internalNodes>
          <leafValues>
            -3.9562627673149109e-01 6.3740551471710205e-01</leafValues></_>
        <_>
          <internalNodes>
            0 -1 56 -1.0649494361132383e-03</internalNodes>
          <leafValues>
            4.9915045499801636e-01 -4.2336976528167725e-01</leafValues></_>
        <_>
          <internalNodes>
            0 -1 112 -6.6096385126002133e-05</internalNodes>
          <leafValues>
            6.8789541721343994e-01 -3.1594324111938477e-01</leafValues></_>
        <_>
          <internalNodes>
            0 -1 126 -2.2587715648114681e-04</internalNodes>
          <leafValues>
            -6.3606548309326172e-01 3.7876403331756592e-01</leafValues></_>
        <_>
          <internalNodes>
            0 -1 64 -1.0462688514962792e-03</internalNodes>
          <leafValues>
            6.5507990121841431e-01 -3.5795319080352783e-01</leafValues></_></weakClassifiers></_>
    <!-- stage 12 -->
    <_>
      <maxWeakCount>9</maxWeakCount>
      <stageThreshold>-7.1450877189636230e-01</stageThreshold>
      <weakClassifiers>
        <_>
          <internalNodes>
            0 -1 6 7.0124581456184387e-02</internalNodes>
          <leafValues>
            -3.8823530077934265e-01 6.1860466003417969e-01</leafValues></_>
        <_>
          <internalNodes>
            0 -1 92 -1.4629894867539406e-03</internalNodes>
          <leafValues>
            8.8893091678619385e-01 -2.6017287373542786e-01</leafValues></_>
        <_>
          <internalNodes>
            0 -1 16 -5.8149592950940132e-03</internalNodes>
          <leafValues>
            4.0695005655288696e-01 -4.7848284244537354e-01</leafValues></_>
        <_>
          <internalNodes>
            0 -1 80 -6.7827908787876368e-04</internalNodes>
          <leafValues>
            6.6548293828964233e-01 -2.7839598059654236e-01</leafValues></_>
        <_>
          <internalNodes>
            0 -1 102 3.6088896449655294e-03</internalNodes>
          <leafValues>
            -3.5338109731674194e-01 5.5270308256149292e-01</leafValues></_>
        <_>
          <internalNodes>
            0 -1 31 -2.0430991426110268e-02</internalNodes>
          <leafValues>
            -2.5011330842971802e-01 8.3375173807144165e-01</leafValues></_>
        <_>
          <internalNodes>
            0 -1 39 -8.5896515520289540e-04</internalNodes>
          <leafValues>
            -7.9106009006500244e-01 2.9423949122428894e-01</leafValues></_>
        <_>
          <internalNodes>
            0 -1 128 -5.7378603378310800e-04</internalNodes>
          <leafValues>
            8.8766258955001831e-01 -2.9285725951194763e-01</leafValues></_>
        <_>
          <internalNodes>
            0 -1 90 -4.5462638139724731e-02</internalNodes>
          <leafValues>
            3.8680621981620789e-01 -6.3304579257965088e-01</leafValues></_></weakClassifiers></_>
    <!-- stage 13 -->
    <_>
      <maxWeakCount>8</maxWeakCount>
      <stageThreshold>-4.4245183467864990e-01</stageThreshold>
      <weakClassifiers>
        <_>
          <internalNodes>
            0 -1 8 -3.3178944140672684e-03</internalNodes>
          <leafValues>
            -8.2857143878936768e-01 4.8679244518280029e-01</leafValues></_>
        <_>
          <internalNodes>
            0 -1 116 6.6919228993356228e-04</internalNodes>
          <leafValues>
            3.3031952381134033e-01 -6.3112962245941162e-01</leafValues></_>
        <_>
          <internalNodes>
            0 -1 78 -3.7119272747077048e-05</internalNodes>
          <leafValues>
            5.3185647726058960e-01 -4.0274253487586975e-01</leafValues></_>
        <_>
          <internalNodes>
            0 -1 69 6.1595323495566845e-03</internalNodes>
          <leafValues>
            -2.4951392412185669e-01 7.5675362348556519e-01</leafValues></_>
        <_>
          <internalNodes>
            0 -1 137 -1.9717805844265968e-04</internalNodes>
          <leafValues>
            -7.0837330818176270e-01 2.9407367110252380e-01</leafValues></_>
        <_>
          <internalNodes>
            0 -1 23 -8.3190239965915680e-03</internalNodes>
          <leafValues>
            7.6080703735351562e-01 -2.9198873043060303e-01</leafValues></_>
        <_>
          <internalNodes>
            0 -1 121 -1.5665795654058456e-03</internalNodes>
          <leafValues>
            -4.9742010235786438e-01 4.2177334427833557e-01</leafValues></_>
        <_>
          <internalNodes>
            0 -1 15 7.8320107422769070e-04</internalNodes>
          <leafValues>
            2.8419822454452515e-01 -7.3633790016174316e-01</leafValues></_></weakClassifiers></_>
    <!-- stage 14 -->
    <_>
      <maxWeakCount>7</maxWeakCount>
      <stageThreshold>-6.3707739114761353e-01</stageThreshold>
      <weakClassifiers>
        <_>
          <internalNodes>
            0 -1 135 -1.1182300746440887e-02</internalNodes>
          <leafValues>
            -6.6197180747985840e-01 6.4192140102386475e-01</leafValues></_>
        <_>
          <internalNodes>
            0 -1 115 -9.7421314567327499e-03</internalNodes>
          <leafValues>
            9.3084722757339478e-01 -2.4394959211349487e-01</leafValues></_>
        <_>
          <internalNodes>
            0 -1 9 1.2050756067037582e-01</internalNodes>
          <leafValues>
            -2.2512815892696381e-01 7.2027522325515747e-01</leafValues></_>
        <_>
          <internalNodes>
            0 -1 68 -7.5103025883436203e-03</internalNodes>
          <leafValues>
            7.4473619461059570e-01 -2.0338948071002960e-01</leafValues></_>
        <_>
          <internalNodes>
            0 -1 76 1.2233587354421616e-01</internalNodes>
          <leafValues>
            -2.3017318546772003e-01 8.7756258249282837e-01</leafValues></_>
        <_>
          <internalNodes>
            0 -1 49 6.4058989286422729e-02</internalNodes>
          <leafValues>
            -2.6784500479698181e-01 6.8403136730194092e-01</leafValues></_>
        <_>
          <internalNodes>
            0 -1 125 -2.0883195102214813e-02</internalNodes>
          <leafValues>
            -9.4192010164260864e-01 2.4725417792797089e-01</leafValues></_></weakClassifiers></_>
    <!-- stage 15 -->
    <_>
      <maxWeakCount>7</maxWeakCount>
      <stageThreshold>-5.9694629907608032e-01</stageThreshold>
      <weakClassifiers>
        <_>
          <internalNodes>
            0 -1 130 9.2903862241655588e-04</internalNodes>
          <leafValues>
            5.2755904197692871e-01 -7.3913043737411499e-01</leafValues></_>
        <_>
          <internalNodes>
            0 -1 44 9.7526784520596266e-04</internalNodes>
          <leafValues>
            5.6256741285324097e-01 -3.6137926578521729e-01</leafValues></_>
        <_>
          <internalNodes>
            0 -1 34 -1.0720537975430489e-03</internalNodes>
          <leafValues>
            -7.4298715591430664e-01 3.3047395944595337e-01</leafValues></_>
        <_>
          <internalNodes>
            0 -1 0 -6.1566219665110111e-04</internalNodes>
          <leafValues>
            -7.3680412769317627e-01 2.1801778674125671e-01</leafValues></_>
        <_>
          <internalNodes>
            0 -1 33 -5.6652757339179516e-03</internalNodes>
          <leafValues>
            8.0093097686767578e-01 -2.8551363945007324e-01</leafValues></_>
        <_>
          <internalNodes>
            0 -1 119 -1.2177436146885157e-03</internalNodes>
          <leafValues>
            5.3094965219497681e-01 -4.0112313628196716e-01</leafValues></_>
        <_>
          <internalNodes>
            0 -1 97 -8.0478255404159427e-04</internalNodes>
          <leafValues>
            7.9496920108795166e-01 -2.8223821520805359e-01</leafValues></_></weakClassifiers></_>
    <!-- stage 16 -->
    <_>
      <maxWeakCount>7</maxWeakCount>
      <stageThreshold>-4.1327363252639771e-01</stageThreshold>
      <weakClassifiers>
        <_>
          <internalNodes>
            0 -1 93 2.0818759221583605e-03</internalNodes>
          <leafValues>
            -9.7744360566139221e-02 6.7664670944213867e-01</leafValues></_>
        <_>
          <internalNodes>
            0 -1 122 9.7147718071937561e-02</internalNodes>
          <leafValues>
            2.3188601434230804e-01 -9.1567438840866089e-01</leafValues></_>
        <_>
          <internalNodes>
            0 -1 94 -2.8571930527687073e-01</internalNodes>
          <leafValues>
            -7.5951784849166870e-01 2.4319778382778168e-01</leafValues></_>
        <_>
          <internalNodes>
            0 -1 73 -5.4615491535514593e-04</internalNodes>
          <leafValues>
            5.5003029108047485e-01 -3.5600695013999939e-01</leafValues></_>
        <_>
          <internalNodes>
            0 -1 101 -2.9457200318574905e-02</internalNodes>
          <leafValues>
            8.5190081596374512e-01 -2.0971372723579407e-01</leafValues></_>
        <_>
          <internalNodes>
            0 -1 129 -6.6262691689189523e-05</internalNodes>
          <leafValues>
            6.0981941223144531e-01 -2.6698926091194153e-01</leafValues></_>
        <_>
          <internalNodes>
            0 -1 40 8.8176149874925613e-03</internalNodes>
          <leafValues>
            3.6384484171867371e-01 -6.3561576604843140e-01</leafValues></_></weakClassifiers></_>
    <!-- stage 17 -->
    <_>
      <maxWeakCount>8</maxWeakCount>
      <stageThreshold>-8.0845463275909424e-01</stageThreshold>
      <weakClassifiers>
        <_>
          <internalNodes>
            0 -1 37 -4.7704838216304779e-02</internalNodes>
          <leafValues>
            5.0375938415527344e-01 -1.</leafValues></_>
        <_>
          <internalNodes>
            0 -1 51 -9.1950008645653725e-03</internalNodes>
          <leafValues>
            7.0668888092041016e-01 -2.3803779482841492e-01</leafValues></_>
        <_>
          <internalNodes>
            0 -1 70 9.9399697501212358e-04</internalNodes>
          <leafValues>
            3.1704139709472656e-01 -6.5618717670440674e-01</leafValues></_>
        <_>
          <internalNodes>
            0 -1 108 4.9593187868595123e-02</internalNodes>
          <leafValues>
            -2.5712391734123230e-01 8.7823998928070068e-01</leafValues></_>
        <_>
          <internalNodes>
            0 -1 98 -2.6703719049692154e-02</internalNodes>
          <leafValues>
            7.4961400032043457e-01 -2.3279477655887604e-01</leafValues></_>
        <_>
          <internalNodes>
            0 -1 117 8.2259427290409803e-04</internalNodes>
          <leafValues>
            -2.8760221600532532e-01 5.5622947216033936e-01</leafValues></_>
        <_>
          <internalNodes>
            0 -1 7 -3.1929977238178253e-02</internalNodes>
          <leafValues>
            -9.4067215919494629e-01 2.1132573485374451e-01</leafValues></_>
        <_>
          <internalNodes>
            0 -1 19 -1.7160364659503102e-03</internalNodes>
          <leafValues>
            -8.5701024532318115e-01 1.4820611476898193e-01</leafValues></_></weakClassifiers></_>
    <!-- stage 18 -->
    <_>
      <maxWeakCount>6</maxWeakCount>
      <stageThreshold>-5.0069874525070190e-01</stageThreshold>
      <weakClassifiers>
        <_>
          <internalNodes>
            0 -1 134 3.3088192343711853e-02</internalNodes>
          <leafValues>
            5.3906250000000000e-01 -8.6363637447357178e-01</leafValues></_>
        <_>
          <internalNodes>
            0 -1 75 -6.4765976276248693e-04</internalNodes>
          <leafValues>
            5.6138122081756592e-01 -3.1025633215904236e-01</leafValues></_>
        <_>
          <internalNodes>
            0 -1 21 2.0525351166725159e-02</internalNodes>
          <leafValues>
            2.8347223997116089e-01 -7.0391047000885010e-01</leafValues></_>
        <_>
          <internalNodes>
            0 -1 46 -9.9961622618138790e-04</internalNodes>
          <leafValues>
            4.7382238507270813e-01 -4.7088623046875000e-01</leafValues></_>
        <_>
          <internalNodes>
            0 -1 53 -9.5227776910178363e-05</internalNodes>
          <leafValues>
            5.6195002794265747e-01 -3.3086296916007996e-01</leafValues></_>
        <_>
          <internalNodes>
            0 -1 5 -2.6333946734666824e-03</internalNodes>
          <leafValues>
            -7.6187920570373535e-01 2.4676230549812317e-01</leafValues></_></weakClassifiers></_>
    <!-- stage 19 -->
    <_>
      <maxWeakCount>8</maxWeakCount>
      <stageThreshold>-4.3509781360626221e-01</stageThreshold>
      <weakClassifiers>
        <_>
          <internalNodes>
            0 -1 20 1.0548508726060390e-03</internalNodes>
          <leafValues>
            5.0819671154022217e-01 -4.2857143282890320e-01</leafValues></_>
        <_>
          <internalNodes>
            0 -1 55 -3.1122576911002398e-03</internalNodes>
          <leafValues>
            6.4332991838455200e-01 -3.0593335628509521e-01</leafValues></_>
        <_>
          <internalNodes>
            0 -1 118 2.4071130901575089e-03</internalNodes>
          <leafValues>
            -2.7254217863082886e-01 6.2072050571441650e-01</leafValues></_>
        <_>
          <internalNodes>
            0 -1 96 -1.0256236419081688e-03</internalNodes>
          <leafValues>
            6.5334415435791016e-01 -2.7141943573951721e-01</leafValues></_>
        <_>
          <internalNodes>
            0 -1 104 -6.9471932947635651e-02</internalNodes>
          <leafValues>
            3.5267198085784912e-01 -4.4196274876594543e-01</leafValues></_>
        <_>
          <internalNodes>
            0 -1 72 -4.7081084630917758e-05</internalNodes>
          <leafValues>
            5.5666631460189819e-01 -2.7731528878211975e-01</leafValues></_>
        <_>
          <internalNodes>
            0 -1 35 1.5124406490940601e-04</internalNodes>
          <leafValues>
            2.5849685072898865e-01 -7.1740347146987915e-01</leafValues></_>
        <_>
          <internalNodes>
            0 -1 25 8.5767754353582859e-04</internalNodes>
          <leafValues>
            -3.4461548924446106e-01 4.4872048497200012e-01</leafValues></_></weakClassifiers></_></stages>
  <features>
    <_>
      <rects>
        <_>
          0 0 2 9 -1.</_>
        <_>
          1 0 1 9 2.</_></rects>
      <tilted>0</tilted></_>
    <_>
      <rects>
        <_>
          0 0 4 18 -1.</_>
        <_>
          0 9 4 9 2.</_></rects>
      <tilted>0</tilted></_>
    <_>
      <rects>
        <_>
          0 0 10 1 -1.</_>
        <_>
          5 0 5 1 2.</_></rects>
      <tilted>0</tilted></_>
    <_>
      <rects>
        <_>
          0 0 16 1 -1.</_>
        <_>
          8 0 8 1 2.</_></rects>
      <tilted>0</tilted></_>
    <_>
      <rects>
        <_>
          0 1 24 18 -1.</_>
        <_>
          12 1 12 18 2.</_></rects>
      <tilted>0</tilted></_>
    <_>
      <rects>
        <_>
          0 2 2 6 -1.</_>
        <_>
          0 5 2 3 2.</_></rects>
      <tilted>0</tilted></_>
    <_>
      <rects>
        <_>
          0 2 16 20 -1.</_>
        <_>
          0 2 8 10 2.</_>
        <_>
          8 12 8 10 2.</_></rects>
      <tilted>0</tilted></_>
    <_>
      <rects>
        <_>
          0 2 18 6 -1.</_>
        <_>
          0 2 9 3 2.</_>
        <_>
          9 5 9 3 2.</_></rects>
      <tilted>0</tilted></_>
    <_>
      <rects>
        <_>
          0 3 1 8 -1.</_>
        <_>
          0 7 1 4 2.</_></rects>
      <tilted>0</tilted></_>
    <_>
      <rects>
        <_>
          0 3 14 16 -1.</_>
        <_>
          0 3 7 8 2.</_>
        <_>
          7 11 7 8 2.</_></rects>
      <tilted>0</tilted></_>
    <_>
      <rects>
        <_>
          0 5 2 8 -1.</_>
        <_>
          1 5 1 8 2.</_></rects>
      <tilted>0</tilted></_>
    <_>
      <rects>
        <_>
          0 8 15 2 -1.</_>
        <_>
          5 8 5 2 2.</_></rects>
      <tilted>0</tilted></_>
    <_>
      <rects>
        <_>
          0 9 12 7 -1.</_>
        <_>
          4 9 4 7 2.</_></rects>
      <tilted>0</tilted></_>
    <_>
      <rects>
        <_>
          0 12 16 4 -1.</_>
        <_>
          0 12 8 2 2.</_>
        <_>
          8 14 8 2 2.</_></rects>
      <tilted>0</tilted></_>
    <_>
      <rects>
        <_>
          0 13 18 11 -1.</_>
        <_>
          9 13 9 11 2.</_></rects>
      <tilted>0</tilted></_>
    <_>
      <rects>
        <_>
          0 16 1 8 -1.</_>
        <_>
          0 20 1 4 2.</_></rects>
      <tilted>0</tilted></_>
    <_>
      <rects>
        <_>
          0 17 12 6 -1.</_>
        <_>
          0 20 12 3 2.</_></rects>
      <tilted>0</tilted></_>
    <_>
      <rects>
        <_>
          0 19 20 5 -1.</_>
        <_>
          10 19 10 5 2.</_></rects>
      <tilted>0</tilted></_>
    <_>
      <rects>
        <_>
          0 20 15 4 -1.</_>
        <_>
          0 22 15 2 2.</_></rects>
      <tilted>0</tilted></_>
    <_>
      <rects>
        <_>
          1 0 7 2 -1.</_>
        <_>
          1 1 7 1 2.</_></rects>
      <tilted>0</tilted></_>
    <_>
      <rects>
        <_>
          1 2 2 6 -1.</_>
        <_>
          2 2 1 6 2.</_></rects>
      <tilted>0</tilted></_>
    <_>
      <rects>
        <_>
          1 10 6 12 -1.</_>
        <_>
          1 10 3 6 2.</_>
        <_>
          4 16 3 6 2.</_></rects>
      <tilted>0</tilted></_>
    <_>
      <rects>
        <_>
          1 13 14 2 -1.</_>
        <_>
          1 14 14 1 2.</_></rects>
      <tilted>0</tilted></_>
    <_>
      <rects>
        <_>
          1 16 14 2 -1.</_>
        <_>
          1 16 7 1 2.</_>
        <_>
          8 17 7 1 2.</_></rects>
      <tilted>0</tilted></_>
    <_>
      <rects>
        <_>
          1 16 19 8 -1.</_>
        <_>
          1 20 19 4 2.</_></rects>
      <tilted>0</tilted></_>
    <_>
      <rects>
        <_>
          1 18 4 5 -1.</_>
        <_>
          3 18 2 5 2.</_></rects>
      <tilted>0</tilted></_>
    <_>
      <rects>
        <_>
          2 0 16 1 -1.</_>
        <_>
          10 0 8 1 2.</_></rects>
      <tilted>0</tilted></_>
    <_>
      <rects>
        <_>
          2 0 22 1 -1.</_>
        <_>
          13 0 11 1 2.</_></rects>
      <tilted>0</tilted></_>
    <_>
      <rects>
        <_>
          2 10 4 14 -1.</_>
        <_>
          2 17 4 7 2.</_></rects>
      <tilted>0</tilted></_>
    <_>
      <rects>
        <_>
          2 10 20 4 -1.</_>
        <_>
          2 10 10 2 2.</_>
        <_>
          12 12 10 2 2.</_></rects>
      <tilted>0</tilted></_>
    <_>
      <rects>
        <_>
          2 11 12 5 -1.</_>
        <_>
          8 11 6 5 2.</_></rects>
      <tilted>0</tilted></_>
    <_>
      <rects>
        <_>
          2 13 21 1 -1.</_>
        <_>
          9 13 7 1 2.</_></rects>
      <tilted>0</tilted></_>
    <_>
      <rects>
        <_>
          2 13 14 9 -1.</_>
        <_>
          9 13 7 9 2.</_></rects>
      <tilted>0</tilted></_>
    <_>
      <rects>
        <_>
          2 14 12 2 -1.</_>
        <_>
          2 14 6 1 2.</_>
        <_>
          8 15 6 1 2.</_></rects>
      <tilted>0</tilted></_>
    <_>
      <rects>
        <_>
          2 18 2 6 -1.</_>
        <_>
          3 18 1 6 2.</_></rects>
      <tilted>0</tilted></_>
    <_>
      <rects>
        <_>
          2 21 1 2 -1.</_>
        <_>
          2 22 1 1 2.</_></rects>
      <tilted>0</tilted></_>
    <_>
      <rects>
        <_>
          3 2 12 20 -1.</_>
        <_>
          3 2 6 10 2.</_>
        <_>
          9 12 6 10 2.</_></rects>
      <tilted>0</tilted></_>
    <_>
      <rects>
        <_>
          3 6 8 6 -1.</_>
        <_>
          3 8 8 2 2.</_></rects>
      <tilted>0</tilted></_>
    <_>
      <rects>
        <_>
          3 12 12 3 -1.</_>
        <_>
          9 12 6 3 2.</_></rects>
      <tilted>0</tilted></_>
    <_>
      <rects>
        <_>
          3 21 2 2 -1.</_>
        <_>
          4 21 1 2 2.</_></rects>
      <tilted>0</tilted></_>
    <_>
      <rects>
        <_>
          3 22 16 2 -1.</_>
        <_>
          11 22 8 2 2.</_></rects>
      <tilted>0</tilted></_>
    <_>
      <rects>
        <_>
          4 3 17 16 -1.</_>
        <_>
          4 11 17 8 2.</_></rects>
      <tilted>0</tilted></_>
    <_>
      <rects>
        <_>
          4 8 10 8 -1.</_>
        <_>
          4 8 5 4 2.</_>
        <_>
          9 12 5 4 2.</_></rects>
      <tilted>0</tilted></_>
    <_>
      <rects>
        <_>
          5 0 11 22 -1.</_>
        <_>
          5 11 11 11 2.</_></rects>
      <tilted>0</tilted></_>
    <_>
      <rects>
        <_>
          5 6 4 11 -1.</_>
        <_>
          7 6 2 11 2.</_></rects>
      <tilted>0</tilted></_>
    <_>
      <rects>
        <_>
          5 7 10 10 -1.</_>
        <_>
          5 7 5 5 2.</_>
        <_>
          10 12 5 5 2.</_></rects>
      <tilted>0</tilted></_>
    <_>
      <rects>
        <_>
          5 18 1 6 -1.</_>
        <_>
          5 21 1 3 2.</_></rects>
      <tilted>0</tilted></_>
    <_>
      <rects>
        <_>
          6 5 18 6 -1.</_>
        <_>
          6 5 9 3 2.</_>
        <_>
          15 8 9 3 2.</_></rects>
      <tilted>0</tilted></_>
    <_>
      <rects>
        <_>
          6 8 10 8 -1.</_>
        <_>
          6 8 5 4 2.</_>
        <_>
          11 12 5 4 2.</_></rects>
      <tilted>0</tilted></_>
    <_>
      <rects>
        <_>
          6 11 8 7 -1.</_>
        <_>
          10 11 4 7 2.</_></rects>
      <tilted>0</tilted></_>
    <_>
      <rects>
        <_>
          6 13 8 10 -1.</_>
        <_>
          10 13 4 10 2.</_></rects>
      <tilted>0</tilted></_>
    <_>
      <rects>
        <_>
          6 18 14 2 -1.</_>
        <_>
          6 19 14 1 2.</_></rects>
      <tilted>0</tilted></_>
    <_>
      <rects>
        <_>
          6 22 18 2 -1.</_>
        <_>
          15 22 9 2 2.</_></rects>
      <tilted>0</tilted></_>
    <_>
      <rects>
        <_>
          7 0 2 2 -1.</_>
        <_>
          7 1 2 1 2.</_></rects>
      <tilted>0</tilted></_>
    <_>
      <rects>
        <_>
          7 0 10 1 -1.</_>
        <_>
          12 0 5 1 2.</_></rects>
      <tilted>0</tilted></_>
    <_>
      <rects>
        <_>
          7 6 8 4 -1.</_>
        <_>
          7 8 8 2 2.</_></rects>
      <tilted>0</tilted></_>
    <_>
      <rects>
        <_>
          7 8 4 6 -1.</_>
        <_>
          9 8 2 6 2.</_></rects>
      <tilted>0</tilted></_>
    <_>
      <rects>
        <_>
          7 9 6 6 -1.</_>
        <_>
          10 9 3 6 2.</_></rects>
      <tilted>0</tilted></_>
    <_>
      <rects>
        <_>
          7 12 8 8 -1.</_>
        <_>
          11 12 4 8 2.</_></rects>
      <tilted>0</tilted></_>
    <_>
      <rects>
        <_>
          7 15 8 2 -1.</_>
        <_>
          11 15 4 2 2.</_></rects>
      <tilted>0</tilted></_>
    <_>
      <rects>
        <_>
          7 16 12 8 -1.</_>
        <_>
          7 20 12 4 2.</_></rects>
      <tilted>0</tilted></_>
    <_>
      <rects>
        <_>
          8 2 6 12 -1.</_>
        <_>
          8 6 6 4 2.</_></rects>
      <tilted>0</tilted></_>
    <_>
      <rects>
        <_>
          8 8 5 6 -1.</_>
        <_>
          8 11 5 3 2.</_></rects>
      <tilted>0</tilted></_>
    <_>
      <rects>
        <_>
          8 13 8 2 -1.</_>
        <_>
          8 14 8 1 2.</_></rects>
      <tilted>0</tilted></_>
    <_>
      <rects>
        <_>
          9 9 4 1 -1.</_>
        <_>
          11 9 2 1 2.</_></rects>
      <tilted>0</tilted></_>
    <_>
      <rects>
        <_>
          9 11 5 2 -1.</_>
        <_>
          9 12 5 1 2.</_></rects>
      <tilted>0</tilted></_>
    <_>
      <rects>
        <_>
          9 12 5 12 -1.</_>
        <_>
          9 18 5 6 2.</_></rects>
      <tilted>0</tilted></_>
    <_>
      <rects>
        <_>
          9 13 7 4 -1.</_>
        <_>
          9 15 7 2 2.</_></rects>
      <tilted>0</tilted></_>
    <_>
      <rects>
        <_>
          9 13 15 2 -1.</_>
        <_>
          9 14 15 1 2.</_></rects>
      <tilted>0</tilted></_>
    <_>
      <rects>
        <_>
          9 14 12 2 -1.</_>
        <_>
          9 14 6 1 2.</_>
        <_>
          15 15 6 1 2.</_></rects>
      <tilted>0</tilted></_>
    <_>
      <rects>
        <_>
          10 0 10 1 -1.</_>
        <_>
          15 0 5 1 2.</_></rects>
      <tilted>0</tilted></_>
    <_>
      <rects>
        <_>
          10 2 3 14 -1.</_>
        <_>
          10 9 3 7 2.</_></rects>
      <tilted>0</tilted></_>
    <_>
      <rects>
        <_>
          10 6 1 2 -1.</_>
        <_>
          10 7 1 1 2.</_></rects>
      <tilted>0</tilted></_>
    <_>
      <rects>
        <_>
          10 7 5 2 -1.</_>
        <_>
          10 8 5 1 2.</_></rects>
      <tilted>0</tilted></_>
    <_>
      <rects>
        <_>
          10 8 12 10 -1.</_>
        <_>
          10 8 6 5 2.</_>
        <_>
          16 13 6 5 2.</_></rects>
      <tilted>0</tilted></_>
    <_>
      <rects>
        <_>
          10 9 4 2 -1.</_>
        <_>
          10 10 4 1 2.</_></rects>
      <tilted>0</tilted></_>
    <_>
      <rects>
        <_>
          10 9 5 12 -1.</_>
        <_>
          10 15 5 6 2.</_></rects>
      <tilted>0</tilted></_>
    <_>
      <rects>
        <_>
          10 9 6 10 -1.</_>
        <_>
          10 14 6 5 2.</_></rects>
      <tilted>0</tilted></_>
    <_>
      <rects>
        <_>
          10 9 10 2 -1.</_>
        <_>
          10 10 10 1 2.</_></rects>
      <tilted>0</tilted></_>
    <_>
      <rects>
        <_>
          10 10 12 10 -1.</_>
        <_>
          10 10 6 5 2.</_>
        <_>
          16 15 6 5 2.</_></rects>
      <tilted>0</tilted></_>
    <_>
      <rects>
        <_>
          10 10 7 2 -1.</_>
        <_>
          10 11 7 1 2.</_></rects>
      <tilted>0</tilted></_>
    <_>
      <rects>
        <_>
          10 11 3 6 -1.</_>
        <_>
          11 11 1 6 2.</_></rects>
      <tilted>0</tilted></_>
    <_>
      <rects>
        <_>
          10 11 10 9 -1.</_>
        <_>
          15 11 5 9 2.</_></rects>
      <tilted>0</tilted></_>
    <_>
      <rects>
        <_>
          10 12 3 5 -1.</_>
        <_>
          11 12 1 5 2.</_></rects>
      <tilted>0</tilted></_>
    <_>
      <rects>
        <_>
          10 13 14 10 -1.</_>
        <_>
          17 13 7 10 2.</_></rects>
      <tilted>0</tilted></_>
    <_>
      <rects>
        <_>
          10 15 12 1 -1.</_>
        <_>
          16 15 6 1 2.</_></rects>
      <tilted>0</tilted></_>
    <_>
      <rects>
        <_>
          10 15 6 4 -1.</_>
        <_>
          10 17 6 2 2.</_></rects>
      <tilted>0</tilted></_>
    <_>
      <rects>
        <_>
          10 15 7 4 -1.</_>
        <_>
          10 17 7 2 2.</_></rects>
      <tilted>0</tilted></_>
    <_>
      <rects>
        <_>
          11 2 6 18 -1.</_>
        <_>
          11 2 3 9 2.</_>
        <_>
          14 11 3 9 2.</_></rects>
      <tilted>0</tilted></_>
    <_>
      <rects>
        <_>
          11 6 10 14 -1.</_>
        <_>
          11 6 5 7 2.</_>
        <_>
          16 13 5 7 2.</_></rects>
      <tilted>0</tilted></_>
    <_>
      <rects>
        <_>
          11 7 3 6 -1.</_>
        <_>
          12 7 1 6 2.</_></rects>
      <tilted>0</tilted></_>
    <_>
      <rects>
        <_>
          11 8 4 10 -1.</_>
        <_>
          11 13 4 5 2.</_></rects>
      <tilted>0</tilted></_>
    <_>
      <rects>
        <_>
          11 9 4 2 -1.</_>
        <_>
          11 10 4 1 2.</_></rects>
      <tilted>0</tilted></_>
    <_>
      <rects>
        <_>
          11 9 8 2 -1.</_>
        <_>
          15 9 4 2 2.</_></rects>
      <tilted>0</tilted></_>
    <_>
      <rects>
        <_>
          11 9 4 15 -1.</_>
        <_>
          11 14 4 5 2.</_></rects>
      <tilted>0</tilted></_>
    <_>
      <rects>
        <_>
          11 9 5 10 -1.</_>
        <_>
          11 14 5 5 2.</_></rects>
      <tilted>0</tilted></_>
    <_>
      <rects>
        <_>
          11 10 4 2 -1.</_>
        <_>
          11 11 4 1 2.</_></rects>
      <tilted>0</tilted></_>
    <_>
      <rects>
        <_>
          11 12 2 2 -1.</_>
        <_>
          11 12 1 1 2.</_>
        <_>
          12 13 1 1 2.</_></rects>
      <tilted>0</tilted></_>
    <_>
      <rects>
        <_>
          11 12 1 12 -1.</_>
        <_>
          11 18 1 6 2.</_></rects>
      <tilted>0</tilted></_>
    <_>
      <rects>
        <_>
          11 12 3 12 -1.</_>
        <_>
          11 18 3 6 2.</_></rects>
      <tilted>0</tilted></_>
    <_>
      <rects>
        <_>
          11 12 4 6 -1.</_>
        <_>
          11 15 4 3 2.</_></rects>
      <tilted>0</tilted></_>
    <_>
      <rects>
        <_>
          11 13 6 2 -1.</_>
        <_>
          14 13 3 2 2.</_></rects>
      <tilted>0</tilted></_>
    <_>
      <rects>
        <_>
          12 3 4 7 -1.</_>
        <_>
          14 3 2 7 2.</_></rects>
      <tilted>0</tilted></_>
    <_>
      <rects>
        <_>
          12 6 4 1 -1.</_>
        <_>
          14 6 2 1 2.</_></rects>
      <tilted>0</tilted></_>
    <_>
      <rects>
        <_>
          12 7 12 14 -1.</_>
        <_>
          18 7 6 14 2.</_></rects>
      <tilted>0</tilted></_>
    <_>
      <rects>
        <_>
          12 8 1 10 -1.</_>
        <_>
          12 13 1 5 2.</_></rects>
      <tilted>0</tilted></_>
    <_>
      <rects>
        <_>
          12 9 1 15 -1.</_>
        <_>
          12 14 1 5 2.</_></rects>
      <tilted>0</tilted></_>
    <_>
      <rects>
        <_>
          12 9 3 2 -1.</_>
        <_>
          12 10 3 1 2.</_></rects>
      <tilted>0</tilted></_>
    <_>
      <rects>
        <_>
          12 10 2 10 -1.</_>
        <_>
          12 15 2 5 2.</_></rects>
      <tilted>0</tilted></_>
    <_>
      <rects>
        <_>
          12 12 2 4 -1.</_>
        <_>
          12 14 2 2 2.</_></rects>
      <tilted>0</tilted></_>
    <_>
      <rects>
        <_>
          13 9 3 5 -1.</_>
        <_>
          14 9 1 5 2.</_></rects>
      <tilted>0</tilted></_>
    <_>
      <rects>
        <_>
          13 9 2 3 -1.</_>
        <_>
          13 10 2 1 2.</_></rects>
      <tilted>0</tilted></_>
    <_>
      <rects>
        <_>
          13 11 1 2 -1.</_>
        <_>
          13 12 1 1 2.</_></rects>
      <tilted>0</tilted></_>
    <_>
      <rects>
        <_>
          13 11 4 1 -1.</_>
        <_>
          15 11 2 1 2.</_></rects>
      <tilted>0</tilted></_>
    <_>
      <rects>
        <_>
          13 11 4 6 -1.</_>
        <_>
          15 11 2 6 2.</_></rects>
      <tilted>0</tilted></_>
    <_>
      <rects>
        <_>
          13 19 5 4 -1.</_>
        <_>
          13 21 5 2 2.</_></rects>
      <tilted>0</tilted></_>
    <_>
      <rects>
        <_>
          14 0 10 1 -1.</_>
        <_>
          19 0 5 1 2.</_></rects>
      <tilted>0</tilted></_>
    <_>
      <rects>
        <_>
          15 4 2 7 -1.</_>
        <_>
          16 4 1 7 2.</_></rects>
      <tilted>0</tilted></_>
    <_>
      <rects>
        <_>
          16 7 8 8 -1.</_>
        <_>
          16 7 4 4 2.</_>
        <_>
          20 11 4 4 2.</_></rects>
      <tilted>0</tilted></_>
    <_>
      <rects>
        <_>
          16 18 2 6 -1.</_>
        <_>
          16 21 2 3 2.</_></rects>
      <tilted>0</tilted></_>
    <_>
      <rects>
        <_>
          16 20 8 4 -1.</_>
        <_>
          16 22 8 2 2.</_></rects>
      <tilted>0</tilted></_>
    <_>
      <rects>
        <_>
          16 22 6 2 -1.</_>
        <_>
          19 22 3 2 2.</_></rects>
      <tilted>0</tilted></_>
    <_>
      <rects>
        <_>
          17 0 5 16 -1.</_>
        <_>
          17 8 5 8 2.</_></rects>
      <tilted>0</tilted></_>
    <_>
      <rects>
        <_>
          18 1 5 4 -1.</_>
        <_>
          18 3 5 2 2.</_></rects>
      <tilted>0</tilted></_>
    <_>
      <rects>
        <_>
          18 20 4 4 -1.</_>
        <_>
          20 20 2 4 2.</_></rects>
      <tilted>0</tilted></_>
    <_>
      <rects>
        <_>
          19 4 4 12 -1.</_>
        <_>
          19 10 4 6 2.</_></rects>
      <tilted>0</tilted></_>
    <_>
      <rects>
        <_>
          20 0 4 1 -1.</_>
        <_>
          22 0 2 1 2.</_></rects>
      <tilted>0</tilted></_>
    <_>
      <rects>
        <_>
          20 0 4 8 -1.</_>
        <_>
          20 0 2 4 2.</_>
        <_>
          22 4 2 4 2.</_></rects>
      <tilted>0</tilted></_>
    <_>
      <rects>
        <_>
          20 9 4 2 -1.</_>
        <_>
          20 9 2 1 2.</_>
        <_>
          22 10 2 1 2.</_></rects>
      <tilted>0</tilted></_>
    <_>
      <rects>
        <_>
          20 12 2 2 -1.</_>
        <_>
          20 12 1 1 2.</_>
        <_>
          21 13 1 1 2.</_></rects>
      <tilted>0</tilted></_>
    <_>
      <rects>
        <_>
          21 0 2 5 -1.</_>
        <_>
          22 0 1 5 2.</_></rects>
      <tilted>0</tilted></_>
    <_>
      <rects>
        <_>
          21 1 3 22 -1.</_>
        <_>
          21 12 3 11 2.</_></rects>
      <tilted>0</tilted></_>
    <_>
      <rects>
        <_>
          21 16 3 8 -1.</_>
        <_>
          21 20 3 4 2.</_></rects>
      <tilted>0</tilted></_>
    <_>
      <rects>
        <_>
          22 0 2 10 -1.</_>
        <_>
          23 0 1 10 2.</_></rects>
      <tilted>0</tilted></_>
    <_>
      <rects>
        <_>
          22 0 2 16 -1.</_>
        <_>
          22 8 2 8 2.</_></rects>
      <tilted>0</tilted></_>
    <_>
      <rects>
        <_>
          22 4 1 20 -1.</_>
        <_>
          22 14 1 10 2.</_></rects>
      <tilted>0</tilted></_>
    <_>
      <rects>
        <_>
          22 8 1 16 -1.</_>
        <_>
          22 16 1 8 2.</_></rects>
      <tilted>0</tilted></_>
    <_>
      <rects>
        <_>
          22 23 2 1 -1.</_>
        <_>
          23 23 1 1 2.</_></rects>
      <tilted>0</tilted></_></features></cascade>
</opencv_storage>
