<?xml version="1.0"?>
<opencv_storage>
<stage19>
  <maxWeakCount>12</maxWeakCount>
  <stageThreshold>-9.7810828685760498e-01</stageThreshold>
  <weakClassifiers>
    <_>
      <internalNodes>
        0 -1 116261 4.5540910214185715e-03</internalNodes>
      <leafValues>
        -3.5532996058464050e-02 8.1034481525421143e-01</leafValues></_>
    <_>
      <internalNodes>
        0 -1 131943 1.3258086983114481e-03</internalNodes>
      <leafValues>
        -1.8670968711376190e-01 6.7080760002136230e-01</leafValues></_>
    <_>
      <internalNodes>
        0 -1 59530 -7.5198221020400524e-03</internalNodes>
      <leafValues>
        -8.9330619573593140e-01 1.9323225319385529e-01</leafValues></_>
    <_>
      <internalNodes>
        0 -1 103653 -1.1513144709169865e-03</internalNodes>
      <leafValues>
        6.2574100494384766e-01 -2.2486855089664459e-01</leafValues></_>
    <_>
      <internalNodes>
        0 -1 26134 3.9534098468720913e-03</internalNodes>
      <leafValues>
        2.5582444667816162e-01 -5.9806251525878906e-01</leafValues></_>
    <_>
      <internalNodes>
        0 -1 44379 -8.4761576727032661e-04</internalNodes>
      <leafValues>
        5.5445700883865356e-01 -2.7429866790771484e-01</leafValues></_>
    <_>
      <internalNodes>
        0 -1 132071 -7.6585006900131702e-04</internalNodes>
      <leafValues>
        7.2434997558593750e-01 -1.9455613195896149e-01</leafValues></_>
    <_>
      <internalNodes>
        0 -1 131614 -6.8586721317842603e-04</internalNodes>
      <leafValues>
        5.1261180639266968e-01 -3.0185431241989136e-01</leafValues></_>
    <_>
      <internalNodes>
        0 -1 4100 -4.6475743874907494e-04</internalNodes>
      <leafValues>
        -6.9753623008728027e-01 2.3418733477592468e-01</leafValues></_>
    <_>
      <internalNodes>
        0 -1 135456 1.3128689024597406e-03</internalNodes>
      <leafValues>
        -3.1574928760528564e-01 5.3839397430419922e-01</leafValues></_>
    <_>
      <internalNodes>
        0 -1 24372 6.0706967487931252e-03</internalNodes>
      <leafValues>
        2.8290981054306030e-01 -6.9195389747619629e-01</leafValues></_>
    <_>
      <internalNodes>
        0 -1 149378 -2.2589933359995484e-04</internalNodes>
      <leafValues>
        4.1190716624259949e-01 -3.7127169966697693e-01</leafValues></_></weakClassifiers></stage19>
</opencv_storage>
