<?xml version="1.0"?>
<opencv_storage>
<stage15>
  <maxWeakCount>6</maxWeakCount>
  <stageThreshold>-1.5108351409435272e-01</stageThreshold>
  <weakClassifiers>
    <_>
      <internalNodes>
        0 -1 11947 -5.3717987611889839e-04</internalNodes>
      <leafValues>
        5.8293837308883667e-01 -3.5294118523597717e-01</leafValues></_>
    <_>
      <internalNodes>
        0 -1 49876 1.1863783001899719e-03</internalNodes>
      <leafValues>
        3.3284258842468262e-01 -6.7377674579620361e-01</leafValues></_>
    <_>
      <internalNodes>
        0 -1 127363 -3.7819687277078629e-03</internalNodes>
      <leafValues>
        6.8706506490707397e-01 -2.4597276747226715e-01</leafValues></_>
    <_>
      <internalNodes>
        0 -1 98225 -8.0339536070823669e-03</internalNodes>
      <leafValues>
        5.9079712629318237e-01 -3.5832780599594116e-01</leafValues></_>
    <_>
      <internalNodes>
        0 -1 119034 -1.9686229526996613e-02</internalNodes>
      <leafValues>
        1. -1.6464596986770630e-01</leafValues></_>
    <_>
      <internalNodes>
        0 -1 68200 -2.5176731869578362e-03</internalNodes>
      <leafValues>
        7.6009398698806763e-01 -2.2433641552925110e-01</leafValues></_></weakClassifiers></stage15>
</opencv_storage>
