<?xml version="1.0"?>
<opencv_storage>
<stage9>
  <maxWeakCount>8</maxWeakCount>
  <stageThreshold>-6.7299199104309082e-01</stageThreshold>
  <weakClassifiers>
    <_>
      <internalNodes>
        0 -1 118773 -7.0165947545319796e-04</internalNodes>
      <leafValues>
        7.5886523723602295e-01 -1.1627907305955887e-01</leafValues></_>
    <_>
      <internalNodes>
        0 -1 151813 4.2598624713718891e-03</internalNodes>
      <leafValues>
        3.0255734920501709e-01 -8.1743544340133667e-01</leafValues></_>
    <_>
      <internalNodes>
        0 -1 26476 4.2917327955365181e-03</internalNodes>
      <leafValues>
        2.0085555315017700e-01 -8.0402785539627075e-01</leafValues></_>
    <_>
      <internalNodes>
        0 -1 38380 -2.2070126142352819e-03</internalNodes>
      <leafValues>
        -7.2677087783813477e-01 2.5650730729103088e-01</leafValues></_>
    <_>
      <internalNodes>
        0 -1 56222 -1.8693815218284726e-03</internalNodes>
      <leafValues>
        7.4512785673141479e-01 -3.0277788639068604e-01</leafValues></_>
    <_>
      <internalNodes>
        0 -1 37179 -1.1960124596953392e-02</internalNodes>
      <leafValues>
        2.6508960127830505e-01 -7.6628643274307251e-01</leafValues></_>
    <_>
      <internalNodes>
        0 -1 118369 1.0893457569181919e-02</internalNodes>
      <leafValues>
        -2.9873937368392944e-01 7.4554020166397095e-01</leafValues></_>
    <_>
      <internalNodes>
        0 -1 139201 4.1210258495993912e-04</internalNodes>
      <leafValues>
        2.6914265751838684e-01 -8.1288808584213257e-01</leafValues></_></weakClassifiers></stage9>
</opencv_storage>
