<?xml version="1.0"?>
<opencv_storage>
<stage6>
  <maxWeakCount>9</maxWeakCount>
  <stageThreshold>-1.3097054958343506e+00</stageThreshold>
  <weakClassifiers>
    <_>
      <internalNodes>
        0 -1 24706 -2.3684557527303696e-02</internalNodes>
      <leafValues>
        6.1261260509490967e-01 -4.6153846383094788e-01</leafValues></_>
    <_>
      <internalNodes>
        0 -1 117698 -8.5311762988567352e-02</internalNodes>
      <leafValues>
        8.5740250349044800e-01 -3.2023355364799500e-01</leafValues></_>
    <_>
      <internalNodes>
        0 -1 105282 -1.3172703795135021e-02</internalNodes>
      <leafValues>
        8.3517223596572876e-01 -2.4430136382579803e-01</leafValues></_>
    <_>
      <internalNodes>
        0 -1 105282 2.2085314616560936e-02</internalNodes>
      <leafValues>
        -2.8585296869277954e-01 8.9306432008743286e-01</leafValues></_>
    <_>
      <internalNodes>
        0 -1 97010 -6.3266367651522160e-03</internalNodes>
      <leafValues>
        9.8281812667846680e-01 -1.7996349930763245e-01</leafValues></_>
    <_>
      <internalNodes>
        0 -1 157680 3.7871202221140265e-04</internalNodes>
      <leafValues>
        3.5151165723800659e-01 -8.0858820676803589e-01</leafValues></_>
    <_>
      <internalNodes>
        0 -1 115702 -6.2374703586101532e-02</internalNodes>
      <leafValues>
        9.6699732542037964e-01 -2.8315687179565430e-01</leafValues></_>
    <_>
      <internalNodes>
        0 -1 118838 9.0835139155387878e-02</internalNodes>
      <leafValues>
        -2.0763260126113892e-01 9.3513125181198120e-01</leafValues></_>
    <_>
      <internalNodes>
        0 -1 281 -1.6570053994655609e-02</internalNodes>
      <leafValues>
        -8.6744797229766846e-01 3.2146221399307251e-01</leafValues></_></weakClassifiers></stage6>
</opencv_storage>
