<?xml version="1.0"?>
<opencv_storage>
<stage10>
  <maxWeakCount>9</maxWeakCount>
  <stageThreshold>-6.4439535140991211e-01</stageThreshold>
  <weakClassifiers>
    <_>
      <internalNodes>
        0 -1 161719 3.6103366874158382e-03</internalNodes>
      <leafValues>
        5.1162791252136230e-01 -7.6190477609634399e-01</leafValues></_>
    <_>
      <internalNodes>
        0 -1 10863 7.1930661797523499e-02</internalNodes>
      <leafValues>
        -6.0383552312850952e-01 3.5920044779777527e-01</leafValues></_>
    <_>
      <internalNodes>
        0 -1 124320 2.3416985641233623e-04</internalNodes>
      <leafValues>
        -3.2543927431106567e-01 5.8075571060180664e-01</leafValues></_>
    <_>
      <internalNodes>
        0 -1 74923 3.6674266448244452e-04</internalNodes>
      <leafValues>
        -4.2984908819198608e-01 4.2985126376152039e-01</leafValues></_>
    <_>
      <internalNodes>
        0 -1 23539 -5.6804395280778408e-03</internalNodes>
      <leafValues>
        8.2208693027496338e-01 -2.3978522419929504e-01</leafValues></_>
    <_>
      <internalNodes>
        0 -1 126394 1.7623746767640114e-02</internalNodes>
      <leafValues>
        -2.5208467245101929e-01 8.4623748064041138e-01</leafValues></_>
    <_>
      <internalNodes>
        0 -1 8314 -5.4086184501647949e-01</internalNodes>
      <leafValues>
        -8.6412656307220459e-01 2.8747105598449707e-01</leafValues></_>
    <_>
      <internalNodes>
        0 -1 161058 9.2775572557002306e-04</internalNodes>
      <leafValues>
        2.1253964304924011e-01 -6.5203249454498291e-01</leafValues></_>
    <_>
      <internalNodes>
        0 -1 34206 9.1867754235863686e-05</internalNodes>
      <leafValues>
        4.7452884912490845e-01 -3.9586660265922546e-01</leafValues></_></weakClassifiers></stage10>
</opencv_storage>
