<?xml version="1.0"?>
<opencv_storage>
<stage11>
  <maxWeakCount>10</maxWeakCount>
  <stageThreshold>-4.2258945107460022e-01</stageThreshold>
  <weakClassifiers>
    <_>
      <internalNodes>
        0 -1 155158 2.1479434799402952e-03</internalNodes>
      <leafValues>
        5.1778656244277954e-01 -6.5957444906234741e-01</leafValues></_>
    <_>
      <internalNodes>
        0 -1 119699 -7.2709761559963226e-02</internalNodes>
      <leafValues>
        8.7597411870956421e-01 -1.9112364947795868e-01</leafValues></_>
    <_>
      <internalNodes>
        0 -1 112042 -1.1838665604591370e-01</internalNodes>
      <leafValues>
        9.6444201469421387e-01 -1.9365659356117249e-01</leafValues></_>
    <_>
      <internalNodes>
        0 -1 320 1.3575806515291333e-03</internalNodes>
      <leafValues>
        3.2406383752822876e-01 -6.2585824728012085e-01</leafValues></_>
    <_>
      <internalNodes>
        0 -1 13148 -2.7232971042394638e-03</internalNodes>
      <leafValues>
        3.8059452176094055e-01 -4.4723758101463318e-01</leafValues></_>
    <_>
      <internalNodes>
        0 -1 46782 4.7327406704425812e-02</internalNodes>
      <leafValues>
        -3.9562627673149109e-01 6.3740551471710205e-01</leafValues></_>
    <_>
      <internalNodes>
        0 -1 85854 -1.0649494361132383e-03</internalNodes>
      <leafValues>
        4.9915045499801636e-01 -4.2336976528167725e-01</leafValues></_>
    <_>
      <internalNodes>
        0 -1 132071 -6.6096385126002133e-05</internalNodes>
      <leafValues>
        6.8789541721343994e-01 -3.1594324111938477e-01</leafValues></_>
    <_>
      <internalNodes>
        0 -1 157680 -2.2587715648114681e-04</internalNodes>
      <leafValues>
        -6.3606548309326172e-01 3.7876403331756592e-01</leafValues></_>
    <_>
      <internalNodes>
        0 -1 103652 -1.0462688514962792e-03</internalNodes>
      <leafValues>
        6.5507990121841431e-01 -3.5795319080352783e-01</leafValues></_></weakClassifiers></stage11>
</opencv_storage>
