<?xml version="1.0"?>
<opencv_storage>
<stage3>
  <maxWeakCount>6</maxWeakCount>
  <stageThreshold>-4.0694990754127502e-01</stageThreshold>
  <weakClassifiers>
    <_>
      <internalNodes>
        0 -1 113014 -3.6883097141981125e-02</internalNodes>
      <leafValues>
        7.3459714651107788e-01 -6.1797749996185303e-01</leafValues></_>
    <_>
      <internalNodes>
        0 -1 111280 -7.4923336505889893e-02</internalNodes>
      <leafValues>
        9.8330241441726685e-01 -2.7210724353790283e-01</leafValues></_>
    <_>
      <internalNodes>
        0 -1 26532 -5.7900729589164257e-03</internalNodes>
      <leafValues>
        -7.4505561590194702e-01 4.4717898964881897e-01</leafValues></_>
    <_>
      <internalNodes>
        0 -1 113470 -7.2716875001788139e-03</internalNodes>
      <leafValues>
        6.5593230724334717e-01 -4.9200305342674255e-01</leafValues></_>
    <_>
      <internalNodes>
        0 -1 132136 9.5051359385251999e-03</internalNodes>
      <leafValues>
        -3.5637900233268738e-01 8.6944562196731567e-01</leafValues></_>
    <_>
      <internalNodes>
        0 -1 112357 -6.7590110003948212e-02</internalNodes>
      <leafValues>
        9.3322730064392090e-01 -3.4148672223091125e-01</leafValues></_></weakClassifiers></stage3>
</opencv_storage>
