<?xml version="1.0"?>
<opencv_storage>
<stage7>
  <maxWeakCount>6</maxWeakCount>
  <stageThreshold>-5.7106095552444458e-01</stageThreshold>
  <weakClassifiers>
    <_>
      <internalNodes>
        0 -1 78772 4.1474148631095886e-02</internalNodes>
      <leafValues>
        -2.0000000298023224e-01 8.3225804567337036e-01</leafValues></_>
    <_>
      <internalNodes>
        0 -1 131567 -9.6663367003202438e-03</internalNodes>
      <leafValues>
        4.0032681822776794e-01 -9.0825998783111572e-01</leafValues></_>
    <_>
      <internalNodes>
        0 -1 157695 1.7924623098224401e-03</internalNodes>
      <leafValues>
        2.5253897905349731e-01 -7.6342141628265381e-01</leafValues></_>
    <_>
      <internalNodes>
        0 -1 1906 -1.9818474352359772e-01</internalNodes>
      <leafValues>
        -9.0057873725891113e-01 2.1468576788902283e-01</leafValues></_>
    <_>
      <internalNodes>
        0 -1 80735 1.6693092882633209e-02</internalNodes>
      <leafValues>
        1.8202805519104004e-01 -9.0522372722625732e-01</leafValues></_>
    <_>
      <internalNodes>
        0 -1 87686 6.3468307256698608e-02</internalNodes>
      <leafValues>
        -3.0537602305412292e-01 9.3179035186767578e-01</leafValues></_></weakClassifiers></stage7>
</opencv_storage>
