<?xml version="1.0"?>
<opencv_storage>
<stage15>
  <maxWeakCount>7</maxWeakCount>
  <stageThreshold>-5.9694629907608032e-01</stageThreshold>
  <weakClassifiers>
    <_>
      <internalNodes>
        0 -1 159752 9.2903862241655588e-04</internalNodes>
      <leafValues>
        5.2755904197692871e-01 -7.3913043737411499e-01</leafValues></_>
    <_>
      <internalNodes>
        0 -1 65018 9.7526784520596266e-04</internalNodes>
      <leafValues>
        5.6256741285324097e-01 -3.6137926578521729e-01</leafValues></_>
    <_>
      <internalNodes>
        0 -1 37213 -1.0720537975430489e-03</internalNodes>
      <leafValues>
        -7.4298715591430664e-01 3.3047395944595337e-01</leafValues></_>
    <_>
      <internalNodes>
        0 -1 40 -6.1566219665110111e-04</internalNodes>
      <leafValues>
        -7.3680412769317627e-01 2.1801778674125671e-01</leafValues></_>
    <_>
      <internalNodes>
        0 -1 36004 -5.6652757339179516e-03</internalNodes>
      <leafValues>
        8.0093097686767578e-01 -2.8551363945007324e-01</leafValues></_>
    <_>
      <internalNodes>
        0 -1 148057 -1.2177436146885157e-03</internalNodes>
      <leafValues>
        5.3094965219497681e-01 -4.0112313628196716e-01</leafValues></_>
    <_>
      <internalNodes>
        0 -1 119598 -8.0478255404159427e-04</internalNodes>
      <leafValues>
        7.9496920108795166e-01 -2.8223821520805359e-01</leafValues></_></weakClassifiers></stage15>
</opencv_storage>
