<?xml version="1.0"?>
<opencv_storage>
<stage16>
  <maxWeakCount>9</maxWeakCount>
  <stageThreshold>-1.6643368005752563e+00</stageThreshold>
  <weakClassifiers>
    <_>
      <internalNodes>
        0 -1 118286 -7.0222303271293640e-02</internalNodes>
      <leafValues>
        -3.8305085897445679e-01 -9.4098359346389771e-01</leafValues></_>
    <_>
      <internalNodes>
        0 -1 147522 -2.4857655167579651e-02</internalNodes>
      <leafValues>
        -9.3675267696380615e-01 -3.5059697926044464e-02</leafValues></_>
    <_>
      <internalNodes>
        0 -1 54499 -3.9949663914740086e-03</internalNodes>
      <leafValues>
        3.4836566448211670e-01 -3.2940903306007385e-01</leafValues></_>
    <_>
      <internalNodes>
        0 -1 43407 1.3517486862838268e-02</internalNodes>
      <leafValues>
        1.0684426128864288e-01 -9.6892398595809937e-01</leafValues></_>
    <_>
      <internalNodes>
        0 -1 131207 -1.6772545874118805e-02</internalNodes>
      <leafValues>
        -7.7373206615447998e-01 1.4404895901679993e-01</leafValues></_>
    <_>
      <internalNodes>
        0 -1 132071 -5.1049957983195782e-04</internalNodes>
      <leafValues>
        4.8994565010070801e-01 -2.1075588464736938e-01</leafValues></_>
    <_>
      <internalNodes>
        0 -1 88165 -5.2265757694840431e-03</internalNodes>
      <leafValues>
        4.5998468995094299e-01 -1.8512499332427979e-01</leafValues></_>
    <_>
      <internalNodes>
        0 -1 113417 -7.4747689068317413e-03</internalNodes>
      <leafValues>
        6.0580039024353027e-01 -1.8670915067195892e-01</leafValues></_>
    <_>
      <internalNodes>
        0 -1 87388 1.4684107154607773e-03</internalNodes>
      <leafValues>
        -3.1988257169723511e-01 3.3266064524650574e-01</leafValues></_></weakClassifiers></stage16>
</opencv_storage>
