<?xml version="1.0"?>
<opencv_storage>
<stage17>
  <maxWeakCount>8</maxWeakCount>
  <stageThreshold>-8.0845463275909424e-01</stageThreshold>
  <weakClassifiers>
    <_>
      <internalNodes>
        0 -1 43413 -4.7704838216304779e-02</internalNodes>
      <leafValues>
        5.0375938415527344e-01 -1.</leafValues></_>
    <_>
      <internalNodes>
        0 -1 80294 -9.1950008645653725e-03</internalNodes>
      <leafValues>
        7.0668888092041016e-01 -2.3803779482841492e-01</leafValues></_>
    <_>
      <internalNodes>
        0 -1 107120 9.9399697501212358e-04</internalNodes>
      <leafValues>
        3.1704139709472656e-01 -6.5618717670440674e-01</leafValues></_>
    <_>
      <internalNodes>
        0 -1 125815 4.9593187868595123e-02</internalNodes>
      <leafValues>
        -2.5712391734123230e-01 8.7823998928070068e-01</leafValues></_>
    <_>
      <internalNodes>
        0 -1 119619 -2.6703719049692154e-02</internalNodes>
      <leafValues>
        7.4961400032043457e-01 -2.3279477655887604e-01</leafValues></_>
    <_>
      <internalNodes>
        0 -1 140729 8.2259427290409803e-04</internalNodes>
      <leafValues>
        -2.8760221600532532e-01 5.5622947216033936e-01</leafValues></_>
    <_>
      <internalNodes>
        0 -1 2723 -3.1929977238178253e-02</internalNodes>
      <leafValues>
        -9.4067215919494629e-01 2.1132573485374451e-01</leafValues></_>
    <_>
      <internalNodes>
        0 -1 13873 -1.7160364659503102e-03</internalNodes>
      <leafValues>
        -8.5701024532318115e-01 1.4820611476898193e-01</leafValues></_></weakClassifiers></stage17>
</opencv_storage>
