<?xml version="1.0"?>
<opencv_storage>
<stage10>
  <maxWeakCount>5</maxWeakCount>
  <stageThreshold>-4.7745978832244873e-01</stageThreshold>
  <weakClassifiers>
    <_>
      <internalNodes>
        0 -1 125511 -1.1277658632025123e-03</internalNodes>
      <leafValues>
        6.2264150381088257e-01 -5.1260507106781006e-01</leafValues></_>
    <_>
      <internalNodes>
        0 -1 47998 -2.2750454023480415e-02</internalNodes>
      <leafValues>
        5.8731877803802490e-01 -4.8092147707939148e-01</leafValues></_>
    <_>
      <internalNodes>
        0 -1 96588 -7.9378178343176842e-03</internalNodes>
      <leafValues>
        7.2563731670379639e-01 -3.4277591109275818e-01</leafValues></_>
    <_>
      <internalNodes>
        0 -1 11895 7.3801894905045629e-04</internalNodes>
      <leafValues>
        3.0828556418418884e-01 -9.6387994289398193e-01</leafValues></_>
    <_>
      <internalNodes>
        0 -1 58506 9.1010588221251965e-05</internalNodes>
      <leafValues>
        -4.7397783398628235e-01 5.5055713653564453e-01</leafValues></_></weakClassifiers></stage10>
</opencv_storage>
