<?xml version="1.0"?>
<opencv_storage>
<stage4>
  <maxWeakCount>6</maxWeakCount>
  <stageThreshold>-1.1928995847702026e+00</stageThreshold>
  <weakClassifiers>
    <_>
      <internalNodes>
        0 -1 55771 2.6397082954645157e-02</internalNodes>
      <leafValues>
        -2.6470589637756348e-01 8.2926827669143677e-01</leafValues></_>
    <_>
      <internalNodes>
        0 -1 131537 -2.4531867355108261e-02</internalNodes>
      <leafValues>
        3.6778751015663147e-01 -9.3392932415008545e-01</leafValues></_>
    <_>
      <internalNodes>
        0 -1 125435 -1.0076510906219482e-01</internalNodes>
      <leafValues>
        -9.6727555990219116e-01 3.2189604640007019e-01</leafValues></_>
    <_>
      <internalNodes>
        0 -1 111673 1.0834084451198578e-01</internalNodes>
      <leafValues>
        -3.7915456295013428e-01 9.4739425182342529e-01</leafValues></_>
    <_>
      <internalNodes>
        0 -1 34614 6.4275652170181274e-02</internalNodes>
      <leafValues>
        -3.3229312300682068e-01 9.4845503568649292e-01</leafValues></_>
    <_>
      <internalNodes>
        0 -1 161219 1.3057086616754532e-03</internalNodes>
      <leafValues>
        3.8274204730987549e-01 -9.3597751855850220e-01</leafValues></_></weakClassifiers></stage4>
</opencv_storage>
