<?xml version="1.0"?>
<opencv_storage>
<stage8>
  <maxWeakCount>6</maxWeakCount>
  <stageThreshold>-3.2751083374023438e-01</stageThreshold>
  <weakClassifiers>
    <_>
      <internalNodes>
        0 -1 12943 -3.4061212092638016e-02</internalNodes>
      <leafValues>
        -8.9999997615814209e-01 5.2307695150375366e-01</leafValues></_>
    <_>
      <internalNodes>
        0 -1 118428 8.4809012711048126e-02</internalNodes>
      <leafValues>
        -2.9006439447402954e-01 9.1676664352416992e-01</leafValues></_>
    <_>
      <internalNodes>
        0 -1 104927 -1.0210033506155014e-01</internalNodes>
      <leafValues>
        8.3113139867782593e-01 -1.8930673599243164e-01</leafValues></_>
    <_>
      <internalNodes>
        0 -1 119725 4.5170456171035767e-02</internalNodes>
      <leafValues>
        -2.1331182122230530e-01 9.3389362096786499e-01</leafValues></_>
    <_>
      <internalNodes>
        0 -1 10297 -1.5328785404562950e-02</internalNodes>
      <leafValues>
        9.0142577886581421e-01 -2.3306596279144287e-01</leafValues></_>
    <_>
      <internalNodes>
        0 -1 26364 1.5880230348557234e-03</internalNodes>
      <leafValues>
        3.5103261470794678e-01 -6.8712693452835083e-01</leafValues></_></weakClassifiers></stage8>
</opencv_storage>
