<?xml version="1.0"?>
<opencv_storage>
<stage16>
  <maxWeakCount>8</maxWeakCount>
  <stageThreshold>-6.8169057369232178e-01</stageThreshold>
  <weakClassifiers>
    <_>
      <internalNodes>
        0 -1 102246 -7.4487417936325073e-02</internalNodes>
      <leafValues>
        5.6521737575531006e-01 -5.1807230710983276e-01</leafValues></_>
    <_>
      <internalNodes>
        0 -1 130383 1.2361046671867371e-01</internalNodes>
      <leafValues>
        -1.2119422852993011e-01 9.6908664703369141e-01</leafValues></_>
    <_>
      <internalNodes>
        0 -1 68659 6.0716405510902405e-02</internalNodes>
      <leafValues>
        -1.8431322276592255e-01 1.</leafValues></_>
    <_>
      <internalNodes>
        0 -1 85 -5.1512313075363636e-04</internalNodes>
      <leafValues>
        -6.1807900667190552e-01 3.0194070935249329e-01</leafValues></_>
    <_>
      <internalNodes>
        0 -1 37695 -3.2504554837942123e-04</internalNodes>
      <leafValues>
        3.2379409670829773e-01 -4.9999356269836426e-01</leafValues></_>
    <_>
      <internalNodes>
        0 -1 89385 -1.4285458019003272e-03</internalNodes>
      <leafValues>
        2.9410022497177124e-01 -6.0262328386306763e-01</leafValues></_>
    <_>
      <internalNodes>
        0 -1 51828 8.3624526858329773e-02</internalNodes>
      <leafValues>
        1.9317235052585602e-01 -9.5404571294784546e-01</leafValues></_>
    <_>
      <internalNodes>
        0 -1 46300 -2.3158714175224304e-03</internalNodes>
      <leafValues>
        7.5228261947631836e-01 -3.1060051918029785e-01</leafValues></_></weakClassifiers></stage16>
</opencv_storage>
