<?xml version="1.0"?>
<opencv_storage>
<stage16>
  <maxWeakCount>7</maxWeakCount>
  <stageThreshold>-4.1327363252639771e-01</stageThreshold>
  <weakClassifiers>
    <_>
      <internalNodes>
        0 -1 118777 2.0818759221583605e-03</internalNodes>
      <leafValues>
        -9.7744360566139221e-02 6.7664670944213867e-01</leafValues></_>
    <_>
      <internalNodes>
        0 -1 148550 9.7147718071937561e-02</internalNodes>
      <leafValues>
        2.3188601434230804e-01 -9.1567438840866089e-01</leafValues></_>
    <_>
      <internalNodes>
        0 -1 118795 -2.8571930527687073e-01</internalNodes>
      <leafValues>
        -7.5951784849166870e-01 2.4319778382778168e-01</leafValues></_>
    <_>
      <internalNodes>
        0 -1 110808 -5.4615491535514593e-04</internalNodes>
      <leafValues>
        5.5003029108047485e-01 -3.5600695013999939e-01</leafValues></_>
    <_>
      <internalNodes>
        0 -1 119955 -2.9457200318574905e-02</internalNodes>
      <leafValues>
        8.5190081596374512e-01 -2.0971372723579407e-01</leafValues></_>
    <_>
      <internalNodes>
        0 -1 159198 -6.6262691689189523e-05</internalNodes>
      <leafValues>
        6.0981941223144531e-01 -2.6698926091194153e-01</leafValues></_>
    <_>
      <internalNodes>
        0 -1 49439 8.8176149874925613e-03</internalNodes>
      <leafValues>
        3.6384484171867371e-01 -6.3561576604843140e-01</leafValues></_></weakClassifiers></stage16>
</opencv_storage>
