<?xml version="1.0"?>
<opencv_storage>
<stage13>
  <maxWeakCount>8</maxWeakCount>
  <stageThreshold>-4.4245183467864990e-01</stageThreshold>
  <weakClassifiers>
    <_>
      <internalNodes>
        0 -1 3148 -3.3178944140672684e-03</internalNodes>
      <leafValues>
        -8.2857143878936768e-01 4.8679244518280029e-01</leafValues></_>
    <_>
      <internalNodes>
        0 -1 134052 6.6919228993356228e-04</internalNodes>
      <leafValues>
        3.3031952381134033e-01 -6.3112962245941162e-01</leafValues></_>
    <_>
      <internalNodes>
        0 -1 111748 -3.7119272747077048e-05</internalNodes>
      <leafValues>
        5.3185647726058960e-01 -4.0274253487586975e-01</leafValues></_>
    <_>
      <internalNodes>
        0 -1 105533 6.1595323495566845e-03</internalNodes>
      <leafValues>
        -2.4951392412185669e-01 7.5675362348556519e-01</leafValues></_>
    <_>
      <internalNodes>
        0 -1 162099 -1.9717805844265968e-04</internalNodes>
      <leafValues>
        -7.0837330818176270e-01 2.9407367110252380e-01</leafValues></_>
    <_>
      <internalNodes>
        0 -1 24565 -8.3190239965915680e-03</internalNodes>
      <leafValues>
        7.6080703735351562e-01 -2.9198873043060303e-01</leafValues></_>
    <_>
      <internalNodes>
        0 -1 148285 -1.5665795654058456e-03</internalNodes>
      <leafValues>
        -4.9742010235786438e-01 4.2177334427833557e-01</leafValues></_>
    <_>
      <internalNodes>
        0 -1 11895 7.8320107422769070e-04</internalNodes>
      <leafValues>
        2.8419822454452515e-01 -7.3633790016174316e-01</leafValues></_></weakClassifiers></stage13>
</opencv_storage>
