<?xml version="1.0"?>
<opencv_storage>
<stage7>
  <maxWeakCount>11</maxWeakCount>
  <stageThreshold>-1.9592976570129395e+00</stageThreshold>
  <weakClassifiers>
    <_>
      <internalNodes>
        0 -1 47221 3.1656131148338318e-02</internalNodes>
      <leafValues>
        -7.4577778577804565e-01 5.1999998092651367e-01</leafValues></_>
    <_>
      <internalNodes>
        0 -1 56893 1.0326372087001801e-01</internalNodes>
      <leafValues>
        -3.7143537402153015e-01 7.9773473739624023e-01</leafValues></_>
    <_>
      <internalNodes>
        0 -1 131569 1.4921161346137524e-03</internalNodes>
      <leafValues>
        -3.6739367246627808e-01 3.9013427495956421e-01</leafValues></_>
    <_>
      <internalNodes>
        0 -1 120260 -2.7512006461620331e-02</internalNodes>
      <leafValues>
        4.5885142683982849e-01 -3.3381640911102295e-01</leafValues></_>
    <_>
      <internalNodes>
        0 -1 132315 -5.1033444469794631e-04</internalNodes>
      <leafValues>
        5.7503509521484375e-01 -2.6084885001182556e-01</leafValues></_>
    <_>
      <internalNodes>
        0 -1 148231 -1.8166708759963512e-03</internalNodes>
      <leafValues>
        3.4183081984519958e-01 -4.5523566007614136e-01</leafValues></_>
    <_>
      <internalNodes>
        0 -1 52925 1.8430860713124275e-02</internalNodes>
      <leafValues>
        1.8712796270847321e-01 -8.0146431922912598e-01</leafValues></_>
    <_>
      <internalNodes>
        0 -1 120194 3.1851488165557384e-03</internalNodes>
      <leafValues>
        -2.9631647467613220e-01 4.5283967256546021e-01</leafValues></_>
    <_>
      <internalNodes>
        0 -1 148299 4.3373033404350281e-03</internalNodes>
      <leafValues>
        1.6617177426815033e-01 -9.9287432432174683e-01</leafValues></_>
    <_>
      <internalNodes>
        0 -1 125511 -1.1518441606312990e-03</internalNodes>
      <leafValues>
        4.5069673657417297e-01 -3.0995813012123108e-01</leafValues></_>
    <_>
      <internalNodes>
        0 -1 148750 1.1755315354093909e-03</internalNodes>
      <leafValues>
        2.2336532175540924e-01 -7.0222783088684082e-01</leafValues></_></weakClassifiers></stage7>
</opencv_storage>
