<?xml version="1.0"?>
<opencv_storage>
<stage8>
  <maxWeakCount>12</maxWeakCount>
  <stageThreshold>-1.8174220323562622e+00</stageThreshold>
  <weakClassifiers>
    <_>
      <internalNodes>
        0 -1 104975 7.2811536490917206e-02</internalNodes>
      <leafValues>
        -7.2169405221939087e-01 8.1395345926284790e-01</leafValues></_>
    <_>
      <internalNodes>
        0 -1 21843 4.2900495231151581e-02</internalNodes>
      <leafValues>
        -4.0125659108161926e-01 5.8582890033721924e-01</leafValues></_>
    <_>
      <internalNodes>
        0 -1 104197 -7.7192939352244139e-04</internalNodes>
      <leafValues>
        5.5291062593460083e-01 -2.4770392477512360e-01</leafValues></_>
    <_>
      <internalNodes>
        0 -1 1185 2.6497239014133811e-04</internalNodes>
      <leafValues>
        2.5366139411926270e-01 -5.2434110641479492e-01</leafValues></_>
    <_>
      <internalNodes>
        0 -1 145872 6.4679086208343506e-02</internalNodes>
      <leafValues>
        1.3454562425613403e-01 -8.7211126089096069e-01</leafValues></_>
    <_>
      <internalNodes>
        0 -1 151881 -8.5251883137971163e-04</internalNodes>
      <leafValues>
        -6.7860823869705200e-01 2.1618524193763733e-01</leafValues></_>
    <_>
      <internalNodes>
        0 -1 127715 -4.7258980339393020e-04</internalNodes>
      <leafValues>
        1.6466794908046722e-01 -6.4578795433044434e-01</leafValues></_>
    <_>
      <internalNodes>
        0 -1 161368 -1.5206439420580864e-02</internalNodes>
      <leafValues>
        -9.4436538219451904e-01 1.0318335145711899e-01</leafValues></_>
    <_>
      <internalNodes>
        0 -1 130960 3.9553050883114338e-03</internalNodes>
      <leafValues>
        -3.3601254224777222e-01 3.5231730341911316e-01</leafValues></_>
    <_>
      <internalNodes>
        0 -1 112887 -1.9173696637153625e-01</internalNodes>
      <leafValues>
        -9.0358221530914307e-01 1.4022596180438995e-01</leafValues></_>
    <_>
      <internalNodes>
        0 -1 67827 8.0175958573818207e-02</internalNodes>
      <leafValues>
        -2.3187313973903656e-01 7.2193229198455811e-01</leafValues></_>
    <_>
      <internalNodes>
        0 -1 157595 1.5016636461950839e-04</internalNodes>
      <leafValues>
        2.7458289265632629e-01 -4.5149087905883789e-01</leafValues></_></weakClassifiers></stage8>
</opencv_storage>
