<?xml version="1.0"?>
<opencv_storage>
<stage2>
  <maxWeakCount>8</maxWeakCount>
  <stageThreshold>-1.6479701995849609e+00</stageThreshold>
  <weakClassifiers>
    <_>
      <internalNodes>
        0 -1 125428 2.1388009190559387e-02</internalNodes>
      <leafValues>
        -7.9873073101043701e-01 8.3505153656005859e-01</leafValues></_>
    <_>
      <internalNodes>
        0 -1 104927 -1.0643532872200012e-01</internalNodes>
      <leafValues>
        7.3663300275802612e-01 -4.6492466330528259e-01</leafValues></_>
    <_>
      <internalNodes>
        0 -1 88365 7.2982888668775558e-03</internalNodes>
      <leafValues>
        -3.2081884145736694e-01 7.9982876777648926e-01</leafValues></_>
    <_>
      <internalNodes>
        0 -1 113015 -3.2147608697414398e-02</internalNodes>
      <leafValues>
        3.8975805044174194e-01 -6.2077158689498901e-01</leafValues></_>
    <_>
      <internalNodes>
        0 -1 10113 6.4731836318969727e-03</internalNodes>
      <leafValues>
        1.9140644371509552e-01 -9.3646478652954102e-01</leafValues></_>
    <_>
      <internalNodes>
        0 -1 125886 2.0051868632435799e-03</internalNodes>
      <leafValues>
        -4.2345181107521057e-01 4.5401698350906372e-01</leafValues></_>
    <_>
      <internalNodes>
        0 -1 161256 -1.2558236718177795e-02</internalNodes>
      <leafValues>
        -8.3243548870086670e-01 2.7618625760078430e-01</leafValues></_>
    <_>
      <internalNodes>
        0 -1 112808 -7.4478343594819307e-04</internalNodes>
      <leafValues>
        6.3739436864852905e-01 -3.6433404684066772e-01</leafValues></_></weakClassifiers></stage2>
</opencv_storage>
