<?xml version="1.0"?>
<opencv_storage>
<stage16>
  <maxWeakCount>5</maxWeakCount>
  <stageThreshold>-1.0111321210861206e+00</stageThreshold>
  <weakClassifiers>
    <_>
      <internalNodes>
        0 -1 47223 -9.8471175879240036e-03</internalNodes>
      <leafValues>
        -4.0145984292030334e-01 7.7142858505249023e-01</leafValues></_>
    <_>
      <internalNodes>
        0 -1 76853 -1.0773299436550587e-04</internalNodes>
      <leafValues>
        4.6491512656211853e-01 -4.7052085399627686e-01</leafValues></_>
    <_>
      <internalNodes>
        0 -1 19961 -5.1911449991166592e-03</internalNodes>
      <leafValues>
        -7.7932858467102051e-01 3.0121061205863953e-01</leafValues></_>
    <_>
      <internalNodes>
        0 -1 37936 4.3141713831573725e-04</internalNodes>
      <leafValues>
        3.2054796814918518e-01 -7.5519824028015137e-01</leafValues></_>
    <_>
      <internalNodes>
        0 -1 38096 1.4442010782659054e-02</internalNodes>
      <leafValues>
        2.2248704731464386e-01 -8.4494036436080933e-01</leafValues></_></weakClassifiers></stage16>
</opencv_storage>
