<?xml version="1.0"?>
<opencv_storage>
<stage6>
  <maxWeakCount>5</maxWeakCount>
  <stageThreshold>-4.8621174693107605e-01</stageThreshold>
  <weakClassifiers>
    <_>
      <internalNodes>
        0 -1 119985 -1.4896595850586891e-02</internalNodes>
      <leafValues>
        7.9166668653488159e-01 -5.3225809335708618e-01</leafValues></_>
    <_>
      <internalNodes>
        0 -1 125428 1.9334379583597183e-02</internalNodes>
      <leafValues>
        -2.8485220670700073e-01 9.6395045518875122e-01</leafValues></_>
    <_>
      <internalNodes>
        0 -1 161216 6.8201875546947122e-04</internalNodes>
      <leafValues>
        3.4524816274642944e-01 -1.</leafValues></_>
    <_>
      <internalNodes>
        0 -1 96657 1.4701084233820438e-02</internalNodes>
      <leafValues>
        -3.7939259409904480e-01 8.3177185058593750e-01</leafValues></_>
    <_>
      <internalNodes>
        0 -1 12942 -1.2209148146212101e-02</internalNodes>
      <leafValues>
        -9.3791961669921875e-01 3.6504295468330383e-01</leafValues></_></weakClassifiers></stage6>
</opencv_storage>
