<?xml version="1.0"?>
<opencv_storage>
<cascade>
  <stageType>BOOST</stageType>
  <featureType>HAAR</featureType>
  <height>24</height>
  <width>24</width>
  <stageParams>
    <boostType>GAB</boostType>
    <minHitRate>9.9500000476837158e-01</minHitRate>
    <maxFalseAlarm>5.0000000000000000e-01</maxFalseAlarm>
    <weightTrimRate>9.4999999999999996e-01</weightTrimRate>
    <maxDepth>1</maxDepth>
    <maxWeakCount>100</maxWeakCount></stageParams>
  <featureParams>
    <maxCatCount>0</maxCatCount>
    <featSize>1</featSize>
    <mode>BASIC</mode></featureParams>
  <stageNum>20</stageNum>
  <stages>
    <!-- stage 0 -->
    <_>
      <maxWeakCount>5</maxWeakCount>
      <stageThreshold>-1.6176337003707886e+00</stageThreshold>
      <weakClassifiers>
        <_>
          <internalNodes>
            0 -1 126 4.1225954890251160e-02</internalNodes>
          <leafValues>
            -8.7937742471694946e-01 6.0465115308761597e-01</leafValues></_>
        <_>
          <internalNodes>
            0 -1 56 3.1518403440713882e-02</internalNodes>
          <leafValues>
            -8.8761788606643677e-01 1.9157473742961884e-01</leafValues></_>
        <_>
          <internalNodes>
            0 -1 19 2.7998004108667374e-02</internalNodes>
          <leafValues>
            -7.7811294794082642e-01 2.8864294290542603e-01</leafValues></_>
        <_>
          <internalNodes>
            0 -1 82 -4.6119153499603271e-02</internalNodes>
          <leafValues>
            3.0605775117874146e-01 -8.4814649820327759e-01</leafValues></_>
        <_>
          <internalNodes>
            0 -1 133 -4.9298539757728577e-02</internalNodes>
          <leafValues>
            8.0900961160659790e-01 -3.7032744288444519e-01</leafValues></_></weakClassifiers></_>
    <!-- stage 1 -->
    <_>
      <maxWeakCount>9</maxWeakCount>
      <stageThreshold>-2.4475417137145996e+00</stageThreshold>
      <weakClassifiers>
        <_>
          <internalNodes>
            0 -1 143 1.9422797486186028e-02</internalNodes>
          <leafValues>
            -8.1501829624176025e-01 8.3333331346511841e-01</leafValues></_>
        <_>
          <internalNodes>
            0 -1 53 5.7288583368062973e-02</internalNodes>
          <leafValues>
            -5.1976776123046875e-01 7.6290863752365112e-01</leafValues></_>
        <_>
          <internalNodes>
            0 -1 144 -9.8526850342750549e-02</internalNodes>
          <leafValues>
            -9.4998168945312500e-01 3.0059140920639038e-01</leafValues></_>
        <_>
          <internalNodes>
            0 -1 58 8.6625456809997559e-02</internalNodes>
          <leafValues>
            -3.2597643136978149e-01 9.3913489580154419e-01</leafValues></_>
        <_>
          <internalNodes>
            0 -1 84 -9.4624966382980347e-02</internalNodes>
          <leafValues>
            6.6438704729080200e-01 -2.9668539762496948e-01</leafValues></_>
        <_>
          <internalNodes>
            0 -1 164 1.0249141603708267e-02</internalNodes>
          <leafValues>
            -3.5910537838935852e-01 7.0134639739990234e-01</leafValues></_>
        <_>
          <internalNodes>
            0 -1 115 -1.0811500251293182e-02</internalNodes>
          <leafValues>
            4.1865697503089905e-01 -6.0774189233779907e-01</leafValues></_>
        <_>
          <internalNodes>
            0 -1 28 -4.8633618280291557e-03</internalNodes>
          <leafValues>
            -8.9660954475402832e-01 1.9752073287963867e-01</leafValues></_>
        <_>
          <internalNodes>
            0 -1 124 -6.7859709262847900e-02</internalNodes>
          <leafValues>
            1.6876269876956940e-01 -1.</leafValues></_></weakClassifiers></_>
    <!-- stage 2 -->
    <_>
      <maxWeakCount>8</maxWeakCount>
      <stageThreshold>-1.6479701995849609e+00</stageThreshold>
      <weakClassifiers>
        <_>
          <internalNodes>
            0 -1 143 2.1388009190559387e-02</internalNodes>
          <leafValues>
            -7.9873073101043701e-01 8.3505153656005859e-01</leafValues></_>
        <_>
          <internalNodes>
            0 -1 97 -1.0643532872200012e-01</internalNodes>
          <leafValues>
            7.3663300275802612e-01 -4.6492466330528259e-01</leafValues></_>
        <_>
          <internalNodes>
            0 -1 73 7.2982888668775558e-03</internalNodes>
          <leafValues>
            -3.2081884145736694e-01 7.9982876777648926e-01</leafValues></_>
        <_>
          <internalNodes>
            0 -1 115 -3.2147608697414398e-02</internalNodes>
          <leafValues>
            3.8975805044174194e-01 -6.2077158689498901e-01</leafValues></_>
        <_>
          <internalNodes>
            0 -1 17 6.4731836318969727e-03</internalNodes>
          <leafValues>
            1.9140644371509552e-01 -9.3646478652954102e-01</leafValues></_>
        <_>
          <internalNodes>
            0 -1 150 2.0051868632435799e-03</internalNodes>
          <leafValues>
            -4.2345181107521057e-01 4.5401698350906372e-01</leafValues></_>
        <_>
          <internalNodes>
            0 -1 195 -1.2558236718177795e-02</internalNodes>
          <leafValues>
            -8.3243548870086670e-01 2.7618625760078430e-01</leafValues></_>
        <_>
          <internalNodes>
            0 -1 113 -7.4478343594819307e-04</internalNodes>
          <leafValues>
            6.3739436864852905e-01 -3.6433404684066772e-01</leafValues></_></weakClassifiers></_>
    <!-- stage 3 -->
    <_>
      <maxWeakCount>8</maxWeakCount>
      <stageThreshold>-1.4346795082092285e+00</stageThreshold>
      <weakClassifiers>
        <_>
          <internalNodes>
            0 -1 129 7.2312846779823303e-02</internalNodes>
          <leafValues>
            -7.9379564523696899e-01 6.7307692766189575e-01</leafValues></_>
        <_>
          <internalNodes>
            0 -1 15 1.1383177340030670e-01</internalNodes>
          <leafValues>
            -4.7356587648391724e-01 7.2284436225891113e-01</leafValues></_>
        <_>
          <internalNodes>
            0 -1 108 1.1816002428531647e-01</internalNodes>
          <leafValues>
            -2.6365005970001221e-01 9.4965231418609619e-01</leafValues></_>
        <_>
          <internalNodes>
            0 -1 71 5.7556174695491791e-02</internalNodes>
          <leafValues>
            -1.4945186674594879e-01 8.4635400772094727e-01</leafValues></_>
        <_>
          <internalNodes>
            0 -1 193 6.1739387456327677e-04</internalNodes>
          <leafValues>
            2.3536795377731323e-01 -8.6962652206420898e-01</leafValues></_>
        <_>
          <internalNodes>
            0 -1 199 3.6600504536181688e-03</internalNodes>
          <leafValues>
            1.5100939571857452e-01 -9.2005383968353271e-01</leafValues></_>
        <_>
          <internalNodes>
            0 -1 117 3.0877934768795967e-03</internalNodes>
          <leafValues>
            -3.3444109559059143e-01 4.9113032221794128e-01</leafValues></_>
        <_>
          <internalNodes>
            0 -1 127 -1.7938280105590820e-01</internalNodes>
          <leafValues>
            1.9384768605232239e-01 -9.7664725780487061e-01</leafValues></_></weakClassifiers></_>
    <!-- stage 4 -->
    <_>
      <maxWeakCount>11</maxWeakCount>
      <stageThreshold>-1.9642564058303833e+00</stageThreshold>
      <weakClassifiers>
        <_>
          <internalNodes>
            0 -1 131 5.6019052863121033e-02</internalNodes>
          <leafValues>
            -8.3794468641281128e-01 2.5531914830207825e-01</leafValues></_>
        <_>
          <internalNodes>
            0 -1 109 -8.5880756378173828e-02</internalNodes>
          <leafValues>
            8.7885951995849609e-01 -4.3062227964401245e-01</leafValues></_>
        <_>
          <internalNodes>
            0 -1 145 5.7777635753154755e-02</internalNodes>
          <leafValues>
            -1.9441622495651245e-01 9.1167467832565308e-01</leafValues></_>
        <_>
          <internalNodes>
            0 -1 14 -9.3795195221900940e-02</internalNodes>
          <leafValues>
            -8.8551908731460571e-01 2.4486100673675537e-01</leafValues></_>
        <_>
          <internalNodes>
            0 -1 72 -9.5696542412042618e-03</internalNodes>
          <leafValues>
            8.1243193149566650e-01 -2.4570384621620178e-01</leafValues></_>
        <_>
          <internalNodes>
            0 -1 192 -1.4201243175193667e-04</internalNodes>
          <leafValues>
            -7.5557547807693481e-01 2.9160520434379578e-01</leafValues></_>
        <_>
          <internalNodes>
            0 -1 104 -3.8546927273273468e-02</internalNodes>
          <leafValues>
            4.0509051084518433e-01 -4.0768501162528992e-01</leafValues></_>
        <_>
          <internalNodes>
            0 -1 184 1.5417557442560792e-03</internalNodes>
          <leafValues>
            1.5194465219974518e-01 -8.4682863950729370e-01</leafValues></_>
        <_>
          <internalNodes>
            0 -1 166 1.4139614999294281e-02</internalNodes>
          <leafValues>
            -2.4593205749988556e-01 6.2490916252136230e-01</leafValues></_>
        <_>
          <internalNodes>
            0 -1 44 9.3584656715393066e-02</internalNodes>
          <leafValues>
            -2.4682812392711639e-01 6.6570258140563965e-01</leafValues></_>
        <_>
          <internalNodes>
            0 -1 4 -1.5475960448384285e-02</internalNodes>
          <leafValues>
            -8.1063550710678101e-01 2.1600379049777985e-01</leafValues></_></weakClassifiers></_>
    <!-- stage 5 -->
    <_>
      <maxWeakCount>8</maxWeakCount>
      <stageThreshold>-1.4747064113616943e+00</stageThreshold>
      <weakClassifiers>
        <_>
          <internalNodes>
            0 -1 165 2.2478194907307625e-02</internalNodes>
          <leafValues>
            -7.5964123010635376e-01 5.5294120311737061e-01</leafValues></_>
        <_>
          <internalNodes>
            0 -1 92 -7.2329446673393250e-02</internalNodes>
          <leafValues>
            6.9111490249633789e-01 -4.3065986037254333e-01</leafValues></_>
        <_>
          <internalNodes>
            0 -1 67 9.4965383410453796e-02</internalNodes>
          <leafValues>
            -2.1135224401950836e-01 7.4776190519332886e-01</leafValues></_>
        <_>
          <internalNodes>
            0 -1 42 3.2196054235100746e-03</internalNodes>
          <leafValues>
            2.5275951623916626e-01 -6.7001289129257202e-01</leafValues></_>
        <_>
          <internalNodes>
            0 -1 0 -1.8906312761828303e-03</internalNodes>
          <leafValues>
            -8.2632440328598022e-01 1.3785430788993835e-01</leafValues></_>
        <_>
          <internalNodes>
            0 -1 91 -1.3291429495438933e-03</internalNodes>
          <leafValues>
            5.8093786239624023e-01 -2.3532094061374664e-01</leafValues></_>
        <_>
          <internalNodes>
            0 -1 5 -9.9549293518066406e-03</internalNodes>
          <leafValues>
            -7.5091868638992310e-01 1.7369662225246429e-01</leafValues></_>
        <_>
          <internalNodes>
            0 -1 95 -1.8379047978669405e-03</internalNodes>
          <leafValues>
            5.4642921686172485e-01 -2.9552900791168213e-01</leafValues></_></weakClassifiers></_>
    <!-- stage 6 -->
    <_>
      <maxWeakCount>9</maxWeakCount>
      <stageThreshold>-1.6440979242324829e+00</stageThreshold>
      <weakClassifiers>
        <_>
          <internalNodes>
            0 -1 130 7.0542261004447937e-02</internalNodes>
          <leafValues>
            -7.5579321384429932e-01 6.1538463830947876e-01</leafValues></_>
        <_>
          <internalNodes>
            0 -1 9 7.5776159763336182e-02</internalNodes>
          <leafValues>
            -6.7381739616394043e-01 1.4022465050220490e-01</leafValues></_>
        <_>
          <internalNodes>
            0 -1 83 -4.8960573971271515e-02</internalNodes>
          <leafValues>
            6.6855728626251221e-01 -2.8748124837875366e-01</leafValues></_>
        <_>
          <internalNodes>
            0 -1 110 8.8635057210922241e-02</internalNodes>
          <leafValues>
            -1.8626673519611359e-01 8.6779421567916870e-01</leafValues></_>
        <_>
          <internalNodes>
            0 -1 24 5.6010084226727486e-03</internalNodes>
          <leafValues>
            2.3991689085960388e-01 -7.7953374385833740e-01</leafValues></_>
        <_>
          <internalNodes>
            0 -1 200 1.0120207443833351e-02</internalNodes>
          <leafValues>
            1.6571624577045441e-01 -7.1300339698791504e-01</leafValues></_>
        <_>
          <internalNodes>
            0 -1 90 3.8098874501883984e-03</internalNodes>
          <leafValues>
            -3.4054145216941833e-01 3.8674697279930115e-01</leafValues></_>
        <_>
          <internalNodes>
            0 -1 187 2.5880697648972273e-04</internalNodes>
          <leafValues>
            1.9459006190299988e-01 -6.9166421890258789e-01</leafValues></_>
        <_>
          <internalNodes>
            0 -1 187 -6.3817750196903944e-04</internalNodes>
          <leafValues>
            -8.1326854228973389e-01 1.5101015567779541e-01</leafValues></_></weakClassifiers></_>
    <!-- stage 7 -->
    <_>
      <maxWeakCount>11</maxWeakCount>
      <stageThreshold>-1.9592976570129395e+00</stageThreshold>
      <weakClassifiers>
        <_>
          <internalNodes>
            0 -1 46 3.1656131148338318e-02</internalNodes>
          <leafValues>
            -7.4577778577804565e-01 5.1999998092651367e-01</leafValues></_>
        <_>
          <internalNodes>
            0 -1 52 1.0326372087001801e-01</internalNodes>
          <leafValues>
            -3.7143537402153015e-01 7.9773473739624023e-01</leafValues></_>
        <_>
          <internalNodes>
            0 -1 163 1.4921161346137524e-03</internalNodes>
          <leafValues>
            -3.6739367246627808e-01 3.9013427495956421e-01</leafValues></_>
        <_>
          <internalNodes>
            0 -1 136 -2.7512006461620331e-02</internalNodes>
          <leafValues>
            4.5885142683982849e-01 -3.3381640911102295e-01</leafValues></_>
        <_>
          <internalNodes>
            0 -1 168 -5.1033444469794631e-04</internalNodes>
          <leafValues>
            5.7503509521484375e-01 -2.6084885001182556e-01</leafValues></_>
        <_>
          <internalNodes>
            0 -1 178 -1.8166708759963512e-03</internalNodes>
          <leafValues>
            3.4183081984519958e-01 -4.5523566007614136e-01</leafValues></_>
        <_>
          <internalNodes>
            0 -1 49 1.8430860713124275e-02</internalNodes>
          <leafValues>
            1.8712796270847321e-01 -8.0146431922912598e-01</leafValues></_>
        <_>
          <internalNodes>
            0 -1 135 3.1851488165557384e-03</internalNodes>
          <leafValues>
            -2.9631647467613220e-01 4.5283967256546021e-01</leafValues></_>
        <_>
          <internalNodes>
            0 -1 179 4.3373033404350281e-03</internalNodes>
          <leafValues>
            1.6617177426815033e-01 -9.9287432432174683e-01</leafValues></_>
        <_>
          <internalNodes>
            0 -1 147 -1.1518441606312990e-03</internalNodes>
          <leafValues>
            4.5069673657417297e-01 -3.0995813012123108e-01</leafValues></_>
        <_>
          <internalNodes>
            0 -1 182 1.1755315354093909e-03</internalNodes>
          <leafValues>
            2.2336532175540924e-01 -7.0222783088684082e-01</leafValues></_></weakClassifiers></_>
    <!-- stage 8 -->
    <_>
      <maxWeakCount>12</maxWeakCount>
      <stageThreshold>-1.8174220323562622e+00</stageThreshold>
      <weakClassifiers>
        <_>
          <internalNodes>
            0 -1 100 7.2811536490917206e-02</internalNodes>
          <leafValues>
            -7.2169405221939087e-01 8.1395345926284790e-01</leafValues></_>
        <_>
          <internalNodes>
            0 -1 31 4.2900495231151581e-02</internalNodes>
          <leafValues>
            -4.0125659108161926e-01 5.8582890033721924e-01</leafValues></_>
        <_>
          <internalNodes>
            0 -1 93 -7.7192939352244139e-04</internalNodes>
          <leafValues>
            5.5291062593460083e-01 -2.4770392477512360e-01</leafValues></_>
        <_>
          <internalNodes>
            0 -1 7 2.6497239014133811e-04</internalNodes>
          <leafValues>
            2.5366139411926270e-01 -5.2434110641479492e-01</leafValues></_>
        <_>
          <internalNodes>
            0 -1 176 6.4679086208343506e-02</internalNodes>
          <leafValues>
            1.3454562425613403e-01 -8.7211126089096069e-01</leafValues></_>
        <_>
          <internalNodes>
            0 -1 183 -8.5251883137971163e-04</internalNodes>
          <leafValues>
            -6.7860823869705200e-01 2.1618524193763733e-01</leafValues></_>
        <_>
          <internalNodes>
            0 -1 157 -4.7258980339393020e-04</internalNodes>
          <leafValues>
            1.6466794908046722e-01 -6.4578795433044434e-01</leafValues></_>
        <_>
          <internalNodes>
            0 -1 196 -1.5206439420580864e-02</internalNodes>
          <leafValues>
            -9.4436538219451904e-01 1.0318335145711899e-01</leafValues></_>
        <_>
          <internalNodes>
            0 -1 160 3.9553050883114338e-03</internalNodes>
          <leafValues>
            -3.3601254224777222e-01 3.5231730341911316e-01</leafValues></_>
        <_>
          <internalNodes>
            0 -1 114 -1.9173696637153625e-01</internalNodes>
          <leafValues>
            -9.0358221530914307e-01 1.4022596180438995e-01</leafValues></_>
        <_>
          <internalNodes>
            0 -1 59 8.0175958573818207e-02</internalNodes>
          <leafValues>
            -2.3187313973903656e-01 7.2193229198455811e-01</leafValues></_>
        <_>
          <internalNodes>
            0 -1 186 1.5016636461950839e-04</internalNodes>
          <leafValues>
            2.7458289265632629e-01 -4.5149087905883789e-01</leafValues></_></weakClassifiers></_>
    <!-- stage 9 -->
    <_>
      <maxWeakCount>13</maxWeakCount>
      <stageThreshold>-1.7074176073074341e+00</stageThreshold>
      <weakClassifiers>
        <_>
          <internalNodes>
            0 -1 142 1.3402634859085083e-01</internalNodes>
          <leafValues>
            -7.1625107526779175e-01 8.9189189672470093e-01</leafValues></_>
        <_>
          <internalNodes>
            0 -1 34 -2.4423729628324509e-02</internalNodes>
          <leafValues>
            2.4093893170356750e-01 -5.2911698818206787e-01</leafValues></_>
        <_>
          <internalNodes>
            0 -1 63 -2.2975290194153786e-03</internalNodes>
          <leafValues>
            2.9665103554725647e-01 -4.0354168415069580e-01</leafValues></_>
        <_>
          <internalNodes>
            0 -1 85 -8.4454622119665146e-03</internalNodes>
          <leafValues>
            7.1742278337478638e-01 -1.7190274596214294e-01</leafValues></_>
        <_>
          <internalNodes>
            0 -1 175 -5.4905610159039497e-04</internalNodes>
          <leafValues>
            -5.4551833868026733e-01 2.2083252668380737e-01</leafValues></_>
        <_>
          <internalNodes>
            0 -1 121 -5.3200416732579470e-04</internalNodes>
          <leafValues>
            -5.6431627273559570e-01 1.7667022347450256e-01</leafValues></_>
        <_>
          <internalNodes>
            0 -1 12 7.5761318206787109e-02</internalNodes>
          <leafValues>
            1.2323194742202759e-01 -8.5726118087768555e-01</leafValues></_>
        <_>
          <internalNodes>
            0 -1 154 -2.2568725980818272e-03</internalNodes>
          <leafValues>
            4.3324667215347290e-01 -3.0393880605697632e-01</leafValues></_>
        <_>
          <internalNodes>
            0 -1 69 -5.1621831953525543e-03</internalNodes>
          <leafValues>
            5.4699993133544922e-01 -2.4221287667751312e-01</leafValues></_>
        <_>
          <internalNodes>
            0 -1 153 5.9531847946345806e-03</internalNodes>
          <leafValues>
            -1.4881494641304016e-01 6.7150467634201050e-01</leafValues></_>
        <_>
          <internalNodes>
            0 -1 171 1.4737022574990988e-03</internalNodes>
          <leafValues>
            1.9343444705009460e-01 -6.4590841531753540e-01</leafValues></_>
        <_>
          <internalNodes>
            0 -1 60 -9.0682534500956535e-03</internalNodes>
          <leafValues>
            -1.7541171610355377e-01 7.5727027654647827e-01</leafValues></_>
        <_>
          <internalNodes>
            0 -1 149 2.1179001778364182e-03</internalNodes>
          <leafValues>
            -3.0380994081497192e-01 3.3576232194900513e-01</leafValues></_></weakClassifiers></_>
    <!-- stage 10 -->
    <_>
      <maxWeakCount>14</maxWeakCount>
      <stageThreshold>-1.9174399375915527e+00</stageThreshold>
      <weakClassifiers>
        <_>
          <internalNodes>
            0 -1 151 4.4907428324222565e-02</internalNodes>
          <leafValues>
            -7.2486770153045654e-01 3.3333334326744080e-01</leafValues></_>
        <_>
          <internalNodes>
            0 -1 147 -8.9343416038900614e-04</internalNodes>
          <leafValues>
            2.3916964232921600e-01 -4.3251353502273560e-01</leafValues></_>
        <_>
          <internalNodes>
            0 -1 161 -1.5607187524437904e-02</internalNodes>
          <leafValues>
            -6.6762733459472656e-01 1.7026138305664062e-01</leafValues></_>
        <_>
          <internalNodes>
            0 -1 140 3.4838342107832432e-03</internalNodes>
          <leafValues>
            -2.7410805225372314e-01 3.6776360869407654e-01</leafValues></_>
        <_>
          <internalNodes>
            0 -1 112 -7.6560094952583313e-02</internalNodes>
          <leafValues>
            5.5650132894515991e-01 -2.3647204041481018e-01</leafValues></_>
        <_>
          <internalNodes>
            0 -1 3 -2.1489314734935760e-02</internalNodes>
          <leafValues>
            -6.7885702848434448e-01 1.8089172244071960e-01</leafValues></_>
        <_>
          <internalNodes>
            0 -1 158 -1.2327302247285843e-02</internalNodes>
          <leafValues>
            2.4167251586914062e-01 -4.3113240599632263e-01</leafValues></_>
        <_>
          <internalNodes>
            0 -1 148 -7.6364353299140930e-04</internalNodes>
          <leafValues>
            4.6426045894622803e-01 -2.2306297719478607e-01</leafValues></_>
        <_>
          <internalNodes>
            0 -1 189 -7.4446587823331356e-03</internalNodes>
          <leafValues>
            -6.6082727909088135e-01 1.5360464155673981e-01</leafValues></_>
        <_>
          <internalNodes>
            0 -1 47 -9.3400490004569292e-04</internalNodes>
          <leafValues>
            -6.3177430629730225e-01 1.5044660866260529e-01</leafValues></_>
        <_>
          <internalNodes>
            0 -1 98 -2.1836769301444292e-03</internalNodes>
          <leafValues>
            5.4822933673858643e-01 -1.8895933032035828e-01</leafValues></_>
        <_>
          <internalNodes>
            0 -1 68 6.9357350468635559e-02</internalNodes>
          <leafValues>
            -2.1014995872974396e-01 4.4116982817649841e-01</leafValues></_>
        <_>
          <internalNodes>
            0 -1 39 -4.3899476528167725e-02</internalNodes>
          <leafValues>
            -1.8967145681381226e-01 5.4934430122375488e-01</leafValues></_>
        <_>
          <internalNodes>
            0 -1 152 2.0635223481804132e-03</internalNodes>
          <leafValues>
            -2.1961212158203125e-01 5.3431022167205811e-01</leafValues></_></weakClassifiers></_>
    <!-- stage 11 -->
    <_>
      <maxWeakCount>15</maxWeakCount>
      <stageThreshold>-1.6980416774749756e+00</stageThreshold>
      <weakClassifiers>
        <_>
          <internalNodes>
            0 -1 159 1.0163208842277527e-01</internalNodes>
          <leafValues>
            -7.0714902877807617e-01 5.3846156597137451e-01</leafValues></_>
        <_>
          <internalNodes>
            0 -1 33 2.9749754816293716e-02</internalNodes>
          <leafValues>
            -3.3950704336166382e-01 4.2567411065101624e-01</leafValues></_>
        <_>
          <internalNodes>
            0 -1 99 -5.3839631378650665e-02</internalNodes>
          <leafValues>
            6.8892806768417358e-01 -1.3021485507488251e-01</leafValues></_>
        <_>
          <internalNodes>
            0 -1 197 -2.2121714428067207e-03</internalNodes>
          <leafValues>
            -9.5132726430892944e-01 1.0278315097093582e-01</leafValues></_>
        <_>
          <internalNodes>
            0 -1 174 -5.5923638865351677e-04</internalNodes>
          <leafValues>
            -5.6006735563278198e-01 1.4578464627265930e-01</leafValues></_>
        <_>
          <internalNodes>
            0 -1 102 6.5813567489385605e-03</internalNodes>
          <leafValues>
            -1.5646605193614960e-01 6.0504215955734253e-01</leafValues></_>
        <_>
          <internalNodes>
            0 -1 76 -1.6217269003391266e-02</internalNodes>
          <leafValues>
            2.1891932189464569e-01 -4.6116977930068970e-01</leafValues></_>
        <_>
          <internalNodes>
            0 -1 86 -7.7075725421309471e-03</internalNodes>
          <leafValues>
            4.9484026432037354e-01 -1.5880477428436279e-01</leafValues></_>
        <_>
          <internalNodes>
            0 -1 167 -5.2755873184651136e-04</internalNodes>
          <leafValues>
            5.0681054592132568e-01 -1.9809043407440186e-01</leafValues></_>
        <_>
          <internalNodes>
            0 -1 155 -2.8202151879668236e-03</internalNodes>
          <leafValues>
            5.0100755691528320e-01 -1.9336293637752533e-01</leafValues></_>
        <_>
          <internalNodes>
            0 -1 146 8.9825026225298643e-04</internalNodes>
          <leafValues>
            -3.4692099690437317e-01 3.1157457828521729e-01</leafValues></_>
        <_>
          <internalNodes>
            0 -1 8 -5.8398966211825609e-04</internalNodes>
          <leafValues>
            -5.3027600049972534e-01 1.7602515220642090e-01</leafValues></_>
        <_>
          <internalNodes>
            0 -1 191 -1.4616264961659908e-03</internalNodes>
          <leafValues>
            -8.6328619718551636e-01 9.4198256731033325e-02</leafValues></_>
        <_>
          <internalNodes>
            0 -1 139 -7.9832393676042557e-03</internalNodes>
          <leafValues>
            3.9701816439628601e-01 -2.5040933489799500e-01</leafValues></_>
        <_>
          <internalNodes>
            0 -1 30 1.0615150630474091e-01</internalNodes>
          <leafValues>
            1.0931087285280228e-01 -8.6683183908462524e-01</leafValues></_></weakClassifiers></_>
    <!-- stage 12 -->
    <_>
      <maxWeakCount>16</maxWeakCount>
      <stageThreshold>-2.0342519283294678e+00</stageThreshold>
      <weakClassifiers>
        <_>
          <internalNodes>
            0 -1 16 8.3488799631595612e-02</internalNodes>
          <leafValues>
            -7.1801567077636719e-01 4.9019607901573181e-01</leafValues></_>
        <_>
          <internalNodes>
            0 -1 11 7.2541579604148865e-02</internalNodes>
          <leafValues>
            9.1324942186474800e-03 -7.7252948284149170e-01</leafValues></_>
        <_>
          <internalNodes>
            0 -1 36 -7.7198550570756197e-04</internalNodes>
          <leafValues>
            -5.3106594085693359e-01 1.5675772726535797e-01</leafValues></_>
        <_>
          <internalNodes>
            0 -1 1 -2.0501902326941490e-02</internalNodes>
          <leafValues>
            -1. 1.0144436359405518e-01</leafValues></_>
        <_>
          <internalNodes>
            0 -1 45 -9.3939695507287979e-03</internalNodes>
          <leafValues>
            4.0909305214881897e-01 -2.2092242538928986e-01</leafValues></_>
        <_>
          <internalNodes>
            0 -1 120 -7.2761597111821175e-03</internalNodes>
          <leafValues>
            2.7723971009254456e-01 -3.4262144565582275e-01</leafValues></_>
        <_>
          <internalNodes>
            0 -1 40 -3.8356129080057144e-03</internalNodes>
          <leafValues>
            4.7842669486999512e-01 -2.2303886711597443e-01</leafValues></_>
        <_>
          <internalNodes>
            0 -1 25 3.2653058879077435e-03</internalNodes>
          <leafValues>
            -5.3074520826339722e-01 1.8626263737678528e-01</leafValues></_>
        <_>
          <internalNodes>
            0 -1 55 2.4916236288845539e-03</internalNodes>
          <leafValues>
            1.9059541821479797e-01 -5.1495283842086792e-01</leafValues></_>
        <_>
          <internalNodes>
            0 -1 172 2.3463729303330183e-03</internalNodes>
          <leafValues>
            -2.0336833596229553e-01 4.4674447178840637e-01</leafValues></_>
        <_>
          <internalNodes>
            0 -1 187 -1.7090927576646209e-04</internalNodes>
          <leafValues>
            -4.9906983971595764e-01 1.7404860258102417e-01</leafValues></_>
        <_>
          <internalNodes>
            0 -1 23 -3.2082959078252316e-03</internalNodes>
          <leafValues>
            1.9201135635375977e-01 -4.3115019798278809e-01</leafValues></_>
        <_>
          <internalNodes>
            0 -1 201 -6.7870514467358589e-03</internalNodes>
          <leafValues>
            -9.7108972072601318e-01 7.7516406774520874e-02</leafValues></_>
        <_>
          <internalNodes>
            0 -1 190 1.6203004634007812e-05</internalNodes>
          <leafValues>
            1.2542833387851715e-01 -5.7598924636840820e-01</leafValues></_>
        <_>
          <internalNodes>
            0 -1 38 1.5935529023408890e-02</internalNodes>
          <leafValues>
            7.9948827624320984e-02 -9.7262620925903320e-01</leafValues></_>
        <_>
          <internalNodes>
            0 -1 66 3.6114879185333848e-04</internalNodes>
          <leafValues>
            -2.3291344940662384e-01 4.2356306314468384e-01</leafValues></_></weakClassifiers></_>
    <!-- stage 13 -->
    <_>
      <maxWeakCount>9</maxWeakCount>
      <stageThreshold>-1.6653234958648682e+00</stageThreshold>
      <weakClassifiers>
        <_>
          <internalNodes>
            0 -1 88 -1.7101782560348511e-01</internalNodes>
          <leafValues>
            -3.5427573323249817e-01 -9.5215308666229248e-01</leafValues></_>
        <_>
          <internalNodes>
            0 -1 147 -1.1130770435556769e-03</internalNodes>
          <leafValues>
            2.8831008076667786e-01 -5.1901584863662720e-01</leafValues></_>
        <_>
          <internalNodes>
            0 -1 111 -3.2704032957553864e-02</internalNodes>
          <leafValues>
            1.3471600413322449e-01 -8.6409151554107666e-01</leafValues></_>
        <_>
          <internalNodes>
            0 -1 29 -6.1929203569889069e-02</internalNodes>
          <leafValues>
            -1. 7.9076834022998810e-02</leafValues></_>
        <_>
          <internalNodes>
            0 -1 89 1.4883816242218018e-02</internalNodes>
          <leafValues>
            -2.7125936746597290e-01 3.5583767294883728e-01</leafValues></_>
        <_>
          <internalNodes>
            0 -1 194 1.2754610506817698e-03</internalNodes>
          <leafValues>
            1.1328089982271194e-01 -8.5514795780181885e-01</leafValues></_>
        <_>
          <internalNodes>
            0 -1 2 8.6333858780562878e-04</internalNodes>
          <leafValues>
            2.0318810641765594e-01 -5.5941385030746460e-01</leafValues></_>
        <_>
          <internalNodes>
            0 -1 54 -3.9800954982638359e-04</internalNodes>
          <leafValues>
            5.0988942384719849e-01 -2.1756181120872498e-01</leafValues></_>
        <_>
          <internalNodes>
            0 -1 10 9.8692234605550766e-03</internalNodes>
          <leafValues>
            1.3495633006095886e-01 -9.4464665651321411e-01</leafValues></_></weakClassifiers></_>
    <!-- stage 14 -->
    <_>
      <maxWeakCount>14</maxWeakCount>
      <stageThreshold>-1.5727683305740356e+00</stageThreshold>
      <weakClassifiers>
        <_>
          <internalNodes>
            0 -1 169 1.1601479724049568e-02</internalNodes>
          <leafValues>
            -7.0740103721618652e-01 5.7894736528396606e-01</leafValues></_>
        <_>
          <internalNodes>
            0 -1 132 -4.3215878307819366e-02</internalNodes>
          <leafValues>
            6.7590194940567017e-01 -2.9711282253265381e-01</leafValues></_>
        <_>
          <internalNodes>
            0 -1 173 2.3051567841321230e-03</internalNodes>
          <leafValues>
            1.7128813266754150e-01 -5.9272229671478271e-01</leafValues></_>
        <_>
          <internalNodes>
            0 -1 61 1.5351131558418274e-02</internalNodes>
          <leafValues>
            9.4601564109325409e-02 -8.1571418046951294e-01</leafValues></_>
        <_>
          <internalNodes>
            0 -1 32 -7.8104338608682156e-03</internalNodes>
          <leafValues>
            4.7715312242507935e-01 -1.6656267642974854e-01</leafValues></_>
        <_>
          <internalNodes>
            0 -1 96 4.3908394873142242e-03</internalNodes>
          <leafValues>
            -2.2309122979640961e-01 4.2870566248893738e-01</leafValues></_>
        <_>
          <internalNodes>
            0 -1 35 -5.0176586955785751e-04</internalNodes>
          <leafValues>
            3.6626279354095459e-01 -2.2596335411071777e-01</leafValues></_>
        <_>
          <internalNodes>
            0 -1 64 2.5603925678296946e-05</internalNodes>
          <leafValues>
            2.6811519265174866e-01 -3.8895589113235474e-01</leafValues></_>
        <_>
          <internalNodes>
            0 -1 62 -1.7469076556153595e-04</internalNodes>
          <leafValues>
            3.7567722797393799e-01 -2.5380304455757141e-01</leafValues></_>
        <_>
          <internalNodes>
            0 -1 26 -8.2768325228244066e-04</internalNodes>
          <leafValues>
            -7.1178722381591797e-01 1.1933141201734543e-01</leafValues></_>
        <_>
          <internalNodes>
            0 -1 170 7.5772230047732592e-04</internalNodes>
          <leafValues>
            -2.6613539457321167e-01 3.0903017520904541e-01</leafValues></_>
        <_>
          <internalNodes>
            0 -1 41 -4.3817320838570595e-03</internalNodes>
          <leafValues>
            3.8059881329536438e-01 -2.0032435655593872e-01</leafValues></_>
        <_>
          <internalNodes>
            0 -1 75 -7.1734990924596786e-03</internalNodes>
          <leafValues>
            5.5277401208877563e-01 -1.4410409331321716e-01</leafValues></_>
        <_>
          <internalNodes>
            0 -1 20 2.6483573019504547e-03</internalNodes>
          <leafValues>
            -1.8799969553947449e-01 4.3566623330116272e-01</leafValues></_></weakClassifiers></_>
    <!-- stage 15 -->
    <_>
      <maxWeakCount>10</maxWeakCount>
      <stageThreshold>-1.5693093538284302e+00</stageThreshold>
      <weakClassifiers>
        <_>
          <internalNodes>
            0 -1 138 1.9601175189018250e-01</internalNodes>
          <leafValues>
            -7.0598292350769043e-01 8.6666667461395264e-01</leafValues></_>
        <_>
          <internalNodes>
            0 -1 185 -1.0760524310171604e-03</internalNodes>
          <leafValues>
            1.9271683692932129e-01 -6.1287188529968262e-01</leafValues></_>
        <_>
          <internalNodes>
            0 -1 22 1.2301662936806679e-03</internalNodes>
          <leafValues>
            1.8526351451873779e-01 -6.4842444658279419e-01</leafValues></_>
        <_>
          <internalNodes>
            0 -1 156 -8.6186472326517105e-03</internalNodes>
          <leafValues>
            3.9923289418220520e-01 -2.4802044034004211e-01</leafValues></_>
        <_>
          <internalNodes>
            0 -1 137 6.8437540903687477e-03</internalNodes>
          <leafValues>
            -2.6444712281227112e-01 3.4150478243827820e-01</leafValues></_>
        <_>
          <internalNodes>
            0 -1 37 1.1184789473190904e-03</internalNodes>
          <leafValues>
            2.2618778049945831e-01 -5.5150800943374634e-01</leafValues></_>
        <_>
          <internalNodes>
            0 -1 87 -6.1133978888392448e-03</internalNodes>
          <leafValues>
            4.0691259503364563e-01 -2.8684088587760925e-01</leafValues></_>
        <_>
          <internalNodes>
            0 -1 79 -6.1081739841029048e-04</internalNodes>
          <leafValues>
            -5.9191435575485229e-01 1.9276374578475952e-01</leafValues></_>
        <_>
          <internalNodes>
            0 -1 50 1.6576081514358521e-01</internalNodes>
          <leafValues>
            5.6953728199005127e-02 -8.8164466619491577e-01</leafValues></_>
        <_>
          <internalNodes>
            0 -1 21 2.1323428954929113e-03</internalNodes>
          <leafValues>
            -6.9851803779602051e-01 1.1542119830846786e-01</leafValues></_></weakClassifiers></_>
    <!-- stage 16 -->
    <_>
      <maxWeakCount>9</maxWeakCount>
      <stageThreshold>-1.6643368005752563e+00</stageThreshold>
      <weakClassifiers>
        <_>
          <internalNodes>
            0 -1 128 -7.0222303271293640e-02</internalNodes>
          <leafValues>
            -3.8305085897445679e-01 -9.4098359346389771e-01</leafValues></_>
        <_>
          <internalNodes>
            0 -1 177 -2.4857655167579651e-02</internalNodes>
          <leafValues>
            -9.3675267696380615e-01 -3.5059697926044464e-02</leafValues></_>
        <_>
          <internalNodes>
            0 -1 51 -3.9949663914740086e-03</internalNodes>
          <leafValues>
            3.4836566448211670e-01 -3.2940903306007385e-01</leafValues></_>
        <_>
          <internalNodes>
            0 -1 43 1.3517486862838268e-02</internalNodes>
          <leafValues>
            1.0684426128864288e-01 -9.6892398595809937e-01</leafValues></_>
        <_>
          <internalNodes>
            0 -1 162 -1.6772545874118805e-02</internalNodes>
          <leafValues>
            -7.7373206615447998e-01 1.4404895901679993e-01</leafValues></_>
        <_>
          <internalNodes>
            0 -1 167 -5.1049957983195782e-04</internalNodes>
          <leafValues>
            4.8994565010070801e-01 -2.1075588464736938e-01</leafValues></_>
        <_>
          <internalNodes>
            0 -1 72 -5.2265757694840431e-03</internalNodes>
          <leafValues>
            4.5998468995094299e-01 -1.8512499332427979e-01</leafValues></_>
        <_>
          <internalNodes>
            0 -1 119 -7.4747689068317413e-03</internalNodes>
          <leafValues>
            6.0580039024353027e-01 -1.8670915067195892e-01</leafValues></_>
        <_>
          <internalNodes>
            0 -1 70 1.4684107154607773e-03</internalNodes>
          <leafValues>
            -3.1988257169723511e-01 3.3266064524650574e-01</leafValues></_></weakClassifiers></_>
    <!-- stage 17 -->
    <_>
      <maxWeakCount>11</maxWeakCount>
      <stageThreshold>-1.6495345830917358e+00</stageThreshold>
      <weakClassifiers>
        <_>
          <internalNodes>
            0 -1 134 3.0388740822672844e-02</internalNodes>
          <leafValues>
            -6.9991475343704224e-01 7.7777779102325439e-01</leafValues></_>
        <_>
          <internalNodes>
            0 -1 107 -5.1482126582413912e-04</internalNodes>
          <leafValues>
            3.2842025160789490e-01 -3.3078199625015259e-01</leafValues></_>
        <_>
          <internalNodes>
            0 -1 77 -6.3792043365538120e-03</internalNodes>
          <leafValues>
            1.6318117082118988e-01 -5.3845775127410889e-01</leafValues></_>
        <_>
          <internalNodes>
            0 -1 181 -2.9873222112655640e-02</internalNodes>
          <leafValues>
            -9.1718375682830811e-01 8.2536734640598297e-02</leafValues></_>
        <_>
          <internalNodes>
            0 -1 123 7.1293571963906288e-03</internalNodes>
          <leafValues>
            -1.7354936897754669e-01 5.2219492197036743e-01</leafValues></_>
        <_>
          <internalNodes>
            0 -1 116 -5.0941039808094501e-03</internalNodes>
          <leafValues>
            7.2182911634445190e-01 -1.2321065366268158e-01</leafValues></_>
        <_>
          <internalNodes>
            0 -1 122 -7.4891112744808197e-03</internalNodes>
          <leafValues>
            6.1589157581329346e-01 -1.3807651400566101e-01</leafValues></_>
        <_>
          <internalNodes>
            0 -1 180 1.4677611761726439e-04</internalNodes>
          <leafValues>
            1.4501728117465973e-01 -6.8321669101715088e-01</leafValues></_>
        <_>
          <internalNodes>
            0 -1 74 -2.1742956712841988e-02</internalNodes>
          <leafValues>
            5.0541561841964722e-01 -1.7805181443691254e-01</leafValues></_>
        <_>
          <internalNodes>
            0 -1 198 8.7019316852092743e-03</internalNodes>
          <leafValues>
            8.9725591242313385e-02 -8.6378014087677002e-01</leafValues></_>
        <_>
          <internalNodes>
            0 -1 48 6.8536557955667377e-04</internalNodes>
          <leafValues>
            1.5660089254379272e-01 -4.8641023039817810e-01</leafValues></_></weakClassifiers></_>
    <!-- stage 18 -->
    <_>
      <maxWeakCount>12</maxWeakCount>
      <stageThreshold>-1.6554046869277954e+00</stageThreshold>
      <weakClassifiers>
        <_>
          <internalNodes>
            0 -1 141 1.3418993353843689e-01</internalNodes>
          <leafValues>
            -6.9779288768768311e-01 1.</leafValues></_>
        <_>
          <internalNodes>
            0 -1 78 -4.6123685315251350e-03</internalNodes>
          <leafValues>
            -9.7272413969039917e-01 4.6456553973257542e-03</leafValues></_>
        <_>
          <internalNodes>
            0 -1 101 -1.1467408388853073e-01</internalNodes>
          <leafValues>
            2.0842015743255615e-01 -3.9719450473785400e-01</leafValues></_>
        <_>
          <internalNodes>
            0 -1 27 -9.0491781011223793e-03</internalNodes>
          <leafValues>
            -5.0977158546447754e-01 1.9376508891582489e-01</leafValues></_>
        <_>
          <internalNodes>
            0 -1 18 -2.0189034938812256e-01</internalNodes>
          <leafValues>
            -2.3539282381534576e-01 3.7929698824882507e-01</leafValues></_>
        <_>
          <internalNodes>
            0 -1 57 -3.3575287088751793e-03</internalNodes>
          <leafValues>
            4.7585478425025940e-01 -1.7217479646205902e-01</leafValues></_>
        <_>
          <internalNodes>
            0 -1 118 -2.6878196746110916e-02</internalNodes>
          <leafValues>
            8.0537992715835571e-01 -8.5257038474082947e-02</leafValues></_>
        <_>
          <internalNodes>
            0 -1 13 9.5147266983985901e-03</internalNodes>
          <leafValues>
            -2.0509490370750427e-01 3.8073596358299255e-01</leafValues></_>
        <_>
          <internalNodes>
            0 -1 80 3.9894442306831479e-04</internalNodes>
          <leafValues>
            1.8168236315250397e-01 -4.8473113775253296e-01</leafValues></_>
        <_>
          <internalNodes>
            0 -1 188 -3.5775921423919499e-04</internalNodes>
          <leafValues>
            2.7096995711326599e-01 -3.1905439496040344e-01</leafValues></_>
        <_>
          <internalNodes>
            0 -1 6 -5.7155860122293234e-04</internalNodes>
          <leafValues>
            -7.5885933637619019e-01 1.1308069527149200e-01</leafValues></_>
        <_>
          <internalNodes>
            0 -1 65 1.5732929110527039e-02</internalNodes>
          <leafValues>
            7.6895192265510559e-02 -8.4763395786285400e-01</leafValues></_></weakClassifiers></_>
    <!-- stage 19 -->
    <_>
      <maxWeakCount>6</maxWeakCount>
      <stageThreshold>-1.3644311428070068e+00</stageThreshold>
      <weakClassifiers>
        <_>
          <internalNodes>
            0 -1 125 -5.3477820008993149e-02</internalNodes>
          <leafValues>
            -3.1854838132858276e-01 -9.1193181276321411e-01</leafValues></_>
        <_>
          <internalNodes>
            0 -1 105 1.1618287861347198e-01</internalNodes>
          <leafValues>
            -5.4793781042098999e-01 2.7015531063079834e-01</leafValues></_>
        <_>
          <internalNodes>
            0 -1 106 -2.0821526646614075e-02</internalNodes>
          <leafValues>
            1.5917709469795227e-01 -7.6985383033752441e-01</leafValues></_>
        <_>
          <internalNodes>
            0 -1 81 1.0039051994681358e-03</internalNodes>
          <leafValues>
            -2.4841989576816559e-01 4.6723455190658569e-01</leafValues></_>
        <_>
          <internalNodes>
            0 -1 94 3.7665866315364838e-02</internalNodes>
          <leafValues>
            -1.9347932934761047e-01 5.2307897806167603e-01</leafValues></_>
        <_>
          <internalNodes>
            0 -1 103 -9.3851033598184586e-03</internalNodes>
          <leafValues>
            7.5481784343719482e-01 -1.2502118945121765e-01</leafValues></_></weakClassifiers></_></stages>
  <features>
    <_>
      <rects>
        <_>
          0 0 2 12 -1.</_>
        <_>
          1 0 1 12 2.</_></rects>
      <tilted>0</tilted></_>
    <_>
      <rects>
        <_>
          0 0 4 24 -1.</_>
        <_>
          2 0 2 24 2.</_></rects>
      <tilted>0</tilted></_>
    <_>
      <rects>
        <_>
          0 0 6 2 -1.</_>
        <_>
          3 0 3 2 2.</_></rects>
      <tilted>0</tilted></_>
    <_>
      <rects>
        <_>
          0 0 5 18 -1.</_>
        <_>
          0 9 5 9 2.</_></rects>
      <tilted>0</tilted></_>
    <_>
      <rects>
        <_>
          0 0 18 2 -1.</_>
        <_>
          9 0 9 2 2.</_></rects>
      <tilted>0</tilted></_>
    <_>
      <rects>
        <_>
          0 0 15 22 -1.</_>
        <_>
          0 11 15 11 2.</_></rects>
      <tilted>0</tilted></_>
    <_>
      <rects>
        <_>
          0 1 2 4 -1.</_>
        <_>
          1 1 1 4 2.</_></rects>
      <tilted>0</tilted></_>
    <_>
      <rects>
        <_>
          0 1 2 4 -1.</_>
        <_>
          0 3 2 2 2.</_></rects>
      <tilted>0</tilted></_>
    <_>
      <rects>
        <_>
          0 1 6 2 -1.</_>
        <_>
          3 1 3 2 2.</_></rects>
      <tilted>0</tilted></_>
    <_>
      <rects>
        <_>
          0 1 16 22 -1.</_>
        <_>
          0 1 8 11 2.</_>
        <_>
          8 12 8 11 2.</_></rects>
      <tilted>0</tilted></_>
    <_>
      <rects>
        <_>
          0 2 2 21 -1.</_>
        <_>
          1 2 1 21 2.</_></rects>
      <tilted>0</tilted></_>
    <_>
      <rects>
        <_>
          0 2 9 14 -1.</_>
        <_>
          0 9 9 7 2.</_></rects>
      <tilted>0</tilted></_>
    <_>
      <rects>
        <_>
          0 3 10 10 -1.</_>
        <_>
          0 8 10 5 2.</_></rects>
      <tilted>0</tilted></_>
    <_>
      <rects>
        <_>
          0 5 18 3 -1.</_>
        <_>
          9 5 9 3 2.</_></rects>
      <tilted>0</tilted></_>
    <_>
      <rects>
        <_>
          0 9 15 1 -1.</_>
        <_>
          5 9 5 1 2.</_></rects>
      <tilted>0</tilted></_>
    <_>
      <rects>
        <_>
          0 11 14 6 -1.</_>
        <_>
          7 11 7 6 2.</_></rects>
      <tilted>0</tilted></_>
    <_>
      <rects>
        <_>
          0 11 16 4 -1.</_>
        <_>
          0 11 8 2 2.</_>
        <_>
          8 13 8 2 2.</_></rects>
      <tilted>0</tilted></_>
    <_>
      <rects>
        <_>
          0 12 3 12 -1.</_>
        <_>
          0 18 3 6 2.</_></rects>
      <tilted>0</tilted></_>
    <_>
      <rects>
        <_>
          0 12 21 6 -1.</_>
        <_>
          7 12 7 6 2.</_></rects>
      <tilted>0</tilted></_>
    <_>
      <rects>
        <_>
          0 14 18 7 -1.</_>
        <_>
          9 14 9 7 2.</_></rects>
      <tilted>0</tilted></_>
    <_>
      <rects>
        <_>
          0 15 4 4 -1.</_>
        <_>
          2 15 2 4 2.</_></rects>
      <tilted>0</tilted></_>
    <_>
      <rects>
        <_>
          0 15 18 3 -1.</_>
        <_>
          9 15 9 3 2.</_></rects>
      <tilted>0</tilted></_>
    <_>
      <rects>
        <_>
          0 16 2 8 -1.</_>
        <_>
          0 20 2 4 2.</_></rects>
      <tilted>0</tilted></_>
    <_>
      <rects>
        <_>
          0 16 6 8 -1.</_>
        <_>
          0 20 6 4 2.</_></rects>
      <tilted>0</tilted></_>
    <_>
      <rects>
        <_>
          0 18 8 6 -1.</_>
        <_>
          0 21 8 3 2.</_></rects>
      <tilted>0</tilted></_>
    <_>
      <rects>
        <_>
          0 19 14 5 -1.</_>
        <_>
          7 19 7 5 2.</_></rects>
      <tilted>0</tilted></_>
    <_>
      <rects>
        <_>
          0 20 2 4 -1.</_>
        <_>
          1 20 1 4 2.</_></rects>
      <tilted>0</tilted></_>
    <_>
      <rects>
        <_>
          1 0 22 3 -1.</_>
        <_>
          12 0 11 3 2.</_></rects>
      <tilted>0</tilted></_>
    <_>
      <rects>
        <_>
          1 0 23 20 -1.</_>
        <_>
          1 10 23 10 2.</_></rects>
      <tilted>0</tilted></_>
    <_>
      <rects>
        <_>
          1 7 22 8 -1.</_>
        <_>
          1 11 22 4 2.</_></rects>
      <tilted>0</tilted></_>
    <_>
      <rects>
        <_>
          1 8 22 5 -1.</_>
        <_>
          12 8 11 5 2.</_></rects>
      <tilted>0</tilted></_>
    <_>
      <rects>
        <_>
          1 10 14 4 -1.</_>
        <_>
          1 10 7 2 2.</_>
        <_>
          8 12 7 2 2.</_></rects>
      <tilted>0</tilted></_>
    <_>
      <rects>
        <_>
          1 12 14 4 -1.</_>
        <_>
          1 12 7 2 2.</_>
        <_>
          8 14 7 2 2.</_></rects>
      <tilted>0</tilted></_>
    <_>
      <rects>
        <_>
          1 13 14 1 -1.</_>
        <_>
          8 13 7 1 2.</_></rects>
      <tilted>0</tilted></_>
    <_>
      <rects>
        <_>
          1 15 16 6 -1.</_>
        <_>
          1 15 8 3 2.</_>
        <_>
          9 18 8 3 2.</_></rects>
      <tilted>0</tilted></_>
    <_>
      <rects>
        <_>
          1 20 6 2 -1.</_>
        <_>
          1 20 3 1 2.</_>
        <_>
          4 21 3 1 2.</_></rects>
      <tilted>0</tilted></_>
    <_>
      <rects>
        <_>
          2 0 12 1 -1.</_>
        <_>
          8 0 6 1 2.</_></rects>
      <tilted>0</tilted></_>
    <_>
      <rects>
        <_>
          2 0 16 1 -1.</_>
        <_>
          10 0 8 1 2.</_></rects>
      <tilted>0</tilted></_>
    <_>
      <rects>
        <_>
          2 8 2 8 -1.</_>
        <_>
          2 12 2 4 2.</_></rects>
      <tilted>0</tilted></_>
    <_>
      <rects>
        <_>
          2 13 21 2 -1.</_>
        <_>
          9 13 7 2 2.</_></rects>
      <tilted>0</tilted></_>
    <_>
      <rects>
        <_>
          2 13 14 2 -1.</_>
        <_>
          2 14 14 1 2.</_></rects>
      <tilted>0</tilted></_>
    <_>
      <rects>
        <_>
          2 18 14 2 -1.</_>
        <_>
          2 18 7 1 2.</_>
        <_>
          9 19 7 1 2.</_></rects>
      <tilted>0</tilted></_>
    <_>
      <rects>
        <_>
          3 0 12 2 -1.</_>
        <_>
          9 0 6 2 2.</_></rects>
      <tilted>0</tilted></_>
    <_>
      <rects>
        <_>
          3 6 16 1 -1.</_>
        <_>
          11 6 8 1 2.</_></rects>
      <tilted>0</tilted></_>
    <_>
      <rects>
        <_>
          3 7 12 10 -1.</_>
        <_>
          3 7 6 5 2.</_>
        <_>
          9 12 6 5 2.</_></rects>
      <tilted>0</tilted></_>
    <_>
      <rects>
        <_>
          3 9 10 2 -1.</_>
        <_>
          8 9 5 2 2.</_></rects>
      <tilted>0</tilted></_>
    <_>
      <rects>
        <_>
          3 13 12 1 -1.</_>
        <_>
          9 13 6 1 2.</_></rects>
      <tilted>0</tilted></_>
    <_>
      <rects>
        <_>
          3 21 4 3 -1.</_>
        <_>
          5 21 2 3 2.</_></rects>
      <tilted>0</tilted></_>
    <_>
      <rects>
        <_>
          4 0 14 1 -1.</_>
        <_>
          11 0 7 1 2.</_></rects>
      <tilted>0</tilted></_>
    <_>
      <rects>
        <_>
          4 4 2 20 -1.</_>
        <_>
          4 14 2 10 2.</_></rects>
      <tilted>0</tilted></_>
    <_>
      <rects>
        <_>
          4 4 18 10 -1.</_>
        <_>
          4 9 18 5 2.</_></rects>
      <tilted>0</tilted></_>
    <_>
      <rects>
        <_>
          4 6 10 4 -1.</_>
        <_>
          4 6 5 2 2.</_>
        <_>
          9 8 5 2 2.</_></rects>
      <tilted>0</tilted></_>
    <_>
      <rects>
        <_>
          4 10 10 10 -1.</_>
        <_>
          4 10 5 5 2.</_>
        <_>
          9 15 5 5 2.</_></rects>
      <tilted>0</tilted></_>
    <_>
      <rects>
        <_>
          4 12 10 4 -1.</_>
        <_>
          9 12 5 4 2.</_></rects>
      <tilted>0</tilted></_>
    <_>
      <rects>
        <_>
          4 16 2 1 -1.</_>
        <_>
          5 16 1 1 2.</_></rects>
      <tilted>0</tilted></_>
    <_>
      <rects>
        <_>
          4 23 20 1 -1.</_>
        <_>
          14 23 10 1 2.</_></rects>
      <tilted>0</tilted></_>
    <_>
      <rects>
        <_>
          5 0 11 22 -1.</_>
        <_>
          5 11 11 11 2.</_></rects>
      <tilted>0</tilted></_>
    <_>
      <rects>
        <_>
          5 9 8 1 -1.</_>
        <_>
          9 9 4 1 2.</_></rects>
      <tilted>0</tilted></_>
    <_>
      <rects>
        <_>
          5 10 10 10 -1.</_>
        <_>
          5 10 5 5 2.</_>
        <_>
          10 15 5 5 2.</_></rects>
      <tilted>0</tilted></_>
    <_>
      <rects>
        <_>
          5 11 8 5 -1.</_>
        <_>
          9 11 4 5 2.</_></rects>
      <tilted>0</tilted></_>
    <_>
      <rects>
        <_>
          5 13 12 1 -1.</_>
        <_>
          9 13 4 1 2.</_></rects>
      <tilted>0</tilted></_>
    <_>
      <rects>
        <_>
          5 16 8 8 -1.</_>
        <_>
          5 16 4 4 2.</_>
        <_>
          9 20 4 4 2.</_></rects>
      <tilted>0</tilted></_>
    <_>
      <rects>
        <_>
          5 19 2 2 -1.</_>
        <_>
          5 19 1 1 2.</_>
        <_>
          6 20 1 1 2.</_></rects>
      <tilted>0</tilted></_>
    <_>
      <rects>
        <_>
          5 20 8 4 -1.</_>
        <_>
          5 22 8 2 2.</_></rects>
      <tilted>0</tilted></_>
    <_>
      <rects>
        <_>
          6 0 17 2 -1.</_>
        <_>
          6 1 17 1 2.</_></rects>
      <tilted>0</tilted></_>
    <_>
      <rects>
        <_>
          6 6 4 6 -1.</_>
        <_>
          8 6 2 6 2.</_></rects>
      <tilted>0</tilted></_>
    <_>
      <rects>
        <_>
          6 9 1 2 -1.</_>
        <_>
          6 10 1 1 2.</_></rects>
      <tilted>0</tilted></_>
    <_>
      <rects>
        <_>
          6 12 10 6 -1.</_>
        <_>
          11 12 5 6 2.</_></rects>
      <tilted>0</tilted></_>
    <_>
      <rects>
        <_>
          7 6 8 14 -1.</_>
        <_>
          7 6 4 7 2.</_>
        <_>
          11 13 4 7 2.</_></rects>
      <tilted>0</tilted></_>
    <_>
      <rects>
        <_>
          7 8 4 5 -1.</_>
        <_>
          9 8 2 5 2.</_></rects>
      <tilted>0</tilted></_>
    <_>
      <rects>
        <_>
          7 11 14 1 -1.</_>
        <_>
          14 11 7 1 2.</_></rects>
      <tilted>0</tilted></_>
    <_>
      <rects>
        <_>
          7 12 8 5 -1.</_>
        <_>
          11 12 4 5 2.</_></rects>
      <tilted>0</tilted></_>
    <_>
      <rects>
        <_>
          7 13 10 2 -1.</_>
        <_>
          7 14 10 1 2.</_></rects>
      <tilted>0</tilted></_>
    <_>
      <rects>
        <_>
          7 14 10 2 -1.</_>
        <_>
          7 14 5 1 2.</_>
        <_>
          12 15 5 1 2.</_></rects>
      <tilted>0</tilted></_>
    <_>
      <rects>
        <_>
          7 15 10 4 -1.</_>
        <_>
          7 15 5 2 2.</_>
        <_>
          12 17 5 2 2.</_></rects>
      <tilted>0</tilted></_>
    <_>
      <rects>
        <_>
          7 16 6 2 -1.</_>
        <_>
          7 16 3 1 2.</_>
        <_>
          10 17 3 1 2.</_></rects>
      <tilted>0</tilted></_>
    <_>
      <rects>
        <_>
          7 17 11 6 -1.</_>
        <_>
          7 20 11 3 2.</_></rects>
      <tilted>0</tilted></_>
    <_>
      <rects>
        <_>
          7 17 16 6 -1.</_>
        <_>
          7 20 16 3 2.</_></rects>
      <tilted>0</tilted></_>
    <_>
      <rects>
        <_>
          7 20 4 3 -1.</_>
        <_>
          9 20 2 3 2.</_></rects>
      <tilted>0</tilted></_>
    <_>
      <rects>
        <_>
          8 0 6 1 -1.</_>
        <_>
          11 0 3 1 2.</_></rects>
      <tilted>0</tilted></_>
    <_>
      <rects>
        <_>
          8 0 8 1 -1.</_>
        <_>
          12 0 4 1 2.</_></rects>
      <tilted>0</tilted></_>
    <_>
      <rects>
        <_>
          8 8 6 1 -1.</_>
        <_>
          11 8 3 1 2.</_></rects>
      <tilted>0</tilted></_>
    <_>
      <rects>
        <_>
          8 9 7 3 -1.</_>
        <_>
          8 10 7 1 2.</_></rects>
      <tilted>0</tilted></_>
    <_>
      <rects>
        <_>
          8 12 16 2 -1.</_>
        <_>
          16 12 8 2 2.</_></rects>
      <tilted>0</tilted></_>
    <_>
      <rects>
        <_>
          8 12 9 12 -1.</_>
        <_>
          8 18 9 6 2.</_></rects>
      <tilted>0</tilted></_>
    <_>
      <rects>
        <_>
          8 13 8 2 -1.</_>
        <_>
          8 14 8 1 2.</_></rects>
      <tilted>0</tilted></_>
    <_>
      <rects>
        <_>
          8 13 16 2 -1.</_>
        <_>
          8 14 16 1 2.</_></rects>
      <tilted>0</tilted></_>
    <_>
      <rects>
        <_>
          8 14 8 2 -1.</_>
        <_>
          8 15 8 1 2.</_></rects>
      <tilted>0</tilted></_>
    <_>
      <rects>
        <_>
          9 0 5 15 -1.</_>
        <_>
          9 5 5 5 2.</_></rects>
      <tilted>0</tilted></_>
    <_>
      <rects>
        <_>
          9 2 12 8 -1.</_>
        <_>
          15 2 6 8 2.</_></rects>
      <tilted>0</tilted></_>
    <_>
      <rects>
        <_>
          9 6 8 4 -1.</_>
        <_>
          13 6 4 4 2.</_></rects>
      <tilted>0</tilted></_>
    <_>
      <rects>
        <_>
          9 8 4 2 -1.</_>
        <_>
          9 9 4 1 2.</_></rects>
      <tilted>0</tilted></_>
    <_>
      <rects>
        <_>
          9 8 10 8 -1.</_>
        <_>
          9 8 5 4 2.</_>
        <_>
          14 12 5 4 2.</_></rects>
      <tilted>0</tilted></_>
    <_>
      <rects>
        <_>
          9 10 5 2 -1.</_>
        <_>
          9 11 5 1 2.</_></rects>
      <tilted>0</tilted></_>
    <_>
      <rects>
        <_>
          9 11 8 10 -1.</_>
        <_>
          9 11 4 5 2.</_>
        <_>
          13 16 4 5 2.</_></rects>
      <tilted>0</tilted></_>
    <_>
      <rects>
        <_>
          9 11 8 2 -1.</_>
        <_>
          9 12 8 1 2.</_></rects>
      <tilted>0</tilted></_>
    <_>
      <rects>
        <_>
          9 12 10 1 -1.</_>
        <_>
          14 12 5 1 2.</_></rects>
      <tilted>0</tilted></_>
    <_>
      <rects>
        <_>
          9 12 5 12 -1.</_>
        <_>
          9 18 5 6 2.</_></rects>
      <tilted>0</tilted></_>
    <_>
      <rects>
        <_>
          9 12 6 2 -1.</_>
        <_>
          9 13 6 1 2.</_></rects>
      <tilted>0</tilted></_>
    <_>
      <rects>
        <_>
          9 12 12 4 -1.</_>
        <_>
          9 12 6 2 2.</_>
        <_>
          15 14 6 2 2.</_></rects>
      <tilted>0</tilted></_>
    <_>
      <rects>
        <_>
          9 12 7 4 -1.</_>
        <_>
          9 14 7 2 2.</_></rects>
      <tilted>0</tilted></_>
    <_>
      <rects>
        <_>
          9 14 4 9 -1.</_>
        <_>
          9 17 4 3 2.</_></rects>
      <tilted>0</tilted></_>
    <_>
      <rects>
        <_>
          9 15 6 2 -1.</_>
        <_>
          9 15 3 1 2.</_>
        <_>
          12 16 3 1 2.</_></rects>
      <tilted>0</tilted></_>
    <_>
      <rects>
        <_>
          9 16 8 2 -1.</_>
        <_>
          9 16 4 1 2.</_>
        <_>
          13 17 4 1 2.</_></rects>
      <tilted>0</tilted></_>
    <_>
      <rects>
        <_>
          9 16 7 8 -1.</_>
        <_>
          9 20 7 4 2.</_></rects>
      <tilted>0</tilted></_>
    <_>
      <rects>
        <_>
          10 3 5 18 -1.</_>
        <_>
          10 12 5 9 2.</_></rects>
      <tilted>0</tilted></_>
    <_>
      <rects>
        <_>
          10 8 4 3 -1.</_>
        <_>
          10 9 4 1 2.</_></rects>
      <tilted>0</tilted></_>
    <_>
      <rects>
        <_>
          10 9 1 2 -1.</_>
        <_>
          10 10 1 1 2.</_></rects>
      <tilted>0</tilted></_>
    <_>
      <rects>
        <_>
          10 10 6 10 -1.</_>
        <_>
          10 15 6 5 2.</_></rects>
      <tilted>0</tilted></_>
    <_>
      <rects>
        <_>
          10 11 8 5 -1.</_>
        <_>
          14 11 4 5 2.</_></rects>
      <tilted>0</tilted></_>
    <_>
      <rects>
        <_>
          10 11 5 8 -1.</_>
        <_>
          10 15 5 4 2.</_></rects>
      <tilted>0</tilted></_>
    <_>
      <rects>
        <_>
          10 12 3 5 -1.</_>
        <_>
          11 12 1 5 2.</_></rects>
      <tilted>0</tilted></_>
    <_>
      <rects>
        <_>
          10 12 3 12 -1.</_>
        <_>
          10 18 3 6 2.</_></rects>
      <tilted>0</tilted></_>
    <_>
      <rects>
        <_>
          10 13 2 2 -1.</_>
        <_>
          10 13 1 1 2.</_>
        <_>
          11 14 1 1 2.</_></rects>
      <tilted>0</tilted></_>
    <_>
      <rects>
        <_>
          10 13 3 9 -1.</_>
        <_>
          10 16 3 3 2.</_></rects>
      <tilted>0</tilted></_>
    <_>
      <rects>
        <_>
          10 13 14 11 -1.</_>
        <_>
          17 13 7 11 2.</_></rects>
      <tilted>0</tilted></_>
    <_>
      <rects>
        <_>
          10 14 4 2 -1.</_>
        <_>
          10 14 2 1 2.</_>
        <_>
          12 15 2 1 2.</_></rects>
      <tilted>0</tilted></_>
    <_>
      <rects>
        <_>
          10 14 8 2 -1.</_>
        <_>
          10 14 4 1 2.</_>
        <_>
          14 15 4 1 2.</_></rects>
      <tilted>0</tilted></_>
    <_>
      <rects>
        <_>
          10 14 14 2 -1.</_>
        <_>
          10 14 7 1 2.</_>
        <_>
          17 15 7 1 2.</_></rects>
      <tilted>0</tilted></_>
    <_>
      <rects>
        <_>
          10 15 4 2 -1.</_>
        <_>
          10 16 4 1 2.</_></rects>
      <tilted>0</tilted></_>
    <_>
      <rects>
        <_>
          10 15 6 4 -1.</_>
        <_>
          10 17 6 2 2.</_></rects>
      <tilted>0</tilted></_>
    <_>
      <rects>
        <_>
          10 19 2 4 -1.</_>
        <_>
          11 19 1 4 2.</_></rects>
      <tilted>0</tilted></_>
    <_>
      <rects>
        <_>
          11 3 2 11 -1.</_>
        <_>
          12 3 1 11 2.</_></rects>
      <tilted>0</tilted></_>
    <_>
      <rects>
        <_>
          11 3 4 7 -1.</_>
        <_>
          13 3 2 7 2.</_></rects>
      <tilted>0</tilted></_>
    <_>
      <rects>
        <_>
          11 5 3 13 -1.</_>
        <_>
          12 5 1 13 2.</_></rects>
      <tilted>0</tilted></_>
    <_>
      <rects>
        <_>
          11 7 3 7 -1.</_>
        <_>
          12 7 1 7 2.</_></rects>
      <tilted>0</tilted></_>
    <_>
      <rects>
        <_>
          11 7 3 10 -1.</_>
        <_>
          11 12 3 5 2.</_></rects>
      <tilted>0</tilted></_>
    <_>
      <rects>
        <_>
          11 7 12 9 -1.</_>
        <_>
          15 7 4 9 2.</_></rects>
      <tilted>0</tilted></_>
    <_>
      <rects>
        <_>
          11 8 3 9 -1.</_>
        <_>
          12 8 1 9 2.</_></rects>
      <tilted>0</tilted></_>
    <_>
      <rects>
        <_>
          11 8 3 10 -1.</_>
        <_>
          11 13 3 5 2.</_></rects>
      <tilted>0</tilted></_>
    <_>
      <rects>
        <_>
          11 9 3 8 -1.</_>
        <_>
          11 13 3 4 2.</_></rects>
      <tilted>0</tilted></_>
    <_>
      <rects>
        <_>
          11 9 4 8 -1.</_>
        <_>
          11 13 4 4 2.</_></rects>
      <tilted>0</tilted></_>
    <_>
      <rects>
        <_>
          11 11 8 4 -1.</_>
        <_>
          11 11 4 2 2.</_>
        <_>
          15 13 4 2 2.</_></rects>
      <tilted>0</tilted></_>
    <_>
      <rects>
        <_>
          11 11 8 9 -1.</_>
        <_>
          15 11 4 9 2.</_></rects>
      <tilted>0</tilted></_>
    <_>
      <rects>
        <_>
          11 13 5 2 -1.</_>
        <_>
          11 14 5 1 2.</_></rects>
      <tilted>0</tilted></_>
    <_>
      <rects>
        <_>
          11 14 6 2 -1.</_>
        <_>
          11 14 3 1 2.</_>
        <_>
          14 15 3 1 2.</_></rects>
      <tilted>0</tilted></_>
    <_>
      <rects>
        <_>
          11 14 10 2 -1.</_>
        <_>
          16 14 5 2 2.</_></rects>
      <tilted>0</tilted></_>
    <_>
      <rects>
        <_>
          12 6 6 5 -1.</_>
        <_>
          15 6 3 5 2.</_></rects>
      <tilted>0</tilted></_>
    <_>
      <rects>
        <_>
          12 6 4 16 -1.</_>
        <_>
          12 14 4 8 2.</_></rects>
      <tilted>0</tilted></_>
    <_>
      <rects>
        <_>
          12 6 12 3 -1.</_>
        <_>
          18 6 6 3 2.</_></rects>
      <tilted>0</tilted></_>
    <_>
      <rects>
        <_>
          12 7 6 3 -1.</_>
        <_>
          15 7 3 3 2.</_></rects>
      <tilted>0</tilted></_>
    <_>
      <rects>
        <_>
          12 7 3 12 -1.</_>
        <_>
          12 13 3 6 2.</_></rects>
      <tilted>0</tilted></_>
    <_>
      <rects>
        <_>
          12 7 3 14 -1.</_>
        <_>
          12 14 3 7 2.</_></rects>
      <tilted>0</tilted></_>
    <_>
      <rects>
        <_>
          12 9 1 8 -1.</_>
        <_>
          12 13 1 4 2.</_></rects>
      <tilted>0</tilted></_>
    <_>
      <rects>
        <_>
          12 9 1 15 -1.</_>
        <_>
          12 14 1 5 2.</_></rects>
      <tilted>0</tilted></_>
    <_>
      <rects>
        <_>
          12 9 2 12 -1.</_>
        <_>
          12 15 2 6 2.</_></rects>
      <tilted>0</tilted></_>
    <_>
      <rects>
        <_>
          12 9 6 1 -1.</_>
        <_>
          15 9 3 1 2.</_></rects>
      <tilted>0</tilted></_>
    <_>
      <rects>
        <_>
          12 9 3 2 -1.</_>
        <_>
          12 10 3 1 2.</_></rects>
      <tilted>0</tilted></_>
    <_>
      <rects>
        <_>
          12 10 2 2 -1.</_>
        <_>
          12 11 2 1 2.</_></rects>
      <tilted>0</tilted></_>
    <_>
      <rects>
        <_>
          12 10 6 2 -1.</_>
        <_>
          15 10 3 2 2.</_></rects>
      <tilted>0</tilted></_>
    <_>
      <rects>
        <_>
          12 10 8 1 -1.</_>
        <_>
          16 10 4 1 2.</_></rects>
      <tilted>0</tilted></_>
    <_>
      <rects>
        <_>
          12 11 2 6 -1.</_>
        <_>
          12 14 2 3 2.</_></rects>
      <tilted>0</tilted></_>
    <_>
      <rects>
        <_>
          12 13 6 1 -1.</_>
        <_>
          15 13 3 1 2.</_></rects>
      <tilted>0</tilted></_>
    <_>
      <rects>
        <_>
          12 14 2 2 -1.</_>
        <_>
          12 15 2 1 2.</_></rects>
      <tilted>0</tilted></_>
    <_>
      <rects>
        <_>
          12 14 3 2 -1.</_>
        <_>
          12 15 3 1 2.</_></rects>
      <tilted>0</tilted></_>
    <_>
      <rects>
        <_>
          12 15 2 2 -1.</_>
        <_>
          12 16 2 1 2.</_></rects>
      <tilted>0</tilted></_>
    <_>
      <rects>
        <_>
          12 15 2 4 -1.</_>
        <_>
          12 17 2 2 2.</_></rects>
      <tilted>0</tilted></_>
    <_>
      <rects>
        <_>
          12 18 12 6 -1.</_>
        <_>
          18 18 6 6 2.</_></rects>
      <tilted>0</tilted></_>
    <_>
      <rects>
        <_>
          12 18 10 6 -1.</_>
        <_>
          12 21 10 3 2.</_></rects>
      <tilted>0</tilted></_>
    <_>
      <rects>
        <_>
          13 6 2 16 -1.</_>
        <_>
          13 14 2 8 2.</_></rects>
      <tilted>0</tilted></_>
    <_>
      <rects>
        <_>
          13 7 4 5 -1.</_>
        <_>
          15 7 2 5 2.</_></rects>
      <tilted>0</tilted></_>
    <_>
      <rects>
        <_>
          13 8 3 1 -1.</_>
        <_>
          14 8 1 1 2.</_></rects>
      <tilted>0</tilted></_>
    <_>
      <rects>
        <_>
          13 8 1 3 -1.</_>
        <_>
          13 9 1 1 2.</_></rects>
      <tilted>0</tilted></_>
    <_>
      <rects>
        <_>
          13 9 4 2 -1.</_>
        <_>
          15 9 2 2 2.</_></rects>
      <tilted>0</tilted></_>
    <_>
      <rects>
        <_>
          13 9 4 7 -1.</_>
        <_>
          15 9 2 7 2.</_></rects>
      <tilted>0</tilted></_>
    <_>
      <rects>
        <_>
          13 10 1 8 -1.</_>
        <_>
          13 14 1 4 2.</_></rects>
      <tilted>0</tilted></_>
    <_>
      <rects>
        <_>
          13 10 4 7 -1.</_>
        <_>
          15 10 2 7 2.</_></rects>
      <tilted>0</tilted></_>
    <_>
      <rects>
        <_>
          13 11 1 2 -1.</_>
        <_>
          13 12 1 1 2.</_></rects>
      <tilted>0</tilted></_>
    <_>
      <rects>
        <_>
          13 12 1 2 -1.</_>
        <_>
          13 13 1 1 2.</_></rects>
      <tilted>0</tilted></_>
    <_>
      <rects>
        <_>
          13 14 2 2 -1.</_>
        <_>
          13 15 2 1 2.</_></rects>
      <tilted>0</tilted></_>
    <_>
      <rects>
        <_>
          14 10 10 2 -1.</_>
        <_>
          14 10 5 1 2.</_>
        <_>
          19 11 5 1 2.</_></rects>
      <tilted>0</tilted></_>
    <_>
      <rects>
        <_>
          15 0 8 2 -1.</_>
        <_>
          19 0 4 2 2.</_></rects>
      <tilted>0</tilted></_>
    <_>
      <rects>
        <_>
          15 17 6 2 -1.</_>
        <_>
          15 17 3 1 2.</_>
        <_>
          18 18 3 1 2.</_></rects>
      <tilted>0</tilted></_>
    <_>
      <rects>
        <_>
          15 20 8 4 -1.</_>
        <_>
          19 20 4 4 2.</_></rects>
      <tilted>0</tilted></_>
    <_>
      <rects>
        <_>
          16 0 6 1 -1.</_>
        <_>
          19 0 3 1 2.</_></rects>
      <tilted>0</tilted></_>
    <_>
      <rects>
        <_>
          16 0 8 1 -1.</_>
        <_>
          20 0 4 1 2.</_></rects>
      <tilted>0</tilted></_>
    <_>
      <rects>
        <_>
          16 5 7 10 -1.</_>
        <_>
          16 10 7 5 2.</_></rects>
      <tilted>0</tilted></_>
    <_>
      <rects>
        <_>
          16 13 5 6 -1.</_>
        <_>
          16 16 5 3 2.</_></rects>
      <tilted>0</tilted></_>
    <_>
      <rects>
        <_>
          16 20 8 4 -1.</_>
        <_>
          16 22 8 2 2.</_></rects>
      <tilted>0</tilted></_>
    <_>
      <rects>
        <_>
          16 23 8 1 -1.</_>
        <_>
          20 23 4 1 2.</_></rects>
      <tilted>0</tilted></_>
    <_>
      <rects>
        <_>
          17 0 2 1 -1.</_>
        <_>
          18 0 1 1 2.</_></rects>
      <tilted>0</tilted></_>
    <_>
      <rects>
        <_>
          17 0 5 18 -1.</_>
        <_>
          17 9 5 9 2.</_></rects>
      <tilted>0</tilted></_>
    <_>
      <rects>
        <_>
          17 1 6 2 -1.</_>
        <_>
          20 1 3 2 2.</_></rects>
      <tilted>0</tilted></_>
    <_>
      <rects>
        <_>
          17 23 4 1 -1.</_>
        <_>
          19 23 2 1 2.</_></rects>
      <tilted>0</tilted></_>
    <_>
      <rects>
        <_>
          18 21 4 3 -1.</_>
        <_>
          20 21 2 3 2.</_></rects>
      <tilted>0</tilted></_>
    <_>
      <rects>
        <_>
          19 18 4 6 -1.</_>
        <_>
          19 21 4 3 2.</_></rects>
      <tilted>0</tilted></_>
    <_>
      <rects>
        <_>
          19 22 4 2 -1.</_>
        <_>
          19 23 4 1 2.</_></rects>
      <tilted>0</tilted></_>
    <_>
      <rects>
        <_>
          20 0 4 1 -1.</_>
        <_>
          22 0 2 1 2.</_></rects>
      <tilted>0</tilted></_>
    <_>
      <rects>
        <_>
          20 1 4 6 -1.</_>
        <_>
          20 4 4 3 2.</_></rects>
      <tilted>0</tilted></_>
    <_>
      <rects>
        <_>
          20 6 4 18 -1.</_>
        <_>
          20 6 2 9 2.</_>
        <_>
          22 15 2 9 2.</_></rects>
      <tilted>0</tilted></_>
    <_>
      <rects>
        <_>
          21 0 2 1 -1.</_>
        <_>
          22 0 1 1 2.</_></rects>
      <tilted>0</tilted></_>
    <_>
      <rects>
        <_>
          21 1 2 4 -1.</_>
        <_>
          21 3 2 2 2.</_></rects>
      <tilted>0</tilted></_>
    <_>
      <rects>
        <_>
          22 0 2 1 -1.</_>
        <_>
          23 0 1 1 2.</_></rects>
      <tilted>0</tilted></_>
    <_>
      <rects>
        <_>
          22 0 2 5 -1.</_>
        <_>
          23 0 1 5 2.</_></rects>
      <tilted>0</tilted></_>
    <_>
      <rects>
        <_>
          22 0 2 10 -1.</_>
        <_>
          23 0 1 10 2.</_></rects>
      <tilted>0</tilted></_>
    <_>
      <rects>
        <_>
          22 0 2 18 -1.</_>
        <_>
          22 9 2 9 2.</_></rects>
      <tilted>0</tilted></_>
    <_>
      <rects>
        <_>
          22 2 1 22 -1.</_>
        <_>
          22 13 1 11 2.</_></rects>
      <tilted>0</tilted></_>
    <_>
      <rects>
        <_>
          22 6 1 6 -1.</_>
        <_>
          22 9 1 3 2.</_></rects>
      <tilted>0</tilted></_>
    <_>
      <rects>
        <_>
          22 6 1 16 -1.</_>
        <_>
          22 14 1 8 2.</_></rects>
      <tilted>0</tilted></_>
    <_>
      <rects>
        <_>
          22 8 1 16 -1.</_>
        <_>
          22 16 1 8 2.</_></rects>
      <tilted>0</tilted></_>
    <_>
      <rects>
        <_>
          23 0 1 14 -1.</_>
        <_>
          23 7 1 7 2.</_></rects>
      <tilted>0</tilted></_>
    <_>
      <rects>
        <_>
          23 18 1 6 -1.</_>
        <_>
          23 21 1 3 2.</_></rects>
      <tilted>0</tilted></_></features></cascade>
</opencv_storage>
