<?xml version="1.0"?>
<opencv_storage>
<stage19>
  <maxWeakCount>6</maxWeakCount>
  <stageThreshold>-1.3644311428070068e+00</stageThreshold>
  <weakClassifiers>
    <_>
      <internalNodes>
        0 -1 117892 -5.3477820008993149e-02</internalNodes>
      <leafValues>
        -3.1854838132858276e-01 -9.1193181276321411e-01</leafValues></_>
    <_>
      <internalNodes>
        0 -1 108889 1.1618287861347198e-01</internalNodes>
      <leafValues>
        -5.4793781042098999e-01 2.7015531063079834e-01</leafValues></_>
    <_>
      <internalNodes>
        0 -1 111174 -2.0821526646614075e-02</internalNodes>
      <leafValues>
        1.5917709469795227e-01 -7.6985383033752441e-01</leafValues></_>
    <_>
      <internalNodes>
        0 -1 94814 1.0039051994681358e-03</internalNodes>
      <leafValues>
        -2.4841989576816559e-01 4.6723455190658569e-01</leafValues></_>
    <_>
      <internalNodes>
        0 -1 104543 3.7665866315364838e-02</internalNodes>
      <leafValues>
        -1.9347932934761047e-01 5.2307897806167603e-01</leafValues></_>
    <_>
      <internalNodes>
        0 -1 105963 -9.3851033598184586e-03</internalNodes>
      <leafValues>
        7.5481784343719482e-01 -1.2502118945121765e-01</leafValues></_></weakClassifiers></stage19>
</opencv_storage>
